tree
version=v4
num_class=1
num_tree_per_iteration=1
label_index=0
max_feature_idx=35
objective=regression
feature_names=Column_0 Column_1 Column_2 Column_3 Column_4 Column_5 Column_6 Column_7 Column_8 Column_9 Column_10 Column_11 Column_12 Column_13 Column_14 Column_15 Column_16 Column_17 Column_18 Column_19 Column_20 Column_21 Column_22 Column_23 Column_24 Column_25 Column_26 Column_27 Column_28 Column_29 Column_30 Column_31 Column_32 Column_33 Column_34 Column_35
feature_infos=[56.729907989501953:63.580947875976562] [56.867488861083984:62.508705139160156] [0.0045793121680617332:5.0709953308105469] [-5.8104887008666992:-0.013135066255927086] [-5.2258257865905762:-0.0002307270624442026] none none [-7.6591033935546875:-0.0038385000079870224] [35.969593048095703:58.912998199462891] [39.689170837402344:62.914173126220703] [18:22] [18:22] [1:4] [1:3] none none none none none none none none none none none none none none none none none none none none none none
tree_sizes=636 669 670 670 670 670 671 671 667 757 672 760 674 755 759 672 679 675 672 764 757 763 674 844 762 678 673 842 850 852 842 939 675 766 765 853 856 765 850 858 855 858 852 945 944 845 856 944 848 856 855 951 944 947 847 858 947 946 939 952 940 857 943 943 946 942 858 946 947 766 940 856 857 945 856 855 940 943 940 856 936 851 941 861 944 945 857 858 857 942 855 860 943 854 937 1038 853 858 857 855

Tree=0
num_leaves=6
num_cat=0
split_feature=0 2 2 2 2
split_gain=1.28235 0.204793 0.0324761 0.0179056 0.000749729
threshold=61.594781875610359 1.2910287976264956 1.9926850795745852 0.82903689146041881 1.6284858584403994
decision_type=2 2 2 2 2
left_child=1 3 4 -1 -3
right_child=-2 2 -4 -5 -6
leaf_value=0.86556254542565769 0.85303174324175679 0.86263923078094107 0.86025515446727652 0.86392522082017853 0.86224576446942858
leaf_weight=75 27 21 22 44 21
leaf_count=75 27 21 22 44 21
internal_value=0.862284 0.863859 0.861609 0.865048 0.862459
internal_weight=210 183 64 119 42
internal_count=210 183 64 119 42
is_linear=0
shrinkage=1


Tree=1
num_leaves=6
num_cat=0
split_feature=0 2 2 2 2
split_gain=1.17461 0.186726 0.0323709 0.0139602 0.000457591
threshold=61.594781875610359 1.2719305753707888 1.9501459002494814 0.67483729124069225 1.5919950008392336
decision_type=2 2 2 2 2
left_child=1 3 4 -1 -3
right_child=-2 2 -4 -5 -6
leaf_value=0.0032538489301634187 -0.0088623034651391219 0.00040814110386865933 -0.001872182072700776 0.0017662850995387497 7.6199415208840827e-05
leaf_weight=63 27 21 24 53 22
leaf_count=63 27 21 24 53 22
internal_value=-7.03105e-06 0.00150044 -0.000578114 0.00267526 0.000263939
internal_weight=210 183 67 116 43
internal_count=210 183 67 116 43
is_linear=0
shrinkage=0.05


Tree=2
num_leaves=6
num_cat=0
split_feature=0 2 2 2 2
split_gain=1.0761 0.170353 0.0276179 0.0149477 0.000621075
threshold=61.594781875610359 1.2910287976264956 1.9926850795745852 0.67483729124069225 1.6284858584403994
decision_type=2 2 2 2 2
left_child=1 3 4 -1 -3
right_child=-2 2 -4 -5 -6
leaf_value=0.0031031192170784755 -0.0084884249517926946 0.00032594036785247649 -0.0018702916404301371 0.0016515783885432803 -3.2651879323216586e-05
leaf_weight=63 27 21 22 56 21
leaf_count=63 27 21 22 56 21
internal_value=-1.27609e-05 0.00143024 -0.000621339 0.00251418 0.000162245
internal_weight=210 183 64 119 42
internal_count=210 183 64 119 42
is_linear=0
shrinkage=0.05


Tree=3
num_leaves=6
num_cat=0
split_feature=0 2 2 2 2
split_gain=0.985774 0.155445 0.0273974 0.0114772 0.000366059
threshold=61.594781875610359 1.2719305753707888 1.9501459002494814 0.64814212918281566 1.5919950008392336
decision_type=2 2 2 2 2
left_child=1 3 4 -1 -3
right_child=-2 2 -4 -5 -6
leaf_value=0.0029907758419330304 -0.0081303195627697288 0.0003708475912459947 -0.0017236577796524968 0.0016430171878367176 7.2433079131533983e-05
leaf_weight=60 27 21 24 56 22
leaf_count=60 27 21 24 56 22
internal_value=-1.82981e-05 0.00136296 -0.000533171 0.00243491 0.000241619
internal_weight=210 183 67 116 43
internal_count=210 183 67 116 43
is_linear=0
shrinkage=0.05


Tree=4
num_leaves=6
num_cat=0
split_feature=7 2 2 2 2
split_gain=0.913526 0.176154 0.0319936 0.0150477 0.000490646
threshold=-3.4967492818832393 1.2910287976264956 2.1591830253601079 0.64814212918281566 1.6284858584403994
decision_type=2 2 2 2 2
left_child=-1 3 4 -2 -3
right_child=1 2 -4 -5 -6
leaf_value=-0.0090208447589538998 0.0029373587892642097 0.0003148423542734236 -0.0018336789682507515 0.0015115669552957821 -1.374678485545105e-06
leaf_weight=20 58 20 31 57 24
leaf_count=20 58 20 31 57 24
internal_value=-2.29377e-05 0.00113123 -0.000727266 0.00232309 0.00015982
internal_weight=210 190 75 115 44
internal_count=210 190 75 115 44
is_linear=0
shrinkage=0.05


Tree=5
num_leaves=6
num_cat=0
split_feature=0 2 2 2 2
split_gain=0.865147 0.131887 0.0238723 0.0107779 0.000667145
threshold=61.594781875610359 1.2719305753707888 1.9926850795745852 0.82903689146041881 1.6284858584403994
decision_type=2 2 2 2 2
left_child=1 3 4 -1 -3
right_child=-2 2 -4 -5 -6
leaf_value=0.0026472051395103335 -0.0076281179906800391 0.0003577959586280109 -0.0016593454966183615 0.0013217441616174969 -9.9497405104697319e-06
leaf_weight=75 27 24 22 41 21
leaf_count=75 27 24 22 41 21
internal_value=-2.88748e-05 0.00126538 -0.000481735 0.0022527 0.000202348
internal_weight=210 183 67 116 45
internal_count=210 183 67 116 45
is_linear=0
shrinkage=0.05


Tree=6
num_leaves=6
num_cat=0
split_feature=7 2 2 2 2
split_gain=0.818081 0.142658 0.0250642 0.0133134 0.00205558
threshold=-3.4967492818832393 1.2910287976264956 2.4560855627059941 0.64814212918281566 1.7953721284866335
decision_type=2 2 2 2 2
left_child=-1 3 4 -2 -3
right_child=1 2 -4 -5 -6
leaf_value=-0.0085478485804051166 0.0027047565561674892 0.00024554223654329115 -0.0018551791049874198 0.0013769797984540704 -0.00033829198149032896
leaf_weight=20 58 33 22 57 20
leaf_count=20 58 33 22 57 20
internal_value=-3.32109e-05 0.00105926 -0.000615207 0.00213144 1.5057e-05
internal_weight=210 190 75 115 53
internal_count=210 190 75 115 53
is_linear=0
shrinkage=0.05


Tree=7
num_leaves=6
num_cat=0
split_feature=0 2 2 2 8
split_gain=0.758591 0.112466 0.0211289 0.00973312 0.000465125
threshold=61.594781875610359 1.2719305753707888 1.9501459002494814 0.82903689146041881 48.742399215698249
decision_type=2 2 2 2 2
left_child=1 3 4 -1 -3
right_child=-2 2 -4 -5 -6
leaf_value=0.0024563503207173203 -0.0071546338411280887 0.00037557975501167001 -0.0014865115220690597 0.0012122627934845894 4.8366098130477794e-05
leaf_weight=75 27 22 24 41 21
leaf_count=75 27 22 24 41 21
internal_value=-3.90085e-05 0.0011732 -0.000440426 0.00208489 0.000237462
internal_weight=210 183 67 116 43
internal_count=210 183 67 116 43
is_linear=0
shrinkage=0.05


Tree=8
num_leaves=6
num_cat=0
split_feature=7 2 2 2 2
split_gain=0.732878 0.116413 0.0236932 0.00607194 0.000994002
threshold=-3.4967492818832393 1.157449007034302 2.1591830253601079 0.457637369632721 1.50273072719574
decision_type=2 2 2 2 2
left_child=-1 3 4 -2 -3
right_child=1 2 -4 -5 -6
leaf_value=-0.0081011576373130091 0.0026103204225792608 0.00050931738584768032 -0.0013644193688782658 0.0014827986525016883 8.169527456630022e-05
leaf_weight=20 46 20 31 58 35
leaf_count=20 46 20 31 58 35
internal_value=-4.23471e-05 0.00099192 -0.000363938 0.00207837 0.000266679
internal_weight=210 190 86 104 55
internal_count=210 190 86 104 55
is_linear=0
shrinkage=0.05


Tree=9
num_leaves=7
num_cat=0
split_feature=7 2 2 2 2 2
split_gain=0.674543 0.106109 0.0220709 0.00565934 0.00206704 0.000489281
threshold=-3.4967492818832393 1.157449007034302 2.4560855627059941 0.64814212918281566 1.7953721284866335 1.50273072719574
decision_type=2 2 2 2 2 2
left_child=-1 3 4 -2 5 -3
right_child=1 2 -4 -5 -6 -7
leaf_value=-0.0077771111838519577 0.0023806457792127892 0.00048894469212973487 -0.0015479869705072983 0.0012991789007084627 -0.00023652272438630463 0.00013204525919342094
leaf_weight=20 58 20 22 46 20 24
leaf_count=20 58 20 22 46 20 24
internal_value=-4.57896e-05 0.00094658 -0.000347866 0.00198384 0.000146955 0.000327611
internal_weight=210 190 86 104 64 44
internal_count=210 190 86 104 64 44
is_linear=0
shrinkage=0.05


Tree=10
num_leaves=6
num_cat=0
split_feature=0 2 2 2 2
split_gain=0.638927 0.0900049 0.0191731 0.0073436 0.000261261
threshold=61.594781875610359 1.1998264193534853 1.9501459002494814 0.82903689146041881 1.5919950008392336
decision_type=2 2 2 2 2
left_child=1 3 4 -1 -3
right_child=-2 2 -4 -5 -6
leaf_value=0.0022249646764248613 -0.0065796413997304629 0.00037671905111296686 -0.0013463487238462631 0.0010935357706837877 0.00011040155648650533
leaf_weight=75 27 24 24 38 22
leaf_count=75 27 24 24 38 22
internal_value=-4.96174e-05 0.0010632 -0.000335179 0.00190694 0.000272661
internal_weight=210 183 70 113 46
internal_count=210 183 70 113 46
is_linear=0
shrinkage=0.05


Tree=11
num_leaves=7
num_cat=0
split_feature=7 2 2 2 2 7
split_gain=0.604183 0.0860084 0.0175379 0.00462001 0.00167612 0.000558524
threshold=-3.4967492818832393 1.1258079409599306 2.4560855627059941 0.457637369632721 1.50273072719574 -0.53421747684478749
decision_type=2 2 2 2 2 2
left_child=-1 3 4 -2 -3 -6
right_child=1 2 -4 -5 5 -7
leaf_value=-0.0073687449507415298 0.0023107921010723301 0.00047813528453843901 -0.0013234654514774405 0.0013048130133150456 0.00014132194597290697 -0.000180623838185476
leaf_weight=20 46 23 22 55 23 21
leaf_count=20 46 23 22 55 23 21
internal_value=-5.19276e-05 0.000887457 -0.000245585 0.00185037 0.000175675 -1.50858e-05
internal_weight=210 190 89 101 67 44
internal_count=210 190 89 101 67 44
is_linear=0
shrinkage=0.05


Tree=12
num_leaves=6
num_cat=0
split_feature=0 2 2 2 9
split_gain=0.561749 0.0771453 0.0172678 0.00674512 0.000579916
threshold=61.594781875610359 1.1998264193534853 1.9926850795745852 0.76240020990371715 49.029167175292976
decision_type=2 2 2 2 2
left_child=1 3 4 -1 -3
right_child=-2 2 -4 -5 -6
leaf_value=0.0020916359982900805 -0.0061774913192493841 2.1948810783214869e-05 -0.0013212778075184261 0.0010392815563966945 0.00036899761109838655
leaf_weight=72 27 20 22 41 28
leaf_count=72 27 20 22 41 28
internal_value=-5.4724e-05 0.000988905 -0.000305985 0.00177002 0.000240106
internal_weight=210 183 70 113 48
internal_count=210 183 70 113 48
is_linear=0
shrinkage=0.05


Tree=13
num_leaves=7
num_cat=0
split_feature=7 2 2 2 2 7
split_gain=0.541385 0.0695044 0.0130223 0.00449577 0.00126528 0.000622458
threshold=-3.4967492818832393 1.1258079409599306 2.4560855627059941 0.457637369632721 1.50273072719574 -0.53421747684478749
decision_type=2 2 2 2 2 2
left_child=-1 3 4 -2 -3 -6
right_child=1 2 -4 -5 5 -7
leaf_value=-0.0069825883656740202 0.002136572150915277 0.00043686548883020552 -0.0011167938137616685 0.0011840961535926908 0.00016920925481827 -0.00017055731575685339
leaf_weight=20 46 23 22 55 23 21
leaf_count=20 46 23 22 55 23 21
internal_value=-5.6612e-05 0.000832785 -0.000187424 0.00169822 0.000174106 6.1912e-06
internal_weight=210 190 89 101 67 44
internal_count=210 190 89 101 67 44
is_linear=0
shrinkage=0.05


Tree=14
num_leaves=7
num_cat=0
split_feature=7 2 2 2 2 7
split_gain=0.498282 0.0634076 0.0119808 0.00411994 0.00116387 0.000572791
threshold=-3.4967492818832393 1.1258079409599306 2.4560855627059941 0.457637369632721 1.50273072719574 -0.53421747684478749
decision_type=2 2 2 2 2 2
left_child=-1 3 4 -2 -3 -6
right_child=1 2 -4 -5 5 -7
leaf_value=-0.0067032851576805108 0.0020402168964638429 0.00041892279956040769 -0.0010712947870800875 0.001129825070189933 0.00016225958544444958 -0.00016366942749860197
leaf_weight=20 46 23 22 55 23 21
leaf_count=20 46 23 22 55 23 21
internal_value=-5.88317e-05 0.00079453 -0.000179864 0.00162114 0.000166913 5.87476e-06
internal_weight=210 190 89 101 67 44
internal_count=210 190 89 101 67 44
is_linear=0
shrinkage=0.05


Tree=15
num_leaves=6
num_cat=0
split_feature=0 2 2 2 4
split_gain=0.474819 0.0626077 0.0155298 0.00628097 0.0002002
threshold=61.594781875610359 1.1998264193534853 1.883813261985779 0.76240020990371715 -0.53499498963356007
decision_type=2 2 2 2 2
left_child=1 3 4 -1 -3
right_child=-2 2 -4 -5 -6
leaf_value=0.0019063731268435331 -0.0056896589550888173 0.00016236478376023506 -0.0011081585500505753 0.000919915843488431 0.00043255802628118549
leaf_weight=72 27 23 27 41 20
leaf_count=72 27 23 27 41 20
internal_value=-6.07588e-05 0.000898968 -0.000268012 0.0016026 0.000320003
internal_weight=210 183 70 113 43
internal_count=210 183 70 113 43
is_linear=0
shrinkage=0.05


Tree=16
num_leaves=6
num_cat=0
split_feature=4 2 2 2 7
split_gain=0.4495 0.0551025 0.00985718 0.00615795 0.000839958
threshold=-2.4606591463088985 1.1998264193534853 2.4560855627059941 0.34906110167503362 -0.53421747684478749
decision_type=2 2 2 2 2
left_child=-1 3 4 -2 -3
right_child=1 2 -4 -5 -6
leaf_value=-0.0055383570917911136 0.0021343024820089339 0.00037142848265554724 -0.00094688189117452838 0.0011316702457926503 -1.2812067589332021e-06
leaf_weight=27 40 31 21 65 26
leaf_count=27 40 31 21 65 26
internal_value=-6.16471e-05 0.000872198 -0.000135991 0.00159328 0.000215028
internal_weight=210 183 78 105 57
internal_count=210 183 78 105 57
is_linear=0
shrinkage=0.05


Tree=17
num_leaves=6
num_cat=0
split_feature=7 2 2 2 2
split_gain=0.432927 0.0475864 0.00817097 0.0033421 0.000524616
threshold=-3.4967492818832393 1.1258079409599306 2.1591830253601079 0.36285792291164404 1.50273072719574
decision_type=2 2 2 2 2
left_child=-1 3 4 -2 -3
right_child=1 2 -4 -5 -6
leaf_value=-0.0062551261037588129 0.0018506285967305304 0.00040123871377935371 -0.00070872032180583733 0.0010290487828324474 9.2336317443368905e-05
leaf_weight=20 43 23 31 58 35
leaf_count=20 43 23 31 58 35
internal_value=-6.18777e-05 0.000733715 -0.000112615 0.00144962 0.000236955
internal_weight=210 190 89 101 58
internal_count=210 190 89 101 58
is_linear=0
shrinkage=0.05


Tree=18
num_leaves=6
num_cat=0
split_feature=0 2 2 2 7
split_gain=0.401668 0.0511725 0.0115344 0.00769918 0.00204695
threshold=61.594781875610359 1.3110419511795046 1.883813261985779 0.76240020990371715 -1.8437742590904234
decision_type=2 2 2 2 2
left_child=1 3 -3 4 -1
right_child=-2 2 -4 -5 -6
leaf_value=0.0023590418305248027 -0.0052399879072254412 0.00026201895723202963 -0.0010310391974826417 0.00078969011157327754 0.001307174815028383
leaf_weight=20 27 34 27 50 52
leaf_count=20 27 34 27 50 52
internal_value=-6.29589e-05 0.000819912 -0.000345068 0.00139305 0.00173357
internal_weight=210 183 61 122 72
internal_count=210 183 61 122 72
is_linear=0
shrinkage=0.05


Tree=19
num_leaves=7
num_cat=0
split_feature=7 2 0 1 2 0
split_gain=0.389474 0.0383172 0.00807024 0.00506768 0.00329365 0.00129576
threshold=-3.4967492818832393 1.1258079409599306 59.081106185913093 59.169061660766609 0.34906110167503362 60.719110488891609
decision_type=2 2 2 2 2 2
left_child=-1 4 -3 -4 -2 -5
right_child=1 2 3 5 -6 -7
leaf_value=-0.0059357753843069083 0.0017456504423171281 -0.00084177810663823042 -0.00031656784553741739 0.00015597780130337924 0.00095447494249762679 0.00073413384754011154
leaf_weight=20 40 20 26 20 61 23
leaf_count=20 40 20 26 20 61 23
internal_value=-6.16169e-05 0.00069306 -6.81156e-05 0.000197859 0.00133537 0.000509483
internal_weight=210 190 89 69 101 43
internal_count=210 190 89 69 101 43
is_linear=0
shrinkage=0.05


Tree=20
num_leaves=7
num_cat=0
split_feature=4 2 0 1 7 2
split_gain=0.375735 0.0386309 0.0083044 0.00701803 0.00656337 0.0015428
threshold=-2.4606591463088985 1.1998264193534853 59.142219543457038 59.169061660766609 -2.1051701307296748 0.457637369632721
decision_type=2 2 2 2 2 2
left_child=-1 4 -3 -4 -2 -6
right_child=1 2 3 -5 5 -7
leaf_value=-0.0050696887417871041 0.002209151233546436 -0.000824424622260267 -0.00034210730247044314 0.00068950968408515976 0.0013961542409677537 0.00075551534534580166
leaf_weight=27 21 20 25 33 34 50
leaf_count=27 21 20 25 33 34 50
internal_value=-6.26103e-05 0.000791324 -5.62948e-05 0.000252986 0.00139492 0.00107869
internal_weight=210 183 78 58 105 84
internal_count=210 183 78 58 105 84
is_linear=0
shrinkage=0.05


Tree=21
num_leaves=7
num_cat=0
split_feature=7 2 0 7 2 0
split_gain=0.34889 0.0331287 0.00710825 0.00441088 0.00271616 0.00105705
threshold=-3.4967492818832393 1.1258079409599306 59.081106185913093 -0.50284796953201283 0.34906110167503362 60.719110488891609
decision_type=2 2 2 2 2 2
left_child=-1 4 -3 5 -2 -4
right_child=1 2 3 -5 -6 -7
leaf_value=-0.0056204974204301841 0.0016284284502681762 -0.00078119715617503977 0.00017447335744509476 -0.0002625617495857913 0.00089841104451228275 0.00071869331832903518
leaf_weight=20 40 20 20 28 61 21
leaf_count=20 40 20 20 28 61 21
internal_value=-6.08588e-05 0.000653476 -5.47511e-05 0.000194369 0.0012507 0.00050104
internal_weight=210 190 89 69 101 41
internal_count=210 190 89 69 101 41
is_linear=0
shrinkage=0.05


Tree=22
num_leaves=6
num_cat=0
split_feature=0 2 7 2 2
split_gain=0.335601 0.0410249 0.0256278 0.00847101 0.000555875
threshold=61.594781875610359 1.883813261985779 -2.8969901800155635 1.0832900404930117 1.50273072719574
decision_type=2 2 2 2 2
left_child=1 2 -1 -4 -5
right_child=-2 -3 3 4 -6
leaf_value=0.0025600044587627056 -0.0047936519968061475 -0.00093037612314219589 0.0010493399242375418 0.00035832129897244163 3.5659804416354747e-05
leaf_weight=20 27 27 84 27 25
leaf_count=20 27 27 84 27 25
internal_value=-6.15882e-05 0.000745507 0.00105545 0.000751258 0.000219931
internal_weight=210 183 156 136 52
internal_count=210 183 156 136 52
is_linear=0
shrinkage=0.05


Tree=23
num_leaves=8
num_cat=0
split_feature=4 7 2 0 1 2 2
split_gain=0.324808 0.0316339 0.0199103 0.00488369 0.00652658 0.0024959 0.000103142
threshold=-2.4606591463088985 -2.8969901800155635 1.50273072719574 59.453950881958015 59.201826095581062 0.457637369632721 1.0959352850914004
decision_type=2 2 2 2 2 2 2
left_child=-1 -2 5 -4 -5 -3 -7
right_child=1 2 3 4 -6 6 -8
leaf_value=-0.0047158585239230888 0.0024011683156713844 0.0012369067851090579 -0.00078012103051878514 -0.00046370482127208062 0.00064743409882514523 0.0006936433569838603 0.00034809272776608572
leaf_weight=27 20 36 20 22 21 43 21
leaf_count=27 20 36 20 22 21 43 21
internal_value=-6.05096e-05 0.0007335 0.000463504 -0.000223379 8.98595e-05 0.000886271 0.0006137
internal_weight=210 183 163 63 43 100 64
internal_count=210 183 163 63 43 100 64
is_linear=0
shrinkage=0.05


Tree=24
num_leaves=7
num_cat=0
split_feature=7 2 0 7 2 0
split_gain=0.309013 0.0246245 0.00656836 0.0043354 0.00259149 0.00119342
threshold=-3.4967492818832393 1.1258079409599306 59.081106185913093 -0.50284796953201283 0.34906110167503362 60.719110488891609
decision_type=2 2 2 2 2 2
left_child=-1 4 -3 5 -2 -4
right_child=1 2 3 -5 -6 -7
leaf_value=-0.0052904765605926518 0.0014855155571260386 -0.00069989500031806531 0.00019099573820130901 -0.0002201278111897409 0.00080026752147012198 0.0007717523826823499
leaf_weight=20 40 20 20 28 61 21
leaf_count=20 40 20 20 28 61 21
internal_value=-5.82195e-05 0.000614075 8.38964e-07 0.000237517 0.00112892 0.00054001
internal_weight=210 190 89 69 101 41
internal_count=210 190 89 69 101 41
is_linear=0
shrinkage=0.05


Tree=25
num_leaves=6
num_cat=0
split_feature=9 7 2 13 2
split_gain=0.293733 0.0313808 0.0183419 0.00455934 0.00129278
threshold=54.840139389038093 -2.3888587951660152 1.4163761734962466 2.5000000000000004 0.36285792291164404
decision_type=2 2 2 2 2
left_child=1 -1 4 -4 -3
right_child=-2 2 3 -5 -6
leaf_value=0.0022470353892003916 -0.0038748763822496119 0.0012023147379391288 -0.00057312519064588424 0.00028095897065116203 0.00065599676317731339
leaf_weight=27 36 33 32 23 59
leaf_count=27 36 33 32 23 59
internal_value=-5.87527e-05 0.000816973 0.000489033 -0.000222313 0.000903833
internal_weight=210 174 147 55 92
internal_count=210 174 147 55 92
is_linear=0
shrinkage=0.05


Tree=26
num_leaves=6
num_cat=0
split_feature=0 7 2 2 2
split_gain=0.282513 0.033457 0.0232582 0.00594035 0.000542935
threshold=61.594781875610359 -2.8969901800155635 1.883813261985779 1.019621789455414 1.50273072719574
decision_type=2 2 2 2 2
left_child=1 -1 3 -3 -5
right_child=-2 2 -4 4 -6
leaf_value=0.0023965582959353925 -0.0043975859924103135 0.00095039555523825081 -0.00082778255867879127 0.00038046061211054237 6.4727959543233748e-05
leaf_weight=20 27 78 27 33 25
leaf_count=20 27 78 27 33 25
internal_value=-5.58868e-05 0.000684612 0.000409483 0.00067576 0.000260307
internal_weight=210 183 163 136 58
internal_count=210 183 163 136 58
is_linear=0
shrinkage=0.05


Tree=27
num_leaves=8
num_cat=0
split_feature=7 2 0 1 4 0 2
split_gain=0.275375 0.0177247 0.00620776 0.00374382 0.00241409 0.00188582 0.00114831
threshold=-3.4967492818832393 1.0959352850914004 59.081106185913093 59.201826095581062 -1.3565465807914732 60.573507308959968 0.457637369632721
decision_type=2 2 2 2 2 2 2
left_child=-1 4 -3 -4 -2 -5 -6
right_child=1 2 3 5 6 -7 -8
leaf_value=-0.0049940362721681598 0.0014880840707137983 -0.000617142045754008 -0.0001371422854015905 0.00014936872897669673 0.0010026074977577081 0.00083173533982647176 0.00047408091248230666
leaf_weight=20 26 20 29 20 35 23 37
leaf_count=20 26 20 29 20 35 23 37
internal_value=-5.4759e-05 0.000579886 7.14579e-05 0.000290389 0.00103055 0.000562975 0.000779425
internal_weight=210 190 92 72 98 43 72
internal_count=210 190 92 72 98 43 72
is_linear=0
shrinkage=0.05


Tree=28
num_leaves=8
num_cat=0
split_feature=4 7 2 9 7 2 8
split_gain=0.264712 0.030783 0.0117306 0.00463101 0.00188068 0.0014375 0.000295117
threshold=-2.4606591463088985 -2.8969901800155635 1.4163761734962466 48.066024780273445 -0.50284796953201283 0.457637369632721 48.742399215698249
decision_type=2 2 2 2 2 2 2
left_child=-1 -2 5 -4 -5 -3 -7
right_child=1 2 3 4 -6 6 -8
leaf_value=-0.0042568042903440078 0.0023050308703677731 0.0010053231680613841 -0.00063262069888878622 0.00046777138917672418 -0.00013204117351927347 0.00066383772566276156 0.00032939134303887839
leaf_weight=27 20 36 22 22 22 26 35
leaf_count=27 20 36 22 22 22 26 35
internal_value=-5.41169e-05 0.000662673 0.000398553 -0.000112902 0.000184994 0.000735028 0.000511434
internal_weight=210 183 163 66 44 97 61
internal_count=210 183 163 66 44 97 61
is_linear=0
shrinkage=0.05


Tree=29
num_leaves=8
num_cat=0
split_feature=7 2 4 0 4 2 2
split_gain=0.248324 0.0155032 0.00590614 0.00406412 0.00351134 0.00340777 0.000926897
threshold=-3.4967492818832393 1.0959352850914004 -0.27865745127201075 60.934688568115241 -1.3565465807914732 1.7152638435363772 0.31715869903564459
decision_type=2 2 2 2 2 2 2
left_child=-1 4 3 5 -2 -3 -6
right_child=1 2 -4 -5 6 -7 -8
leaf_value=-0.0047421157211065303 0.0014802596550585042 0.00037880131539197703 -0.00051865218100526067 0.00081691838881502361 0.00095207781396862683 -0.00040600329241715369 0.00046647546922179813
leaf_weight=20 26 26 25 21 28 20 44
leaf_count=20 26 26 25 21 28 20 44
internal_value=-5.17019e-05 0.000550959 7.49801e-05 0.00031712 0.000972465 3.12306e-05 0.000704881
internal_weight=210 190 92 67 98 46 72
internal_count=210 190 92 67 98 46 72
is_linear=0
shrinkage=0.05


Tree=30
num_leaves=8
num_cat=0
split_feature=2 9 7 2 9 4 2
split_gain=0.239849 0.283931 0.0235227 0.0048731 0.00435701 0.00404845 0.000370386
threshold=1.684094309806824 54.759313583374031 -2.8969901800155635 1.0959352850914004 48.248495101928718 -1.3565465807914732 0.457637369632721
decision_type=2 2 2 2 2 2 2
left_child=2 4 -1 5 -2 -4 -7
right_child=1 -3 3 -5 -6 6 -8
leaf_value=0.0024553211973980071 -0.00045610650593880568 -0.0067792435153387481 0.0014566089725121857 0.00022763220332189637 0.00047741010715253652 0.0007960367766345907 0.00041059288096886767
leaf_weight=20 20 20 24 41 20 29 36
leaf_count=20 20 20 24 41 20 29 36
internal_value=-5.0945e-05 -0.00259921 0.00101932 0.000715647 1.18353e-05 0.000916396 0.000627137
internal_weight=210 60 150 130 40 89 65
internal_count=210 60 150 130 40 89 65
is_linear=0
shrinkage=0.05


Tree=31
num_leaves=9
num_cat=0
split_feature=4 7 2 9 7 8 2 1
split_gain=0.227952 0.0283501 0.00797635 0.00480699 0.001511 0.00115728 0.000399182 0.000207718
threshold=-2.4606591463088985 -2.8969901800155635 1.4163761734962466 48.066024780273445 -0.50284796953201283 50.883781433105476 0.64814212918281566 59.834428787231452
decision_type=2 2 2 2 2 2 2 2
left_child=-1 -2 5 -4 -5 7 -7 -3
right_child=1 2 3 4 -6 6 -8 -9
leaf_value=-0.0039500179220340213 0.0021903902809135615 0.00050446697995842752 -0.00059350685526927309 0.00048927370592503363 -5.739507682004909e-05 0.00052612784463141498 0.00018116731714274336 0.00099273089862739043
leaf_weight=27 20 25 22 22 22 24 23 25
leaf_count=27 20 25 22 22 22 24 23 25
internal_value=-5.00393e-05 0.000615118 0.000362395 -6.14643e-05 0.000237974 0.00063967 0.000390969 0.000816653
internal_weight=210 183 163 66 44 97 47 50
internal_count=210 183 163 66 44 97 47 50
is_linear=0
shrinkage=0.05


Tree=32
num_leaves=6
num_cat=0
split_feature=0 7 2 2 0
split_gain=0.216698 0.0306697 0.0160484 0.0038571 0.000570471
threshold=61.594781875610359 -2.8969901800155635 1.9501459002494814 1.019621789455414 60.349046707153327
decision_type=2 2 2 2 2
left_child=1 -1 3 -3 -5
right_child=-2 2 -4 4 -6
leaf_value=0.0022382842905353754 -0.0038497309607919308 0.0007725090737291892 -0.00075061593810899245 0.00034992184886696603 4.3549801756109284e-05
leaf_weight=20 27 78 24 33 28
leaf_count=20 27 78 24 33 28
internal_value=-4.7208e-05 0.000601285 0.000339789 0.000547586 0.000223245
internal_weight=210 183 163 139 61
internal_count=210 183 163 139 61
is_linear=0
shrinkage=0.05


Tree=33
num_leaves=7
num_cat=0
split_feature=7 0 2 4 2 1
split_gain=0.212217 0.0154155 0.0145199 0.00363381 0.00197916 0.000488696
threshold=-3.4967492818832393 61.489500045776374 1.9926850795745852 -2.0306897163391109 0.91274440288543712 59.572359085083015
decision_type=2 2 2 2 2 2
left_child=-1 2 3 -2 -5 -6
right_child=1 -3 -4 4 5 -7
leaf_value=-0.0043822945952415471 0.0010843652142211795 0.001678495926782489 -0.00075644482642895099 0.00056599391034876435 -2.8890813382531636e-06 0.0002718868865190416
leaf_weight=20 20 20 22 66 27 35
leaf_count=20 20 20 22 66 27 35
internal_value=-4.62384e-05 0.000510852 0.00032945 0.000510312 0.000383222 0.000160941
internal_weight=210 190 170 148 128 62
internal_count=210 190 170 148 128 62
is_linear=0
shrinkage=0.05


Tree=34
num_leaves=7
num_cat=0
split_feature=9 7 2 13 4 2
split_gain=0.200713 0.0280191 0.00832628 0.00364612 0.00120266 0.000359718
threshold=54.840139389038093 -2.3888587951660152 1.4163761734962466 2.5000000000000004 -1.3565465807914732 0.457637369632721
decision_type=2 2 2 2 2 2
left_child=1 -1 4 -4 -3 -6
right_child=-2 2 3 -5 5 -7
leaf_value=0.0020257206909946035 -0.003200300574879781 0.00098913682676437836 -0.00042840910871352726 0.00033015318180592396 0.00065488779904215692 0.00032976497141691877
leaf_weight=27 36 22 32 23 26 44
leaf_count=27 36 22 32 23 26 44
internal_value=-4.57182e-05 0.000678117 0.000372104 -0.000110114 0.000651203 0.000486133
internal_weight=210 174 147 55 92 70
internal_count=210 174 147 55 92 70
is_linear=0
shrinkage=0.05


Tree=35
num_leaves=8
num_cat=0
split_feature=4 7 0 1 0 2 8
split_gain=0.192981 0.0244402 0.0066898 0.00473563 0.00447663 0.00182888 0.000127599
threshold=-2.4606591463088985 -2.8969901800155635 58.796569824218757 59.201826095581062 61.045307159423835 1.019621789455414 51.208272933959968
decision_type=2 2 2 2 2 2 2
left_child=-1 -2 -3 -4 5 6 -5
right_child=1 2 3 4 -6 -7 -8
leaf_value=-0.0036310674906417264 0.0020318617750890553 -0.00044365784185356464 -7.2895877206433766e-05 0.00070504270604005532 0.0012194893127307296 0.00011229429746447019 0.00036455630706768718
leaf_weight=27 20 20 32 28 20 36 27
leaf_count=27 20 20 32 28 20 36 27
internal_value=-4.26172e-05 0.000569316 0.000334732 0.000454908 0.000603651 0.000411836 0.000582204
internal_weight=210 183 163 143 111 91 55
internal_count=210 183 163 143 111 91 55
is_linear=0
shrinkage=0.05


Tree=36
num_leaves=8
num_cat=0
split_feature=7 0 2 4 2 9 1
split_gain=0.188771 0.0135524 0.0126358 0.00492566 0.00143511 0.000510024 0.000189252
threshold=-3.4967492818832393 61.489500045776374 1.9926850795745852 -2.0306897163391109 0.91274440288543712 48.987066268920906 60.118629455566413
decision_type=2 2 2 2 2 2 2
left_child=-1 2 3 -2 -5 -6 -7
right_child=1 -3 -4 4 5 6 -8
leaf_value=-0.0041297492682933808 0.0011410022526979447 0.0015803022806067019 -0.00069868749188673168 0.00049775843273738233 -4.9580411752685912e-05 0.00010359971484932532 0.00034175937809050082
leaf_weight=20 20 20 22 66 20 22 20
leaf_count=20 20 20 22 66 20 22 20
internal_value=-4.01543e-05 0.000485182 0.000314874 0.000483448 0.000341673 0.000150771 0.000241302
internal_weight=210 190 170 148 128 62 42
internal_count=210 190 170 148 128 62 42
is_linear=0
shrinkage=0.05


Tree=37
num_leaves=7
num_cat=0
split_feature=0 7 2 2 0 4
split_gain=0.184922 0.029776 0.0121515 0.00281827 0.000818552 0.00050289
threshold=61.594781875610359 -2.8969901800155635 1.9501459002494814 1.019621789455414 60.349046707153327 -1.3565465807914732
decision_type=2 2 2 2 2 2
left_child=1 -1 3 5 -5 -3
right_child=-2 2 -4 4 -6 -7
leaf_value=0.0021712547331117094 -0.0035523240701877514 0.00095047256606630977 -0.00064645008232187611 0.00035581465992053335 -3.9688246474587221e-07 0.00051373777423000401
leaf_weight=20 27 20 24 33 28 58
leaf_count=20 27 20 24 33 28 58
internal_value=-3.95577e-05 0.000559412 0.000302905 0.000483577 0.000204665 0.000676232
internal_weight=210 183 163 139 61 78
internal_count=210 183 163 139 61 78
is_linear=0
shrinkage=0.05


Tree=38
num_leaves=8
num_cat=0
split_feature=2 2 7 13 4 2 2
split_gain=0.172527 0.246432 0.0192185 0.00624332 0.00393736 0.000902031 1.38756e-05
threshold=1.6561017036437991 1.7953721284866335 -2.3888587951660152 2.5000000000000004 -1.3565465807914732 0.95145165920257579 0.457637369632721
decision_type=2 2 2 2 2 2 2
left_child=2 -2 -1 -3 -4 6 -6
right_child=1 3 4 -5 5 -7 -8
leaf_value=0.0020307802388654841 -0.0060783362173242499 -0.00038059276786433268 0.0010537479011275407 0.00070993745280429732 0.00060179424450753315 0.00016661377855154233 0.00031979919743928899
leaf_weight=26 20 23 30 20 29 38 24
leaf_count=26 20 23 30 20 29 38 24
internal_value=-3.78215e-05 -0.00213039 0.000899572 0.000147747 0.000585562 0.000384371 0.000512676
internal_weight=210 63 147 43 121 91 53
internal_count=210 63 147 43 121 91 53
is_linear=0
shrinkage=0.05


Tree=39
num_leaves=8
num_cat=0
split_feature=7 0 2 4 7 2 3
split_gain=0.164323 0.0159252 0.0104121 0.00405905 0.00119053 0.000795373 0.000404359
threshold=-3.4967492818832393 61.489500045776374 1.9926850795745852 -2.0306897163391109 -2.0653876066207881 0.64814212918281566 -0.5222104787826537
decision_type=2 2 2 2 2 2 2
left_child=-1 2 3 -2 -5 -6 -7
right_child=1 -3 -4 4 5 6 -8
leaf_value=-0.003853344991803169 0.0010193061330355704 0.0016362192792003045 -0.00064857496181502938 -4.0619621442881629e-05 0.00053766661696334436 9.3983976774147674e-05 0.00034819828302912556
leaf_weight=20 20 20 22 21 39 36 32
leaf_count=20 20 20 22 21 39 36 32
internal_value=-3.77633e-05 0.000452382 0.000270337 0.000423664 0.000295774 0.000360661 0.00022927
internal_weight=210 190 170 148 128 107 68
internal_count=210 190 170 148 128 107 68
is_linear=0
shrinkage=0.05


Tree=40
num_leaves=8
num_cat=0
split_feature=0 7 2 4 2 0 7
split_gain=0.159848 0.0285641 0.0102783 0.00190919 0.000951716 0.000419465 8.01428e-05
threshold=61.594781875610359 -2.8969901800155635 1.9501459002494814 -2.0306897163391109 0.457637369632721 60.349046707153327 -0.36844304203987116
decision_type=2 2 2 2 2 2 2
left_child=1 -1 3 -3 -5 6 -6
right_child=-2 2 -4 4 5 -7 -8
leaf_value=0.0020977926978375766 -0.0033028721234586557 0.00085667460702825338 -0.00060278415320649879 0.00055330046357802965 0.00036334065605203521 6.2537507751080236e-05 0.00016609442848545901
leaf_weight=20 27 20 24 33 32 31 23
leaf_count=20 27 20 24 33 32 31 23
internal_value=-3.693e-05 0.000519957 0.000269685 0.000436027 0.000333637 0.000223578 0.000301571
internal_weight=210 183 163 139 119 86 55
internal_count=210 183 163 139 119 86 55
is_linear=0
shrinkage=0.05


Tree=41
num_leaves=8
num_cat=0
split_feature=4 7 0 2 2 8 4
split_gain=0.155167 0.021717 0.00586115 0.00787311 0.000711078 0.000563092 0.000408753
threshold=-2.4606591463088985 -2.8969901800155635 61.093740463256843 1.9926850795745852 0.95145165920257579 51.023286819458015 -0.32648268342018122
decision_type=2 2 2 2 2 2 2
left_child=-1 -2 3 4 5 -3 -6
right_child=1 2 -4 -5 6 -7 -8
leaf_value=-0.0032526592687645464 0.0018915699161589146 0.00058809412165668196 0.00097132517721210782 -0.00066019577416591348 5.2176165696610475e-05 0.00023248600508323812 0.00031701725709825518
leaf_weight=27 20 29 22 20 37 33 22
leaf_count=27 20 29 22 20 37 33 22
internal_value=-3.48578e-05 0.00051378 0.000293461 0.000158052 0.000314131 0.000430294 0.000167982
internal_weight=210 183 163 141 121 62 59
internal_count=210 183 163 141 121 62 59
is_linear=0
shrinkage=0.05


Tree=42
num_leaves=8
num_cat=0
split_feature=9 7 0 4 2 0 0
split_gain=0.147834 0.0222809 0.00589315 0.00448039 0.00138565 0.00122307 0.000265356
threshold=54.840139389038093 -2.3888587951660152 59.03856277465821 -0.64814624190330494 1.2719305753707888 60.710330963134773 59.963235855102546
decision_type=2 2 2 2 2 2 2
left_child=1 -1 -3 5 -5 6 -4
right_child=-2 2 3 4 -6 -7 -8
leaf_value=0.0017892604296321224 -0.0027404252929533494 -0.00036237717753725258 0.0006004282854389333 0.00029268204105942143 -0.00016897389528754435 0.0010486458108061925 0.00024252376449294388
leaf_weight=27 36 23 23 38 22 21 20
leaf_count=27 36 23 23 38 22 21 20
internal_value=-3.29523e-05 0.000588116 0.000315897 0.000450875 0.000123431 0.000726665 0.000476564
internal_weight=210 174 147 124 60 64 43
internal_count=210 174 147 124 60 64 43
is_linear=0
shrinkage=0.05


Tree=43
num_leaves=9
num_cat=0
split_feature=7 0 2 4 7 2 0 7
split_gain=0.144571 0.0165911 0.00796987 0.00500805 0.00169809 0.000581159 0.000302426 0.000113099
threshold=-3.4967492818832393 61.489500045776374 1.9926850795745852 -2.0306897163391109 -2.0653876066207881 0.457637369632721 60.349046707153327 -0.36844304203987116
decision_type=2 2 2 2 2 2 2 2
left_child=-1 2 3 -2 -5 -6 7 -7
right_child=1 -3 -4 4 5 6 -8 -9
leaf_value=-0.0036095165312290192 0.0010334658510982992 0.0016362589872442185 -0.00056010175486436407 -0.0001435046806363971 0.00049916711128995914 0.00036183384263495101 6.4766248631771783e-05 0.00015132627928713711
leaf_weight=20 20 20 22 21 31 27 26 23
leaf_count=20 20 20 22 21 31 27 26 23
internal_value=-3.04887e-05 0.000429143 0.000244436 0.000378426 0.000241071 0.000319586 0.000220044 0.00028756
internal_weight=210 190 170 148 128 107 76 50
internal_count=210 190 170 148 128 107 76 50
is_linear=0
shrinkage=0.05


Tree=44
num_leaves=9
num_cat=0
split_feature=0 7 2 9 2 4 2 4
split_gain=0.140108 0.0250371 0.00823838 0.00314844 0.00160976 0.000355845 0.00033365 3.4052e-05
threshold=61.594781875610359 -2.8969901800155635 1.9501459002494814 54.840139389038093 1.019621789455414 -0.52077981829643238 0.25891110301017767 -0.70635920763015736
decision_type=2 2 2 2 2 2 2 2
left_child=1 -1 3 4 6 -6 -3 -8
right_child=-2 2 -4 -5 5 -7 7 -9
leaf_value=0.0019689905054401605 -0.0030873663497914096 0.00059151138252233181 -0.0005251120928733144 0.00092927378695458179 -4.3133284068769885e-05 0.00020225292478594036 0.00035047603283041662 0.00016173837642418222
leaf_weight=20 27 26 24 20 31 21 21 20
leaf_count=20 27 26 24 20 31 21 21 20
internal_value=-2.96228e-05 0.000491632 0.000257155 0.000405766 0.000283859 6.50136e-05 0.000437398 0.000285996
internal_weight=210 183 163 139 119 52 67 41
internal_count=210 183 163 139 119 52 67 41
is_linear=0
shrinkage=0.05


Tree=45
num_leaves=8
num_cat=0
split_feature=8 4 13 0 1 0 1
split_gain=0.135179 0.0114313 0.0043856 0.00476495 0.00240488 0.00168714 0.00114738
threshold=54.944835662841804 -1.5885167717933653 2.5000000000000004 60.06050109863282 59.169061660766609 60.460849761962898 60.084508895874031
decision_type=2 2 2 2 2 2 2
left_child=1 -1 4 -4 -3 6 -6
right_child=-2 2 3 -5 5 -7 -8
leaf_value=0.0013575949605453658 -0.00261658085098422 -0.00030427042802330109 0.00022702965738169629 0.0012199919614940883 0.00027683778119223589 0.0005352546065819987 -0.00018116297034322527
leaf_weight=32 36 20 29 20 23 28 22
leaf_count=32 36 20 29 20 23 28 22
internal_value=-2.75037e-05 0.000566293 0.000347861 0.000707756 0.000131803 0.000263121 5.72012e-05
internal_weight=210 174 142 49 93 73 45
internal_count=210 174 142 49 93 73 45
is_linear=0
shrinkage=0.05


Tree=46
num_leaves=8
num_cat=0
split_feature=4 7 0 2 2 4 8
split_gain=0.130073 0.0186735 0.00587224 0.00579974 0.000519739 0.000438338 0.000356251
threshold=-2.4606591463088985 -2.8969901800155635 61.093740463256843 1.9926850795745852 1.019621789455414 -0.32648268342018122 51.023286819458015
decision_type=2 2 2 2 2 2 2
left_child=-1 -2 3 4 6 -6 -3
right_child=1 2 -4 -5 5 -7 -8
leaf_value=-0.0029717996658291668 0.0017542527473997328 0.00048916160386498731 0.00095011942321434619 -0.00056475459865760059 2.1539301815209911e-05 0.00029907110816566277 0.00020674461360613351
leaf_weight=27 20 31 22 20 35 20 35
leaf_count=27 20 31 22 20 35 20 35
internal_value=-2.553e-05 0.000476642 0.000272335 0.000137665 0.000271571 0.000138972 0.000364501
internal_weight=210 183 163 141 121 55 66
internal_count=210 183 163 141 121 55 66
is_linear=0
shrinkage=0.05


Tree=47
num_leaves=9
num_cat=0
split_feature=7 0 4 2 7 2 0 7
split_gain=0.125254 0.0178135 0.00675989 0.00408243 0.00200858 0.00041551 0.000326624 7.9793e-05
threshold=-3.4967492818832393 61.489500045776374 -2.0306897163391109 1.9926850795745852 -2.0653876066207881 0.457637369632721 60.349046707153327 -0.36844304203987116
decision_type=2 2 2 2 2 2 2 2
left_child=-1 2 -2 4 -4 -6 7 -7
right_child=1 -3 3 -5 5 6 -8 -9
leaf_value=-0.0033554844409227377 0.00095832392868872452 0.001653153051622212 -0.00021902029066740605 -0.00049546239550601553 0.00042985567270079631 0.00032640113658999326 3.8145506949794868e-05 0.0001409941264552929
leaf_weight=20 21 20 21 21 31 27 26 23
leaf_count=20 21 20 21 21 31 27 26 23
internal_value=-2.40392e-05 0.000403686 0.000213656 8.09963e-05 0.000190643 0.000277232 0.000192286 0.000261685
internal_weight=210 190 170 149 128 107 76 50
internal_count=210 190 170 149 128 107 76 50
is_linear=0
shrinkage=0.05


Tree=48
num_leaves=8
num_cat=0
split_feature=2 2 7 13 4 2 8
split_gain=0.122208 0.196467 0.0186882 0.00573636 0.00395387 0.00061949 0.000408516
threshold=1.6561017036437991 1.7953721284866335 -2.3888587951660152 2.5000000000000004 -1.3565465807914732 0.95145165920257579 50.698240280151374
decision_type=2 2 2 2 2 2 2
left_child=2 -2 -1 -3 -4 6 -6
right_child=1 3 4 -5 5 -7 -8
leaf_value=0.0018735920542836068 -0.0053106513072270906 -0.00028078360935199144 0.00092260746351842382 0.00077047775266692042 0.00052138127733808784 9.7831783864950372e-05 0.00019488415992407896
leaf_weight=26 20 23 30 20 24 38 29
leaf_count=26 20 23 30 20 24 38 29
internal_value=-2.34455e-05 -0.0017848 0.000765299 0.0002375 0.000462255 0.000270343 0.000374933
internal_weight=210 63 147 43 121 91 53
internal_count=210 63 147 43 121 91 53
is_linear=0
shrinkage=0.05


Tree=49
num_leaves=8
num_cat=0
split_feature=0 7 2 9 2 4 4
split_gain=0.116148 0.0224007 0.00664887 0.00300766 0.0010829 0.000471502 0.000273083
threshold=61.594781875610359 -2.8969901800155635 1.9501459002494814 54.840139389038093 1.019621789455414 -0.52077981829643238 -0.56054973602294911
decision_type=2 2 2 2 2 2 2
left_child=1 -1 3 4 6 -6 -3
right_child=-2 2 -4 -5 5 -7 -8
leaf_value=0.0018478377838619055 -0.0028077873903384898 0.00046463141956929729 -0.00047311576119431393 0.00087195001915097228 -5.8402334980200982e-05 0.00022331637211699183 0.00020001646112445195
leaf_weight=20 27 38 24 20 31 21 29
leaf_count=20 27 38 24 20 31 21 29
internal_value=-2.3681e-05 0.000450839 0.000229535 0.000363071 0.000245834 6.49779e-05 0.00037194
internal_weight=210 183 163 139 119 52 67
internal_count=210 183 163 139 119 52 67
is_linear=0
shrinkage=0.05


Tree=50
num_leaves=8
num_cat=0
split_feature=9 7 0 2 2 3 8
split_gain=0.112875 0.0185135 0.0045156 0.005471 0.000571446 0.000303654 6.84266e-05
threshold=54.840139389038093 -2.3888587951660152 61.045307159423835 1.7953721284866335 0.64814212918281566 -0.65684306621551503 51.515550613403327
decision_type=2 2 2 2 2 2 2
left_child=1 -1 3 4 6 -6 -3
right_child=-2 2 -4 -5 5 -7 -8
leaf_value=0.0016147344853379765 -0.0023881103004408412 0.00054107790012130859 0.00087558280658693284 -0.00050192284473235267 5.706893522024935e-05 0.00027891176176962217 0.00025199319305829705
leaf_weight=27 36 20 21 22 32 32 20
leaf_count=27 36 20 21 22 32 32 20
internal_value=-2.21847e-05 0.000520351 0.000272837 0.000142795 0.000295946 0.000180164 0.000440595
internal_weight=210 174 147 126 104 64 40
internal_count=210 174 147 126 104 64 40
is_linear=0
shrinkage=0.05


Tree=51
num_leaves=9
num_cat=0
split_feature=7 0 4 7 2 3 3 0
split_gain=0.107573 0.0185532 0.00577964 0.00306615 0.00245183 0.000593417 0.000609303 0.000356407
threshold=-3.4967492818832393 61.489500045776374 -2.0306897163391109 -2.0653876066207881 1.883813261985779 -0.65684306621551503 -0.28064687550067896 59.985599517822273
decision_type=2 2 2 2 2 2 2 2
left_child=-1 2 -2 -4 5 7 -7 -5
right_child=1 -3 3 4 -6 6 -8 -9
leaf_value=-0.0031076454818248752 0.00087167691985646698 0.0016502774711698296 -0.00040617330634067284 0.00023574425910239018 -0.00028378096288249186 0.00053946452448144549 0.00016793284148937374 -1.5158744745349395e-05
leaf_weight=20 21 20 24 26 21 25 28 25
leaf_count=20 21 20 24 26 21 25 28 25
internal_value=-2.02275e-05 0.000376114 0.000183345 6.11799e-05 0.000163082 0.000262193 0.000374581 0.000122381
internal_weight=210 190 170 149 125 104 53 51
internal_count=210 190 170 149 125 104 53 51
is_linear=0
shrinkage=0.05


Tree=52
num_leaves=9
num_cat=0
split_feature=0 7 2 9 2 11 2 9
split_gain=0.104854 0.0210445 0.00548178 0.00401984 0.00102711 0.000436677 0.000581446 0.000284918
threshold=61.594781875610359 -2.8969901800155635 1.9501459002494814 54.840139389038093 0.25891110301017767 21.500000000000004 1.4163761734962466 49.947793960571296
decision_type=2 2 2 2 2 2 2 2
left_child=1 -1 3 4 -3 6 7 -6
right_child=-2 2 -4 -5 5 -7 -8 -9
leaf_value=0.0017850612653419378 -0.0026649765364709314 0.00045953129707824352 -0.00042177763233635707 0.00092067861743271365 0.000338451628674709 -7.1608781581744552e-05 -4.8685239162296059e-05 7.8388242225628358e-05
leaf_weight=20 27 26 24 20 32 21 20 20
leaf_count=20 27 26 24 20 32 21 20 20
internal_value=-1.96204e-05 0.000431175 0.000216871 0.000337958 0.000206846 0.000116362 0.000172276 0.000254077
internal_weight=210 183 163 139 119 93 72 52
internal_count=210 183 163 139 119 93 72 52
is_linear=0
shrinkage=0.05


Tree=53
num_leaves=9
num_cat=0
split_feature=4 7 0 2 9 4 1 0
split_gain=0.101408 0.0152355 0.00600795 0.00376862 0.000506235 0.000384519 0.000409565 0.000352764
threshold=-2.4606591463088985 -2.8969901800155635 61.093740463256843 1.9926850795745852 53.892803192138679 -1.1579436659812925 60.118629455566413 60.279565811157234
decision_type=2 2 2 2 2 2 2 2
left_child=-1 -2 3 4 5 -3 7 -7
right_child=1 2 -4 -5 -6 6 -8 -9
leaf_value=-0.0026197461484116502 0.0015789215443655848 -2.8143207061846088e-05 0.00092535604925177292 -0.00045999756245873873 0.00041481895427245442 0.00019647257395263298 0.00034873355536781732 -5.4540935787372291e-05
leaf_weight=27 20 22 22 20 22 31 26 20
leaf_count=27 20 22 22 20 22 31 26 20
internal_value=-1.82032e-05 0.000425097 0.000240745 0.000105894 0.000213972 0.000151542 0.000201466 0.000101955
internal_weight=210 183 163 141 121 99 77 51
internal_count=210 183 163 141 121 99 77 51
is_linear=0
shrinkage=0.05


Tree=54
num_leaves=8
num_cat=0
split_feature=8 4 13 0 1 0 7
split_gain=0.0966966 0.011771 0.00467774 0.00433416 0.00203955 0.00160425 0.0011413
threshold=54.944835662841804 -1.5885167717933653 2.5000000000000004 60.06050109863282 59.169061660766609 60.460849761962898 -1.1524991393089292
decision_type=2 2 2 2 2 2 2
left_child=1 -1 4 -4 -3 6 -6
right_child=-2 2 3 -5 5 -7 -8
leaf_value=0.0012844257554624583 -0.002206839492406821 -0.00034614397177938372 0.00018595502795720037 0.0011247406071051957 -0.00026660055341199042 0.00043827825151807206 0.00019095242896582931
leaf_weight=32 36 20 29 20 20 28 25
leaf_count=32 36 20 29 20 20 28 25
internal_value=-1.6942e-05 0.000485128 0.000267443 0.000637796 4.97259e-05 0.00017342 -1.87288e-05
internal_weight=210 174 142 49 93 73 45
internal_count=210 174 142 49 93 73 45
is_linear=0
shrinkage=0.05


Tree=55
num_leaves=8
num_cat=0
split_feature=9 7 0 2 11 1 13
split_gain=0.0941548 0.0163778 0.00404454 0.00406362 0.000475807 0.000671637 0.000217502
threshold=54.840139389038093 -2.3888587951660152 61.045307159423835 1.7953721284866335 21.500000000000004 59.373655319213874 1.5000000000000002
decision_type=2 2 2 2 2 2 2
left_child=1 -1 3 4 5 -3 -7
right_child=-2 2 -4 -5 -6 6 -8
leaf_value=0.0015088026979356074 -0.0021765720104179685 8.9285922331328049e-05 0.00081740871811724421 -0.00043097932077081947 5.3223117477803806e-05 0.00054605983076962063 0.0002509973544926782
leaf_weight=27 36 27 21 22 25 22 30
leaf_count=27 36 27 21 22 25 22 30
internal_value=-1.56243e-05 0.000479778 0.000247359 0.000124778 0.000256719 0.000314115 0.000412781
internal_weight=210 174 147 126 104 79 52
internal_count=210 174 147 126 104 79 52
is_linear=0
shrinkage=0.05


Tree=56
num_leaves=9
num_cat=0
split_feature=7 0 9 7 2 2 10 2
split_gain=0.092161 0.0184886 0.00718976 0.00332812 0.00184511 0.000518487 0.000223907 0.000146692
threshold=-3.4967492818832393 61.489500045776374 54.840139389038093 -2.0653876066207881 1.7540152072906496 0.25891110301017767 19.500000000000004 1.019621789455414
decision_type=2 2 2 2 2 2 2 2
left_child=-1 2 3 -2 5 -5 -7 -8
right_child=1 -3 -4 4 -6 6 7 -9
leaf_value=-0.0028718775361776354 -0.00045397139348400136 0.0016240762434899807 0.00089532987580501612 0.00040537132159003929 -0.00026356300199404363 0.00024505811416020151 0.00014447021771800414 -1.4998462302173722e-05
leaf_weight=20 25 20 23 24 20 27 24 27
leaf_count=20 25 20 23 24 20 27 24 27
internal_value=-1.40777e-05 0.000352668 0.000160962 2.03888e-05 0.00013164 0.000217825 0.000139175 6.62444e-05
internal_weight=210 190 170 147 122 102 78 51
internal_count=210 190 170 147 122 102 78 51
is_linear=0
shrinkage=0.05


Tree=57
num_leaves=9
num_cat=0
split_feature=0 7 9 2 2 11 1 1
split_gain=0.0910539 0.0180131 0.00537276 0.00299815 0.000641929 0.000515076 0.000511318 6.15542e-05
threshold=61.489500045776374 -2.8969901800155635 54.840139389038093 1.883813261985779 0.25891110301017767 21.500000000000004 59.348764419555671 59.864616394042976
decision_type=2 2 2 2 2 2 2 2
left_child=1 -1 3 4 -3 6 -6 -8
right_child=-2 2 -4 -5 5 -7 7 -9
leaf_value=0.0016808525305241349 -0.0023520249673830615 0.00039860278200414489 0.00085855738985368853 -0.00038683119411062864 -1.3470362561444441e-05 -8.1064012192655355e-05 0.00015068275334434238 0.0003380258333797021
leaf_weight=20 30 26 23 22 22 21 22 24
leaf_count=20 30 26 23 22 22 21 22 24
internal_value=-1.37111e-05 0.000429043 0.000226374 9.37469e-05 0.000197971 0.000121275 0.000185034 0.000271984
internal_weight=210 180 160 137 115 89 68 46
internal_count=210 180 160 137 115 89 68 46
is_linear=0
shrinkage=0.05


Tree=58
num_leaves=9
num_cat=0
split_feature=9 13 2 4 2 0 4 3
split_gain=0.084808 0.0162824 0.011001 0.00527934 0.00252925 0.00160254 0.00110342 0.000305975
threshold=54.840139389038093 2.5000000000000004 0.91274440288543712 -1.4579282999038694 1.6284858584403994 60.100320816040046 -0.74395629763603199 -0.71302396059036244
decision_type=2 2 2 2 2 2 2 2
left_child=1 3 -3 -1 6 -4 -5 -8
right_child=-2 2 5 4 -6 -7 7 -9
leaf_value=0.00070454501345431297 -0.0020632755700406538 0.0019197306223213675 0.000155446665175313 -0.00020301859034656513 -0.00051048493844939877 0.00077619902591255529 3.9225037191779568e-05 0.00030072443568597324
leaf_weight=21 36 20 22 22 22 22 21 24
leaf_count=21 36 20 22 22 22 22 21 24
internal_value=-1.23356e-05 0.000457777 0.00106011 7.64733e-05 -0.000101316 0.000513356 5.91577e-05 0.000194817
internal_weight=210 174 64 110 89 44 67 45
internal_count=210 174 64 110 89 44 67 45
is_linear=0
shrinkage=0.05


Tree=59
num_leaves=9
num_cat=0
split_feature=7 0 9 7 2 2 0 3
split_gain=0.0829222 0.0194599 0.00783465 0.00327506 0.00141247 0.000404065 0.000222107 0.000295257
threshold=-3.4967492818832393 61.489500045776374 54.840139389038093 -2.0653876066207881 1.7540152072906496 0.25891110301017767 59.985599517822273 -0.71302396059036244
decision_type=2 2 2 2 2 2 2 2
left_child=-1 2 3 -2 5 -5 -7 -8
right_child=1 -3 -4 4 -6 6 7 -9
leaf_value=-0.0027212581634521484 -0.00047410163795575506 0.0016412703618407251 0.00090803689319207995 0.00034708136969631345 -0.00023827719851396978 0.00019698828595786971 -8.8541131117381158e-05 0.00015054351091384888
leaf_weight=20 25 20 23 24 20 36 22 20
leaf_count=20 25 20 23 24 20 36 22 20
internal_value=-1.04176e-05 0.000337393 0.000141485 -4.37581e-06 0.000106755 0.000182382 0.000113849 2.92123e-05
internal_weight=210 190 170 147 122 102 78 42
internal_count=210 190 170 147 122 102 78 42
is_linear=0
shrinkage=0.05


Tree=60
num_leaves=9
num_cat=0
split_feature=0 7 9 2 10 10 0 9
split_gain=0.0826654 0.0178663 0.005873 0.00245196 0.000643131 0.000414755 0.00022418 0.000212453
threshold=61.489500045776374 -2.8969901800155635 54.840139389038093 1.883813261985779 19.500000000000004 20.500000000000004 59.985599517822273 49.595283508300788
decision_type=2 2 2 2 2 2 2 2
left_child=1 -1 3 4 6 -6 -3 -7
right_child=-2 2 -4 -5 5 7 -8 -9
leaf_value=0.00165780945122242 -0.0022382839755820377 0.00041447849771766751 0.00087074251070069818 -0.00036121760430331859 -7.9665010525786789e-05 2.2625079800491222e-05 0.00014372146699180897 0.00024074765448137351
leaf_weight=20 30 22 23 22 27 20 22 24
leaf_count=20 30 22 23 22 27 20 22 24
internal_value=-1.02203e-05 0.000411582 0.000210287 7.26518e-05 0.000167245 6.57635e-05 0.00030758 0.000154027
internal_weight=210 180 160 137 115 71 44 44
internal_count=210 180 160 137 115 71 44 44
is_linear=0
shrinkage=0.05


Tree=61
num_leaves=8
num_cat=0
split_feature=4 13 0 9 0 3 3
split_gain=0.0787494 0.012889 0.00837059 0.00513045 0.00154709 0.000920658 0.00198094
threshold=-2.2387291193008418 2.5000000000000004 60.06050109863282 54.182041168212898 59.453950881958015 -0.90484902262687672 -0.23741020262241361
decision_type=2 2 2 2 2 2 2
left_child=-1 3 -3 4 -2 -6 -7
right_child=1 2 -4 -5 5 6 -8
leaf_value=-0.0021836017970261828 -0.00042165835620835426 0.00033242910249987846 0.0014729225259442402 0.00070371178191271609 -0.00022499903615635751 0.00036977729053303069 -0.00021794966227753321
leaf_weight=30 22 36 31 20 21 30 20
leaf_count=30 22 36 31 20 21 30 20
internal_value=-8.92908e-06 0.000402737 0.000925761 6.65382e-05 -9.94009e-05 2.16249e-05 0.000136245
internal_weight=210 180 67 113 93 71 50
internal_count=210 180 67 113 93 71 50
is_linear=0
shrinkage=0.05


Tree=62
num_leaves=9
num_cat=0
split_feature=2 7 7 4 7 3 0 3
split_gain=0.0764011 0.15355 0.0149272 0.00440133 0.00347895 0.000549066 0.00034508 0.000264431
threshold=1.6561017036437991 -1.9749001860618589 -2.3888587951660152 -1.3565465807914732 -0.50284796953201283 -0.65684306621551503 59.985599517822273 -0.28064687550067896
decision_type=2 2 2 2 2 2 2 2
left_child=2 -2 -1 -4 -3 6 -5 -7
right_child=1 4 3 5 -6 7 -8 -9
leaf_value=0.0016018748088108916 -0.0045206996146589518 0.00073028659680858261 0.00082670121187610282 0.00014884357005939819 -0.00010947208013385535 0.00038173431142543758 -9.986632134574134e-05 0.00011318965776549054
leaf_weight=26 20 23 30 23 20 22 23 23
leaf_count=26 20 23 30 23 20 22 23 23
internal_value=-8.67956e-06 -0.00140156 0.000614738 0.000347477 0.000368984 0.000154661 2.68895e-05 0.000269523
internal_weight=210 63 147 121 43 91 46 45
internal_count=210 63 147 121 43 91 46 45
is_linear=0
shrinkage=0.05


Tree=63
num_leaves=9
num_cat=0
split_feature=9 0 7 2 0 8 2 8
split_gain=0.0718897 0.015128 0.00777384 0.00227009 0.000468785 0.000459986 0.000374611 0.000100649
threshold=54.840139389038093 61.228155136108406 -2.5370806455612178 1.883813261985779 60.318351745605476 51.023286819458015 0.89027228951454174 50.367898941040046
decision_type=2 2 2 2 2 2 2 2
left_child=1 2 -1 4 5 6 -4 -6
right_child=-2 -3 3 -5 7 -7 -8 -9
leaf_value=0.0010307099558413029 -0.0018976554814044658 0.0015177373757102976 0.00046226302914034864 -0.00035930144233414188 -5.5203177966177466e-05 5.8613716034663165e-05 0.00013498368487624383 8.7073189730290328e-05
leaf_weight=20 36 22 21 21 20 28 22 20
leaf_count=20 36 22 21 21 20 28 22 20
internal_value=-9.32397e-06 0.000423459 0.000221785 6.60771e-05 0.000158572 0.000231548 0.000326321 1.77056e-05
internal_weight=210 174 152 132 111 71 43 40
internal_count=210 174 152 132 111 71 43 40
is_linear=0
shrinkage=0.05


Tree=64
num_leaves=9
num_cat=0
split_feature=0 7 9 2 10 10 0 9
split_gain=0.0706447 0.0145525 0.00646256 0.00180626 0.000702368 0.000444945 0.000238371 0.000204387
threshold=61.489500045776374 -2.8969901800155635 54.840139389038093 1.883813261985779 19.500000000000004 20.500000000000004 59.985599517822273 49.595283508300788
decision_type=2 2 2 2 2 2 2 2
left_child=1 -1 3 4 6 -6 -3 -7
right_child=-2 2 -4 -5 5 7 -8 -9
leaf_value=0.0015072221867740154 -0.0020674651648317065 0.00039090783479709735 0.00089265074514384792 -0.00031552274400989215 -0.00011276755958533613 3.6642784107243648e-06 0.00012406721243341627 0.00021236661444257559
leaf_weight=20 30 22 23 22 27 20 22 24
leaf_count=20 30 22 23 22 27 20 22 24
internal_value=-7.71915e-06 0.000382171 0.000200128 5.65274e-05 0.000137883 3.47589e-05 0.000283762 0.000127556
internal_weight=210 180 160 137 115 71 44 44
internal_count=210 180 160 137 115 71 44 44
is_linear=0
shrinkage=0.05


Tree=65
num_leaves=9
num_cat=0
split_feature=7 0 9 7 2 10 2 0
split_gain=0.0683006 0.021559 0.00753246 0.00345979 0.00275064 0.00062833 0.00025569 0.000105029
threshold=-3.4967492818832393 61.489500045776374 54.840139389038093 -2.2278373241424556 1.7953721284866335 19.500000000000004 1.019621789455414 59.985599517822273
decision_type=2 2 2 2 2 2 2 2
left_child=-1 2 3 -2 5 7 -7 -5
right_child=1 -3 -4 4 -6 6 -8 -9
leaf_value=-0.0024669169038534166 -0.00057604438485577708 0.0016806596610695124 0.00085598831543133461 0.00039662705581017341 -0.00041162137431092561 0.00014212137129804834 -4.5727629009034547e-05 0.00016192155308090151
leaf_weight=20 20 20 23 21 20 38 28 20
leaf_count=20 20 20 23 21 20 38 28 20
internal_value=-6.59466e-06 0.000309 0.00010422 -3.76914e-05 6.56971e-05 0.000169308 6.48198e-05 0.000312181
internal_weight=210 190 170 147 127 107 66 41
internal_count=210 190 170 147 127 107 66 41
is_linear=0
shrinkage=0.05


Tree=66
num_leaves=8
num_cat=0
split_feature=0 7 9 10 10 0 3
split_gain=0.0656136 0.0149197 0.00543965 0.00163564 0.00335716 0.000313606 0.000259941
threshold=61.489500045776374 -2.8969901800155635 54.840139389038093 19.500000000000004 20.500000000000004 59.575511932373054 -0.83183804154396046
decision_type=2 2 2 2 2 2 2
left_child=1 -1 3 5 -5 -3 -6
right_child=-2 2 -4 4 6 -7 -8
leaf_value=0.0015077925566583873 -0.0019916366759155481 0.00040260004397714514 0.00082083165289077449 -0.00044158031378174203 2.5405475214399676e-05 0.00013119887514983781 0.00025117772190632031
leaf_weight=20 30 20 23 33 22 32 30
leaf_count=20 30 20 23 33 22 32 30
internal_value=-6.57073e-06 0.00036916 0.000185453 5.36372e-05 -8.11432e-05 0.000261743 0.000166266
internal_weight=210 180 160 137 85 52 52
internal_count=210 180 160 137 85 52 52
is_linear=0
shrinkage=0.05


Tree=67
num_leaves=9
num_cat=0
split_feature=9 0 7 2 2 11 3 1
split_gain=0.0650456 0.0160088 0.00655611 0.00175514 0.000404326 0.000347136 0.000283923 0.000159721
threshold=54.840139389038093 61.228155136108406 -2.5370806455612178 1.883813261985779 0.25891110301017767 21.500000000000004 -0.33918289840221399 59.525495529174812
decision_type=2 2 2 2 2 2 2 2
left_child=1 2 -1 4 -4 6 7 -6
right_child=-2 -3 3 -5 5 -7 -8 -9
leaf_value=0.00094261287525296213 -0.0018016959725106819 0.0015309741910271072 0.00029524561626115639 -0.00031701465889524957 7.898852357227173e-05 -8.9923993306001646e-05 -1.8969741012579806e-05 0.00028544953921272488
leaf_weight=20 36 22 26 21 23 20 21 21
leaf_count=20 36 22 26 21 23 20 21 21
internal_value=-5.4215e-06 0.000406167 0.000199794 5.6951e-05 0.000138316 7.65784e-05 0.000130574 0.000196599
internal_weight=210 174 152 132 111 85 65 44
internal_count=210 174 152 132 111 85 65 44
is_linear=0
shrinkage=0.05


Tree=68
num_leaves=9
num_cat=0
split_feature=7 0 9 0 0 9 2 4
split_gain=0.0619799 0.0136128 0.00647883 0.00177341 0.00169192 0.000502004 0.000368261 0.000281289
threshold=-2.982365489006042 61.228155136108406 54.840139389038093 58.904804229736335 60.719110488891609 46.663919448852546 0.52089372277259838 -0.52077981829643238
decision_type=2 2 2 2 2 2 2 2
left_child=-1 2 3 -2 5 -5 -7 -8
right_child=1 -3 -4 4 -6 6 7 -9
leaf_value=-0.0019669174983659213 -0.00035433431388810278 0.0013731042836817714 0.00089270931337243661 0.00039966195169836285 -0.00024964282977938036 0.00025966816164943723 -7.5660583055802523e-05 0.00014359220170043609
leaf_weight=29 20 23 21 20 22 26 25 24
leaf_count=29 20 23 21 20 22 26 25 24
internal_value=-4.09734e-06 0.000354808 0.000169002 3.05416e-05 0.000108158 0.000199356 0.000124301 3.50807e-05
internal_weight=210 181 158 137 117 95 75 49
internal_count=210 181 158 137 117 95 75 49
is_linear=0
shrinkage=0.05


Tree=69
num_leaves=7
num_cat=0
split_feature=4 13 0 9 7 4
split_gain=0.0612663 0.0125164 0.00736228 0.00539939 0.00132138 0.00134465
threshold=-2.2387291193008418 2.5000000000000004 60.06050109863282 54.182041168212898 -1.0347181558609007 -0.32648268342018122
decision_type=2 2 2 2 2 2
left_child=-1 3 -3 4 -2 -6
right_child=1 2 -4 -5 5 -7
leaf_value=-0.0019216454481439931 -0.0003420979829653251 0.00031736498585371192 0.0013882843696390208 0.0006847456634277478 0.00020653643139387267 -0.0002634079518611543
leaf_weight=30 39 36 31 20 34 20
leaf_count=30 39 36 31 20 34 20
internal_value=-3.40157e-06 0.000359601 0.000874864 2.99665e-05 -0.000138598 2.49105e-05
internal_weight=210 180 67 113 93 54
internal_count=210 180 67 113 93 54
is_linear=0
shrinkage=0.05


Tree=70
num_leaves=9
num_cat=0
split_feature=2 2 4 7 13 3 2 0
split_gain=0.0610104 0.130303 0.0146476 0.00757141 0.00439107 0.00112221 0.000976125 0.00046258
threshold=1.6561017036437991 1.7953721284866335 -2.126448273658752 -2.5370806455612178 2.5000000000000004 -0.65684306621551503 1.019621789455414 59.985599517822273
decision_type=2 2 2 2 2 2 2 2
left_child=2 -2 -1 -4 -3 7 -7 -5
right_child=1 4 3 5 -6 6 -8 -9
leaf_value=0.0016682174783200028 -0.0041219810326583685 -9.9417662983926548e-05 0.0011071138707920908 0.00010293528595117524 0.00083887618035078054 0.00044579346075705777 1.3529742612333323e-05 -0.00016449769985141054
leaf_weight=20 20 23 20 29 20 31 21 26
leaf_count=20 20 23 20 29 20 31 21 26
internal_value=-3.15034e-06 -0.00124796 0.000553842 0.000321807 0.000378921 0.000132149 0.000287725 -2.66605e-05
internal_weight=210 63 147 127 43 107 52 55
internal_count=210 63 147 127 43 107 52 55
is_linear=0
shrinkage=0.05


Tree=71
num_leaves=8
num_cat=0
split_feature=0 7 9 10 10 0 3
split_gain=0.0569227 0.0138906 0.005388 0.00154376 0.00313092 0.000315031 0.000208728
threshold=61.489500045776374 -2.8969901800155635 54.840139389038093 19.500000000000004 20.500000000000004 59.575511932373054 -0.83183804154396046
decision_type=2 2 2 2 2 2 2
left_child=1 -1 3 5 -5 -3 -6
right_child=-2 2 -4 4 6 -7 -8
leaf_value=0.0014450633972883226 -0.0018522324333233493 0.00038084038544911893 0.00080192646169702393 -0.00043893726420049604 2.2344191394815291e-05 0.00011481715136560033 0.00022453929634398914
leaf_weight=20 30 20 23 33 22 32 30
leaf_count=20 30 20 23 33 22 32 30
internal_value=-3.23634e-06 0.000346661 0.000169732 3.90972e-05 -9.1305e-05 0.000241566 0.000148459
internal_weight=210 180 160 137 85 52 52
internal_count=210 180 160 137 85 52 52
is_linear=0
shrinkage=0.05


Tree=72
num_leaves=8
num_cat=0
split_feature=9 0 7 2 8 13 2
split_gain=0.0560013 0.0149359 0.0058036 0.00169221 0.000389208 0.000400663 0.000261452
threshold=54.840139389038093 61.228155136108406 -2.5370806455612178 1.883813261985779 45.799673080444343 1.5000000000000002 1.0832900404930117
decision_type=2 2 2 2 2 2 2
left_child=1 2 -1 4 -4 -6 -7
right_child=-2 -3 3 -5 5 6 -8
leaf_value=0.00087950640171766288 -0.0016690454066719679 0.0014656983833346102 0.00029959809482814028 -0.00032008317358794071 0.00019588584868753781 7.7177095934874516e-05 -0.00012343368861334527
leaf_weight=20 36 22 21 21 34 32 24
leaf_count=20 36 22 21 21 34 32 24
internal_value=-2.26248e-06 0.000379578 0.000180704 4.65906e-05 0.000126768 7.2795e-05 -1.18693e-05
internal_weight=210 174 152 132 111 90 56
internal_count=210 174 152 132 111 90 56
is_linear=0
shrinkage=0.05


Tree=73
num_leaves=9
num_cat=0
split_feature=7 0 9 0 0 9 3 3
split_gain=0.0539082 0.0127825 0.0063927 0.00174305 0.0015507 0.000495165 0.00033989 0.000456473
threshold=-2.982365489006042 61.228155136108406 54.840139389038093 58.904804229736335 60.719110488891609 46.663919448852546 -0.36655992269515986 -0.90484902262687672
decision_type=2 2 2 2 2 2 2 2
left_child=-1 2 3 -2 5 -5 7 -7
right_child=1 -3 -4 4 -6 6 -8 -9
leaf_value=-0.0018318255075856168 -0.00036423894250765446 0.0013199493042650699 0.00087256467802664973 0.00037923738430254165 -0.00024767155079677688 3.8315778553677611e-05 -3.3988704906791569e-05 0.00033756419073324652
leaf_weight=29 20 23 21 20 22 29 26 20
leaf_count=29 20 23 21 20 22 29 26 20
internal_value=-1.21295e-06 0.000333448 0.000153759 1.67325e-05 9.41147e-05 0.000181691 0.000108602 0.000180404
internal_weight=210 181 158 137 117 95 75 49
internal_count=210 181 158 137 117 95 75 49
is_linear=0
shrinkage=0.05


Tree=74
num_leaves=8
num_cat=0
split_feature=0 7 9 10 10 0 4
split_gain=0.0532473 0.0135236 0.00546761 0.00137866 0.00290325 0.000343853 0.000206021
threshold=61.489500045776374 -2.8969901800155635 54.840139389038093 19.500000000000004 20.500000000000004 59.575511932373054 -0.35305686295032496
decision_type=2 2 2 2 2 2 2
left_child=1 -1 3 5 -5 -3 -6
right_child=-2 2 -4 4 6 -7 -8
leaf_value=0.0014214304797351362 -0.001788969606693302 0.00036668772972188891 0.00080010498537116557 -0.00042568031740780783 0.00020997749426798591 9.649447952019604e-05 8.5664002690464274e-06
leaf_weight=20 30 20 23 33 32 32 20
leaf_count=20 30 20 23 33 32 32 20
internal_value=-6.05909e-07 0.00033775 0.000163321 3.20068e-05 -9.10281e-05 0.000223465 0.000140058
internal_weight=210 180 160 137 85 52 52
internal_count=210 180 160 137 85 52 52
is_linear=0
shrinkage=0.05


Tree=75
num_leaves=8
num_cat=0
split_feature=9 0 7 2 8 8 10
split_gain=0.0514842 0.014186 0.00551744 0.00151834 0.000341833 0.000361015 0.000230705
threshold=54.840139389038093 61.228155136108406 -2.5370806455612178 1.883813261985779 45.799673080444343 49.555067062377937 19.500000000000004
decision_type=2 2 2 2 2 2 2
left_child=1 2 -1 4 -4 -6 -7
right_child=-2 -3 3 -5 5 6 -8
leaf_value=0.0008539210380986333 -0.0015979773037010669 0.0014246962636847186 0.00027990932755458811 -0.00030523326758366944 -6.9847775996416143e-05 0.00024671178802640904 4.8242483204706916e-05
leaf_weight=20 36 22 21 21 29 22 39
leaf_count=20 36 22 21 21 29 22 39
internal_value=2.25099e-07 0.000366288 0.000172603 4.19755e-05 0.000117989 6.74638e-05 0.000133089
internal_weight=210 174 152 132 111 90 61
internal_count=210 174 152 132 111 90 61
is_linear=0
shrinkage=0.05


Tree=76
num_leaves=9
num_cat=0
split_feature=2 2 7 4 13 3 0 3
split_gain=0.0503235 0.139351 0.0121484 0.00398221 0.00393851 0.000568406 0.000240282 0.000157419
threshold=1.5919950008392336 1.7152638435363772 -2.3888587951660152 -1.3565465807914732 2.5000000000000004 -0.73972734808921803 59.985599517822273 -0.28064687550067896
decision_type=2 2 2 2 2 2 2 2
left_child=2 -2 -1 -4 -3 6 -5 -7
right_child=1 4 3 5 -6 7 -8 -9
leaf_value=0.0014430359262041748 -0.004103405941394158 2.2220822434211451e-06 0.00075352712438496602 8.0645338338972247e-05 0.00085725889823931676 0.00029781702673062685 -0.0001349992182222195 8.5245692171156411e-05
leaf_weight=25 20 26 29 22 23 25 20 20
leaf_count=25 20 26 29 22 23 25 20 20
internal_value=1.23759e-06 -0.00106099 0.000539583 0.000293289 0.00044578 0.000107262 -2.54799e-05 0.000221313
internal_weight=210 69 141 116 49 87 42 45
internal_count=210 69 141 116 49 87 42 45
is_linear=0
shrinkage=0.05


Tree=77
num_leaves=9
num_cat=0
split_feature=7 0 9 0 0 9 0 7
split_gain=0.0483084 0.0123304 0.00610179 0.00169196 0.00140614 0.000457053 0.000314166 0.000191448
threshold=-2.982365489006042 61.228155136108406 54.840139389038093 58.904804229736335 60.719110488891609 46.663919448852546 59.985599517822273 -0.76727819442749012
decision_type=2 2 2 2 2 2 2 2
left_child=-1 2 3 -2 5 -5 7 -7
right_child=1 -3 -4 4 -6 6 -8 -9
leaf_value=-0.0017326206893331427 -0.00036755008855834606 0.0012857708454248496 0.00084322048978020369 0.00035678421705961227 -0.00024104970221675037 4.9267613548391429e-05 -2.315452167951864e-05 0.00026382125583300617
leaf_weight=29 20 23 21 20 22 21 31 23
leaf_count=29 20 23 21 20 22 21 31 23
internal_value=3.40068e-07 0.000317109 0.000140985 7.44297e-06 8.39808e-05 0.00016754 9.79299e-05 0.000176897
internal_weight=210 181 158 137 117 95 75 44
internal_count=210 181 158 137 117 95 75 44
is_linear=0
shrinkage=0.05


Tree=78
num_leaves=9
num_cat=0
split_feature=2 8 4 7 4 3 2 0
split_gain=0.0476868 0.0955781 0.0111352 0.00568193 0.00372079 0.00109435 0.000663505 0.000408543
threshold=1.684094309806824 54.321813583374031 -2.126448273658752 -2.5370806455612178 -0.60141482949256886 -0.65684306621551503 1.019621789455414 59.907190322875984
decision_type=2 2 2 2 2 2 2 2
left_child=2 4 -1 -4 -2 7 -7 -5
right_child=1 -3 3 5 -6 6 -8 -9
leaf_value=0.0014281389921402129 0.00074868194700684399 -0.0035644592312164603 0.00094030009349808106 8.9528377922702465e-05 -0.00013768032391089946 0.00039441592347834057 3.668037660881291e-05 -0.00016263580696164248
leaf_weight=21 20 20 21 26 20 31 22 29
leaf_count=21 20 20 21 26 20 31 22 29
internal_value=8.28287e-07 -0.00113595 0.000477513 0.000275246 0.000339445 0.000110045 0.000261885 -4.5904e-05
internal_weight=210 60 150 129 40 108 53 55
internal_count=210 60 150 129 40 108 53 55
is_linear=0
shrinkage=0.05


Tree=79
num_leaves=8
num_cat=0
split_feature=4 13 0 9 7 4 1
split_gain=0.0456482 0.0108998 0.00606873 0.00525869 0.00170513 0.00112394 0.000497667
threshold=-2.2387291193008418 2.5000000000000004 60.06050109863282 54.182041168212898 -1.6506882905960081 -0.28881345689296717 60.118629455566413
decision_type=2 2 2 2 2 2 2
left_child=-1 3 -3 4 -2 6 -6
right_child=1 2 -4 -5 5 -7 -8
leaf_value=-0.0016553440882957409 -0.00050557734838758527 0.00028838114812970164 0.0012607367575078066 0.00065411994885653261 0.00020455948857439531 -0.00030861972039565447 -8.8875299610663216e-05
leaf_weight=30 21 36 31 20 32 20 20
leaf_count=30 21 36 31 20 32 20 20
internal_value=5.22886e-07 0.000313781 0.000794585 7.11282e-06 -0.000158303 -3.0762e-05 9.38038e-05
internal_weight=210 180 67 113 93 72 52
internal_count=210 180 67 113 93 72 52
is_linear=0
shrinkage=0.05


Tree=80
num_leaves=9
num_cat=0
split_feature=2 7 4 7 7 3 2 0
split_gain=0.0439273 0.10204 0.0128388 0.00572481 0.00307749 0.00100486 0.00065292 0.000407826
threshold=1.6561017036437991 -1.9749001860618589 -2.126448273658752 -2.5370806455612178 -0.50284796953201283 -0.65684306621551503 0.99578696489334118 59.907190322875984
decision_type=2 2 2 2 2 2 2 2
left_child=2 -2 -1 -4 -3 7 -7 -5
right_child=1 4 3 5 -6 6 -8 -9
leaf_value=0.0015141516998410226 -0.0036001672418788074 0.0007182561750336651 0.00094006829336285588 8.2101051943496832e-05 -7.6599983964115376e-05 0.0003809278899365488 2.9120096288742e-05 -0.00017030561524306371
leaf_weight=20 20 23 20 26 20 29 23 29
leaf_count=20 20 23 20 26 20 29 23 29
internal_value=3.21603e-07 -0.001056 0.000472876 0.000257753 0.000379087 9.39433e-05 0.000241525 -5.40876e-05
internal_weight=210 63 147 127 43 107 52 55
internal_count=210 63 147 127 43 107 52 55
is_linear=0
shrinkage=0.05


Tree=81
num_leaves=8
num_cat=0
split_feature=4 13 0 9 7 4 1
split_gain=0.0412492 0.0102673 0.00552083 0.00480092 0.00150636 0.00101435 0.000475862
threshold=-2.2387291193008418 2.5000000000000004 60.06050109863282 54.182041168212898 -1.6506882905960081 -0.28881345689296717 60.118629455566413
decision_type=2 2 2 2 2 2 2
left_child=-1 3 -3 4 -2 6 -6
right_child=1 2 -4 -5 5 -7 -8
leaf_value=-0.001573957360482642 -0.0004837923806357699 0.0002806598466832373 0.001209416460834392 0.00061898428434506057 0.0001907725773816236 -0.00030042424728162588 -9.5258007786469537e-05
leaf_weight=30 21 36 31 20 32 20 20
leaf_count=30 21 36 31 20 32 20 20
internal_value=9.33623e-08 0.000297884 0.000764528 5.29951e-07 -0.000157266 -3.67983e-05 8.2055e-05
internal_weight=210 180 67 113 93 72 52
internal_count=210 180 67 113 93 72 52
is_linear=0
shrinkage=0.05


Tree=82
num_leaves=9
num_cat=0
split_feature=2 9 4 7 4 3 2 0
split_gain=0.0405329 0.0840207 0.011887 0.00498813 0.0021967 0.000909066 0.000653473 0.000408885
threshold=1.684094309806824 54.759313583374031 -2.126448273658752 -2.5370806455612178 -0.64814624190330494 -0.65684306621551503 1.019621789455414 59.985599517822273
decision_type=2 2 2 2 2 2 2 2
left_child=2 4 -1 -4 -2 7 -7 -5
right_child=1 -3 3 5 -6 6 -8 -9
leaf_value=0.0014193394051219982 0.00064632423687726269 -0.0033253708069678396 0.00085543845802581371 6.409609529381508e-05 -4.6046542935073378e-05 0.00034924983903895034 2.7354537249064177e-06 -0.00018910784086573028
leaf_weight=21 20 20 21 29 20 31 22 26
leaf_count=21 20 20 21 29 20 31 22 26
internal_value=-8.98965e-08 -0.00104811 0.000439406 0.000232874 0.000333488 7.93254e-05 0.000218049 -6.13846e-05
internal_weight=210 60 150 129 40 108 53 55
internal_count=210 60 150 129 40 108 53 55
is_linear=0
shrinkage=0.05


Tree=83
num_leaves=8
num_cat=0
split_feature=0 7 9 10 10 12 3
split_gain=0.0378472 0.0108881 0.00523193 0.00112894 0.00259269 0.000425854 0.000154956
threshold=61.489500045776374 -2.8969901800155635 54.840139389038093 19.500000000000004 20.500000000000004 2.5000000000000004 -0.83183804154396046
decision_type=2 2 2 2 2 2 2
left_child=1 -1 3 5 -5 -3 -6
right_child=-2 2 -4 4 6 -7 -8
leaf_value=0.0012568392083048821 -0.0015080798324197532 0.00027622523421824382 0.00075180447564662247 -0.00042422836371483035 5.9002247225079271e-06 -8.1576412121648907e-06 0.00017663059529565673
leaf_weight=20 30 32 23 33 22 20 30
leaf_count=20 30 32 23 33 22 20 30
internal_value=-3.45102e-07 0.000284911 0.000129016 1.66966e-06 -0.000108659 0.000175726 0.000111252
internal_weight=210 180 160 137 85 52 52
internal_count=210 180 160 137 85 52 52
is_linear=0
shrinkage=0.05


Tree=84
num_leaves=9
num_cat=0
split_feature=7 0 9 0 0 9 0 7
split_gain=0.0379612 0.0126177 0.00531472 0.0013522 0.00128637 0.000466295 0.00033859 0.000218299
threshold=-2.982365489006042 61.340467453002937 54.840139389038093 58.904804229736335 60.719110488891609 46.663919448852546 59.985599517822273 -0.76727819442749012
decision_type=2 2 2 2 2 2 2 2
left_child=-1 2 3 -2 5 -5 7 -7
right_child=1 -3 -4 4 -6 6 -8 -9
leaf_value=-0.0015359147270347048 -0.00035234735766425729 0.0012813917631757689 0.00074903412532876254 0.00032101997581776234 -0.00025748241271314866 2.0603219812843375e-05 -5.6651668395109791e-05 0.00023927976069769232
leaf_weight=29 20 22 22 20 22 21 31 23
leaf_count=29 20 22 22 20 22 21 31 23
internal_value=2.84863e-07 0.000281088 0.000107834 -1.78814e-05 5.13896e-05 0.000132216 6.49507e-05 0.000147664
internal_weight=210 181 159 137 117 95 75 44
internal_count=210 181 159 137 117 95 75 44
is_linear=0
shrinkage=0.05


Tree=85
num_leaves=9
num_cat=0
split_feature=9 0 7 2 13 3 3 8
split_gain=0.037169 0.0119085 0.004741 0.00105107 0.000374058 0.000300881 0.000280727 0.000124661
threshold=54.840139389038093 61.228155136108406 -2.5370806455612178 1.883813261985779 1.5000000000000002 -0.33918289840221399 -1.0400822162628172 50.883781433105476
decision_type=2 2 2 2 2 2 2 2
left_child=1 2 -1 4 7 6 -6 -4
right_child=-2 -3 3 -5 5 -7 -8 -9
leaf_value=0.00076655084546655425 -0.0013572212590455511 0.0012809371127298587 0.00026560213630616024 -0.00027290286715679732 -2.9324119642489786e-05 -0.00013052100758715015 0.00019678604032378642 7.2773827123455708e-05
leaf_weight=20 36 22 21 21 28 22 20 20
leaf_count=20 36 22 21 21 28 22 20 20
internal_value=7.46121e-07 0.000311768 0.000135167 1.50176e-05 7.89042e-05 5.70517e-06 7.45652e-05 0.000189674
internal_weight=210 174 152 132 111 70 48 41
internal_count=210 174 152 132 111 70 48 41
is_linear=0
shrinkage=0.05


Tree=86
num_leaves=8
num_cat=0
split_feature=0 7 9 10 10 0 4
split_gain=0.0357492 0.0105177 0.0051737 0.00101479 0.00243786 0.000429544 0.000148688
threshold=61.489500045776374 -2.8969901800155635 54.840139389038093 19.500000000000004 20.500000000000004 59.907190322875984 -0.35305686295032496
decision_type=2 2 2 2 2 2 2
left_child=1 -1 3 5 -5 -3 -6
right_child=-2 2 -4 4 6 -7 -8
leaf_value=0.0012340500210411848 -0.001463764388047691 0.00028554595664900264 0.00074495526589868995 -0.00041141683296269833 0.00016720396894458179 7.4120548864205677e-06 -1.6086815739981831e-06
leaf_weight=20 30 27 23 33 32 25 20
leaf_count=20 30 27 23 33 32 25 20
internal_value=1.63054e-06 0.000278823 0.000125643 -8.99138e-07 -0.000105417 0.000164208 0.00010783
internal_weight=210 180 160 137 85 52 52
internal_count=210 180 160 137 85 52 52
is_linear=0
shrinkage=0.05


Tree=87
num_leaves=8
num_cat=0
split_feature=7 0 9 0 0 13 3
split_gain=0.0356937 0.0105826 0.00496889 0.000924068 0.0010675 0.000213764 0.000358761
threshold=-2.7251839637756343 61.340467453002937 54.840139389038093 60.719110488891609 59.142219543457038 1.5000000000000002 -0.94774901866912831
decision_type=2 2 2 2 2 2 2
left_child=-1 2 3 4 -2 -6 -7
right_child=1 -3 -4 -5 5 6 -8
leaf_value=-0.0013488642023548891 -0.00018094015695462604 0.0012372102666771613 0.0007722170200185457 -0.00024825421741870408 0.0002544530956105231 -6.1595389194769304e-05 0.00018539880614428384
leaf_weight=35 26 21 21 22 33 22 30
leaf_count=35 26 21 21 22 33 22 30
internal_value=2.20294e-06 0.000302379 0.000140005 1.58195e-05 7.66031e-05 0.000161057 8.46646e-05
internal_weight=210 175 154 133 111 85 52
internal_count=210 175 154 133 111 85 52
is_linear=0
shrinkage=0.05


Tree=88
num_leaves=8
num_cat=0
split_feature=4 13 1 9 7 4 0
split_gain=0.0344003 0.00967435 0.00537256 0.00465881 0.00142265 0.000880644 0.000487924
threshold=-2.2387291193008418 2.5000000000000004 59.896514892578132 54.182041168212898 -1.6506882905960081 -0.28881345689296717 59.985599517822273
decision_type=2 2 2 2 2 2 2
left_child=-1 3 -3 4 -2 6 -6
right_child=1 2 -4 -5 5 -7 -8
leaf_value=-0.0014347079851514928 -0.00048584618153444569 0.0002654999117588713 0.0011783100004374449 0.00059647298538038744 -9.3883492470546312e-05 -0.0002950844441074878 0.00018924845150622514
leaf_weight=30 21 37 30 20 24 20 28
leaf_count=30 21 37 30 20 24 20 28
internal_value=2.80166e-06 0.000274687 0.000727665 -1.3345e-05 -0.00016823 -5.00589e-05 6.17996e-05
internal_weight=210 180 67 113 93 72 52
internal_count=210 180 67 113 93 72 52
is_linear=0
shrinkage=0.05


Tree=89
num_leaves=9
num_cat=0
split_feature=2 2 4 7 4 3 2 0
split_gain=0.03406 0.0817157 0.0125612 0.00512168 0.00405131 0.000798651 0.000569125 0.000390291
threshold=1.6561017036437991 1.7953721284866335 -2.126448273658752 -2.5370806455612178 -0.64814624190330494 -0.65684306621551503 1.019621789455414 59.907190322875984
decision_type=2 2 2 2 2 2 2 2
left_child=2 -2 -1 -4 -3 7 -7 -5
right_child=1 4 3 5 -6 6 -8 -9
leaf_value=0.0014467503195628524 -0.003204711922211573 0.00074603381965841569 0.00085277811135165403 6.0529681579810721e-05 -0.00015399870846886189 0.00030774981359071618 -1.6125467776034313e-05 -0.00018803826644537313
leaf_weight=20 20 23 20 26 20 31 21 29
leaf_count=20 20 23 20 26 20 31 21 29
internal_value=2.56857e-06 -0.00092763 0.000418625 0.000208048 0.000354979 5.48469e-05 0.000187013 -7.52813e-05
internal_weight=210 63 147 127 43 107 52 55
internal_count=210 63 147 127 43 107 52 55
is_linear=0
shrinkage=0.05


Tree=90
num_leaves=8
num_cat=0
split_feature=9 0 7 2 8 13 10
split_gain=0.0323849 0.01106 0.00429496 0.00111361 0.000368533 0.000390935 0.000245668
threshold=54.840139389038093 61.228155136108406 -2.5370806455612178 1.883813261985779 45.799673080444343 1.5000000000000002 20.500000000000004
decision_type=2 2 2 2 2 2 2
left_child=1 2 -1 4 -4 -6 -7
right_child=-2 -3 3 -5 5 6 -8
leaf_value=0.00072356538334861394 -0.0012653330685968352 0.001226383407979652 0.0002406058647466125 -0.00028757420236965681 0.00014768530351993365 -0.00014294648314327267 5.2552142610253333e-05
leaf_weight=20 36 22 21 21 34 30 26
leaf_count=20 36 22 21 21 34 30 26
internal_value=2.26684e-06 0.000292548 0.000122635 8.50029e-06 7.44954e-05 2.51128e-05 -5.53116e-05
internal_weight=210 174 152 132 111 90 56
internal_count=210 174 152 132 111 90 56
is_linear=0
shrinkage=0.05


Tree=91
num_leaves=8
num_cat=0
split_feature=2 13 4 7 7 2 3
split_gain=0.0312553 0.0705774 0.0104962 0.00416947 0.000767653 0.000355404 0.000278801
threshold=1.684094309806824 1.5000000000000002 -2.126448273658752 -2.5370806455612178 -0.17017656564712522 1.0832900404930117 -0.73972734808921803
decision_type=2 2 2 2 2 2 2
left_child=2 -2 -1 -4 5 6 -5
right_child=1 -3 3 4 -6 -7 -8
leaf_value=0.0013087913608894899 -0.0027053223106971325 0.00053820560831809418 0.00076470759802480014 -5.4139393816715002e-05 0.00029471359591228138 -0.00016009080276928908 0.00014287319264022282
leaf_weight=21 25 35 21 31 21 24 32
leaf_count=21 25 35 21 31 21 24 32
internal_value=2.96157e-06 -0.000917407 0.000388827 0.000195818 5.62585e-05 -1.41885e-05 4.90778e-05
internal_weight=210 60 150 129 108 87 63
internal_count=210 60 150 129 108 87 63
is_linear=0
shrinkage=0.05


Tree=92
num_leaves=9
num_cat=0
split_feature=7 0 9 2 13 4 9 3
split_gain=0.030561 0.00913252 0.0048478 0.000878255 0.000358236 0.000316069 0.000170928 0.000150924
threshold=-2.7251839637756343 61.340467453002937 54.840139389038093 1.883813261985779 1.5000000000000002 -1.0846577882766721 49.458103179931648 -0.65684306621551503
decision_type=2 2 2 2 2 2 2 2
left_child=-1 2 3 4 6 -6 -2 -7
right_child=1 -3 -4 -5 5 7 -8 -9
leaf_value=-0.0012472157312731725 0.0002656785585713806 0.0011491188295901969 0.00075430337047481988 -0.0002496023115883064 -0.00014291986277654628 -2.729185184256898e-05 5.4921845059232929e-05 0.00013877529779546746
leaf_weight=35 20 21 21 22 22 22 21 26
leaf_count=35 20 21 21 22 22 22 21 26
internal_value=2.96435e-06 0.0002807 0.000129867 7.5144e-06 6.70366e-05 -3.91576e-06 0.000175433 6.72671e-05
internal_weight=210 175 154 133 111 70 41 48
internal_count=210 175 154 133 111 70 41 48
is_linear=0
shrinkage=0.05


Tree=93
num_leaves=8
num_cat=0
split_feature=4 0 7 9 2 4 8
split_gain=0.0296596 0.00836451 0.00392939 0.00151205 0.00153283 0.000573322 0.00025443
threshold=-2.2387291193008418 61.228155136108406 -2.5370806455612178 46.663919448852546 1.684094309806824 -1.0846577882766721 49.074935913085945
decision_type=2 2 2 2 2 2 2
left_child=-1 2 -2 -4 5 -5 -7
right_child=1 -3 3 4 -6 6 -8
leaf_value=-0.0013311875651457481 0.00069334161560982471 0.0010888551523049292 -0.0003195499063492337 -0.0001899906149652276 0.00040521729890064434 0.00016950620179572568 -1.8155794312533121e-05
leaf_weight=30 20 21 23 26 24 28 38
leaf_count=30 20 21 23 26 24 28 38
internal_value=3.62516e-06 0.000256059 0.000116224 1.19944e-05 8.82198e-05 -1.11e-05 6.77888e-05
internal_weight=210 180 159 139 116 92 66
internal_count=210 180 159 139 116 92 66
is_linear=0
shrinkage=0.05


Tree=94
num_leaves=9
num_cat=0
split_feature=2 2 4 8 9 1 4 3
split_gain=0.0293075 0.0918058 0.0101252 0.0038523 0.00305431 0.00218377 0.000910007 0.0008548
threshold=1.5919950008392336 1.7152638435363772 -1.5885167717933653 54.111413955688484 48.641878128051765 59.59288406372071 -0.70635920763015736 -0.54879799485206593
decision_type=2 2 2 2 2 2 2 2
left_child=2 -2 -1 5 -3 6 -4 -7
right_child=1 4 3 -5 -6 7 -8 -9
leaf_value=0.0011447566701260966 -0.003277257038353128 -3.4158740891143684e-05 -0.0004317540172800923 0.00071734836790710694 0.00072374663013761173 0.00042401543084581917 8.7427680577652968e-06 1.7989284776073572e-05
leaf_weight=31 20 22 21 20 27 23 21 25
leaf_count=31 20 22 21 20 27 23 21 25
internal_value=4.02301e-06 -0.000806673 0.000414786 0.000168239 0.000411808 1.48823e-05 -0.000234006 0.000234191
internal_weight=210 69 141 110 49 90 42 48
internal_count=210 69 141 110 49 90 42 48
is_linear=0
shrinkage=0.05


Tree=95
num_leaves=10
num_cat=0
split_feature=2 8 4 7 4 7 3 3 0
split_gain=0.0283688 0.0619295 0.00981082 0.0042536 0.00340888 0.000862185 0.000313904 0.000359919 0.000343248
threshold=1.684094309806824 54.321813583374031 -2.126448273658752 -2.5370806455612178 -0.60141482949256886 -0.17017656564712522 -0.73972734808921803 -0.33918289840221399 59.907190322875984
decision_type=2 2 2 2 2 2 2 2 2
left_child=2 4 -1 -4 -2 6 8 -8 -5
right_child=1 -3 3 5 -6 -7 7 -9 -10
leaf_value=0.0012598551621732232 0.000701892104552826 -0.0028294322472065692 0.00075866088412182694 2.3610528968185046e-05 -0.00014445418515242637 0.00029684341100689316 0.00019502051209565252 -6.4107579673873262e-05 -0.00024309952420410879
leaf_weight=21 20 20 21 21 20 21 20 25 21
leaf_count=21 20 20 21 21 20 21 20 25 21
internal_value=3.00028e-06 -0.000873844 0.000370612 0.000184244 0.000309688 4.39248e-05 -2.99394e-05 5.90457e-05 -0.000121419
internal_weight=210 60 150 129 40 108 87 45 42
internal_count=210 60 150 129 40 108 87 45 42
is_linear=0
shrinkage=0.05


Tree=96
num_leaves=8
num_cat=0
split_feature=13 7 7 4 1 2 7
split_gain=0.0263843 0.0748265 0.0100381 0.00354704 0.00280236 0.0017578 0.000978339
threshold=2.5000000000000004 -2.982365489006042 -2.2278373241424556 -0.60141482949256886 59.59288406372071 1.2719305753707888 -0.6199376881122588
decision_type=2 2 2 2 2 2 2
left_child=1 -1 -2 4 -3 -5 -4
right_child=2 3 6 5 -6 -7 -8
leaf_value=-0.0028301659783420085 0.0015716217858716846 0.00076886063725396532 6.5441614375837774e-05 6.9735096916528645e-05 8.3856073615606874e-05 -0.00046526799163257239 0.00049272087804531428
leaf_weight=21 20 23 25 37 35 20 29
leaf_count=21 20 23 25 37 35 20 29
internal_value=2.79769e-06 -0.000407126 0.000734257 0.000134829 0.000394958 -0.000140368 0.000317216
internal_weight=210 136 74 115 58 57 54
internal_count=210 136 74 115 58 57 54
is_linear=0
shrinkage=0.05


Tree=97
num_leaves=8
num_cat=0
split_feature=2 13 7 4 3 1 0
split_gain=0.0254129 0.0566183 0.00920073 0.00169046 0.000819292 0.000435542 0.000366372
threshold=1.684094309806824 1.5000000000000002 -2.3888587951660152 -2.0306897163391109 -0.65684306621551503 60.118629455566413 59.907190322875984
decision_type=2 2 2 2 2 2 2
left_child=2 -2 -1 -4 6 -6 -5
right_child=1 -3 3 4 5 -7 -8
leaf_value=0.0011074255323819671 -0.0024287334367788086 0.00047682956777862274 0.00051687044999562204 5.7002650232632353e-05 4.9885422382171137e-05 0.00033965380403410219 -0.00019060593926538291
leaf_weight=27 25 35 20 24 30 21 28
leaf_count=27 25 35 20 24 30 21 28
internal_value=2.37501e-06 -0.00082752 0.000350319 0.000147358 5.50006e-05 0.000188875 -8.13495e-05
internal_weight=210 60 150 123 103 51 52
internal_count=210 60 150 123 103 51 52
is_linear=0
shrinkage=0.05


Tree=98
num_leaves=8
num_cat=0
split_feature=9 0 7 0 11 0 9
split_gain=0.023995 0.00954557 0.0035738 0.000877062 0.00100033 0.000412001 0.000329556
threshold=54.840139389038093 61.228155136108406 -2.5370806455612178 60.719110488891609 21.500000000000004 59.142219543457038 49.808118820190437
decision_type=2 2 2 2 2 2 2
left_child=1 2 -1 4 5 -4 -7
right_child=-2 -3 3 -5 -6 6 -8
leaf_value=0.00064304083958268169 -0.0010889484917087674 0.0011192090895578819 -4.148242109554953e-05 -0.0002708076769172644 -0.00019712255978506182 0.00028501048651467098 4.6686353569443343e-05
leaf_weight=20 36 22 23 21 26 36 26
leaf_count=20 36 22 23 21 26 36 26
internal_value=2.17292e-06 0.000252034 9.48753e-05 -8.61752e-06 5.05207e-05 0.000133013 0.000196011
internal_weight=210 174 152 132 111 85 62
internal_count=210 174 152 132 111 85 62
is_linear=0
shrinkage=0.05


Tree=99
num_leaves=8
num_cat=0
split_feature=12 0 7 8 4 0 9
split_gain=0.0236352 0.0693805 0.00793406 0.0030966 0.00220814 0.00273901 0.000528625
threshold=2.5000000000000004 61.093740463256843 -2.3888587951660152 52.096183776855476 -0.60141482949256886 59.553144454956062 49.029167175292976
decision_type=2 2 2 2 2 2 2
left_child=2 3 -1 -2 5 -4 -6
right_child=1 -3 4 -5 6 -7 -8
leaf_value=0.0011816108130949068 -1.8451451681109822e-05 -0.0028666603052988648 -1.983186470922725e-05 0.00069212457153480507 -0.00021201771800406278 0.00064870482507192327 9.1710357467972623e-05
leaf_weight=22 39 20 24 20 20 36 29
leaf_count=22 39 20 24 20 20 36 29
internal_value=2.64055e-06 -0.000656848 0.000409875 0.000257676 0.000209118 0.000400335 -4.04128e-05
internal_weight=210 79 131 59 109 60 49
internal_count=210 79 131 59 109 60 49
is_linear=0
shrinkage=0.05


end of trees

feature_importances:
Column_2=194
Column_0=122
Column_7=114
Column_4=70
Column_9=58
Column_3=32
Column_13=23
Column_1=22
Column_8=22
Column_10=18
Column_11=5
Column_12=2

parameters:
[boosting: gbdt]
[objective: regression]
[metric: l2]
[tree_learner: serial]
[device_type: cpu]
[data_sample_strategy: bagging]
[data: ]
[valid: ]
[num_iterations: 100]
[learning_rate: 0.05]
[num_leaves: 31]
[num_threads: 0]
[seed: 44]
[deterministic: 0]
[force_col_wise: 0]
[force_row_wise: 0]
[histogram_pool_size: -1]
[max_depth: -1]
[min_data_in_leaf: 20]
[min_sum_hessian_in_leaf: 0.001]
[bagging_fraction: 1]
[pos_bagging_fraction: 1]
[neg_bagging_fraction: 1]
[bagging_freq: 0]
[bagging_seed: 21897]
[bagging_by_query: 0]
[feature_fraction: 1]
[feature_fraction_bynode: 1]
[feature_fraction_seed: 12646]
[extra_trees: 0]
[extra_seed: 20733]
[early_stopping_round: 0]
[early_stopping_min_delta: 0]
[first_metric_only: 0]
[max_delta_step: 0]
[lambda_l1: 0]
[lambda_l2: 5]
[linear_lambda: 0]
[min_gain_to_split: 0]
[drop_rate: 0.1]
[max_drop: 50]
[skip_drop: 0.5]
[xgboost_dart_mode: 0]
[uniform_drop: 0]
[drop_seed: 20829]
[top_rate: 0.2]
[other_rate: 0.1]
[min_data_per_group: 100]
[max_cat_threshold: 32]
[cat_l2: 10]
[cat_smooth: 10]
[max_cat_to_onehot: 4]
[top_k: 20]
[monotone_constraints: ]
[monotone_constraints_method: basic]
[monotone_penalty: 0]
[feature_contri: ]
[forcedsplits_filename: ]
[refit_decay_rate: 0.9]
[cegb_tradeoff: 1]
[cegb_penalty_split: 0]
[cegb_penalty_feature_lazy: ]
[cegb_penalty_feature_coupled: ]
[path_smooth: 0]
[interaction_constraints: ]
[verbosity: -1]
[saved_feature_importance_type: 0]
[use_quantized_grad: 0]
[num_grad_quant_bins: 4]
[quant_train_renew_leaf: 0]
[stochastic_rounding: 1]
[linear_tree: 0]
[max_bin: 255]
[max_bin_by_feature: ]
[min_data_in_bin: 3]
[bin_construct_sample_cnt: 200000]
[data_random_seed: 182]
[is_enable_sparse: 1]
[enable_bundle: 1]
[use_missing: 1]
[zero_as_missing: 0]
[feature_pre_filter: 1]
[pre_partition: 0]
[two_round: 0]
[header: 0]
[label_column: ]
[weight_column: ]
[group_column: ]
[ignore_column: ]
[categorical_feature: ]
[forcedbins_filename: ]
[precise_float_parser: 0]
[parser_config_file: ]
[objective_seed: 3944]
[num_class: 1]
[is_unbalance: 0]
[scale_pos_weight: 1]
[sigmoid: 1]
[boost_from_average: 1]
[reg_sqrt: 0]
[alpha: 0.9]
[fair_c: 1]
[poisson_max_delta_step: 0.7]
[tweedie_variance_power: 1.5]
[lambdarank_truncation_level: 30]
[lambdarank_norm: 1]
[label_gain: ]
[lambdarank_position_bias_regularization: 0]
[eval_at: ]
[multi_error_top_k: 1]
[auc_mu_weights: ]
[num_machines: 1]
[local_listen_port: 12400]
[time_out: 120]
[machine_list_filename: ]
[machines: ]
[gpu_platform_id: -1]
[gpu_device_id: -1]
[gpu_use_dp: 0]
[num_gpu: 1]

end of parameters

pandas_categorical:null
