tree
version=v4
num_class=1
num_tree_per_iteration=1
label_index=0
max_feature_idx=39
objective=quantile
feature_names=Column_0 Column_1 Column_2 Column_3 Column_4 Column_5 Column_6 Column_7 Column_8 Column_9 Column_10 Column_11 Column_12 Column_13 Column_14 Column_15 Column_16 Column_17 Column_18 Column_19 Column_20 Column_21 Column_22 Column_23 Column_24 Column_25 Column_26 Column_27 Column_28 Column_29 Column_30 Column_31 Column_32 Column_33 Column_34 Column_35 Column_36 Column_37 Column_38 Column_39
feature_infos=[52.016498565673828:67.347480773925781] [53.981399536132812:65.992156982421875] [0.00058352795895189047:13.835800170898438] [-8.9941511154174805:0.15530577301979065] [-2.607177734375:0.25711232423782349] [-11.30272102355957:-8.9009183284360915e-05] [-9.9972257614135742:-0.00012931357196066529] [-12.85223388671875:-5.2358140237629414e-05] [39.170406341552734:70] [38.095237731933594:63.157894134521484] [19:21] [19:23] [0:4] [0:3] [1:6] [1:5] [0:1] [0:1] [0:1] none none [0:1] [0.5160369873046875:1.8584544658660889] [0.59106868505477905:1.8697096109390259] [-34.954986572265625:-0.00072889187140390277] [32.731826782226562:62.915332794189453] [90:159] none [0:8] [0:8] [1:20] [1:20] [30:75] [1.5:2.5] [0.20000000298023224:0.60000002384185791] [0:3] none none [0.56479352712631226:0.58328878879547119] [0.099477477371692657:0.17161941528320312]
tree_sizes=2442 2594 2513 1838 2619 2972 3061 3132 1758 3224 3121 3058 1915 2806 3321 3328 2979 1317 3085 1937 2887 1401 2724 2899 1328 3249 3155 2901 3329 3258 2982 3072 3054 2726 2804 1498 2707 3531 1684 3101 2636 2034 2987 2890 2480 3184 3189 3175 3371 4071 3073 1227 3533 2205 2296 1683 3004 2665 3724 2821 2490 2143 2668 1331 1863 2741 3098 2483 2572 2820 1954 1865 2828 3163 2309 3547 2468 2652 1680 2724 2208 977 1961 1333 1690 1859 1155 1599 1782 1765 2757 2051 1610 1067 1956 1337 1335 1857 1424 982 1405 1593 1770 1505 1600 3279 1863 1770 1770 1958 1877 1855 2226 1871 1153 1611 1698 1606 1693 1419 1946 2046 1601 1412 1509 2924 3555 1596 2212 1241 1418 3638 1066 2568 1408 1953 1950 2126 1864 1593 1062 1699 1150 1428 3035 2216 1967 3020 2230 1604 3204 1852 2578 1776 1777 2130 2498 1432 2138 1865 4581 1685 3561 3202 2935 1775 1863 1599 1603 1701 1859 1598 2938 1691 2158 2391 1590 1496 1843 1513 2094 2052 2119 2045 1779 2127 1866 2051 1776 1603 4176 3999 3657 2115 4331 2391 2762 2658 2292 2041 2040 1959 1945 1947 1948 2193 2024 1866 1239 1872 2030 2137 2654 2192 2761 2303 2038 1958 1691 2046 2134 3464 2581 1868 2403 1777 2560 1503 2023 1411 2377 2484 2379 2470 2122 3121 2572 2230 1687 2303 2031 1955 2136 1236 2655 1846 1686 1585 1863 2660 4256 2910 1949 2565 2317 2314 1867 2486 2297 1602 2384 2029 2209 2559 2303 3008 2573 2500 2127 2383 3018 1945 2401 2474 3486 2841 2913 2844 1949 1879 2394 2308 2209 2394 1603 3456 3989 4503 2675 2504 2921 4002 3561 2920 2317 2298 1862 2215 1498 1766

Tree=0
num_leaves=28
num_cat=0
split_feature=2 24 7 12 2 39 8 23 3 22 7 25 26 7 9 5 9 25 8 25 3 2 5 38 7 1 1
split_gain=23.7499 5.23121 5.73334 6.51033 3.2376 2.24713 1.82857 1.77463 1.40833 1.21 1.12207 0.907315 1.154 0.625 0.580645 0.548362 0.510047 1.48785 0.750219 0.768254 0.286364 0.0982223 0.187928 0.349091 0.0419048 0.0327586 8.88178e-16
threshold=0.19002272188663485 -10.476321220397947 -1.2787092328071592 1.0000000180025095e-35 0.35758139193058019 0.13474988937377932 50.355108261108406 1.0860869884490969 -0.15291243046522138 1.2436276078224184 -0.34056930243968958 50.14898872375489 108.50000000000001 -0.33761104941368097 49.995517730712898 -1.8887383937835691 48.222553253173835 45.818420410156257 48.761054992675788 47.394697189331062 -1.0629708170890806 0.48176591098308569 -0.10744397714734076 0.57398259639740001 -1.3549031615257261 59.982744216918952 62.32982254028321
decision_type=2 2 2 2 2 2 2 2 2 2 2 2 2 2 2 2 2 2 2 2 2 2 2 2 2 2 2
left_child=1 25 20 -4 11 6 8 -7 13 -8 -9 16 -13 -5 -14 -6 17 -2 19 -18 -3 22 24 -24 -17 -1 -23
right_child=4 2 3 5 15 7 9 10 -10 -11 -12 12 14 -15 -16 21 18 -19 -20 -21 -22 26 23 -25 -26 -27 -28
leaf_value=0.97374289258986046 0.97452895645686455 0.94574327066390584 0.95655184250047343 0.97444600812102822 0.97460214436054227 0.97429007647339172 0.97460214436054227 0.97450473631364898 0.97460214436054227 0.97448487913792958 0.97460214436054227 0.97435739831718615 0.97409818768443723 0.97460214436054227 0.97440605425050375 0.9738846516450923 0.97410915655405372 0.97397347254886946 0.97402083205596512 0.97440662397545275 0.97440680147597503 0.97349082222298844 0.97422317181976437 0.97392523821563837 0.97404333337582116 0.95702946123077182 0.95856748969908556
leaf_weight=38 27 35 33 20 28 33 25 31 20 20 38 23 31 20 31 21 36 38 107 20 20 1844 25 30 154 20 313
leaf_count=38 27 35 33 20 28 33 25 31 20 20 38 23 31 20 31 21 36 38 107 20 20 1844 25 30 154 20 313
internal_value=0.974057 0.981379 0.982999 0.985001 0.97311 0.986974 0.990054 0.983802 0.986626 0.994626 0.986539 0.975981 0.978626 0.989876 0.976497 0.972738 0.974994 0.977241 0.974098 0.976912 0.974262 0.972689 0.973278 0.974808 0.972797 0.973143 0.972626
internal_weight=3081 353 295 240 2728 207 105 102 60 45 69 313 85 40 62 2415 228 65 163 56 55 2387 230 55 175 58 2157
internal_count=3081 353 295 240 2728 207 105 102 60 45 69 313 85 40 62 2415 228 65 163 56 55 2387 230 55 175 58 2157
is_linear=0
shrinkage=1


Tree=1
num_leaves=28
num_cat=0
split_feature=2 24 7 12 2 23 9 24 7 6 8 8 22 17 13 9 5 9 16 3 0 2 7 6 24 0 0
split_gain=21.552 4.70536 5.08539 5.86932 2.88953 2.60332 2.05554 2.46695 1.12074 1.00119 0.808821 1.01063 0.857207 0.831044 1.28929 0.771429 0.55163 0.414846 0.459375 0.286364 0.225 0.0628622 0.116519 0.180583 0.0412281 0.0327586 8.88178e-16
threshold=0.19002272188663485 -10.476321220397947 -1.2787092328071592 1.0000000180025095e-35 0.35758139193058019 1.0313417911529543 52.708341598510749 -1.4838964343070982 -0.32236468791961664 -0.30469472706317896 54.771276473999031 49.004098892211921 1.3452285528182986 1.0000000180025095e-35 1.5000000000000002 51.13493728637696 -1.8887383937835691 48.620605468750007 1.0000000180025095e-35 -1.0629708170890806 59.883613586425788 0.48176591098308569 -1.6140407919883726 -1.2600029706954954 -0.72632357478141774 60.02203559875489 60.996046066284187
decision_type=2 2 2 2 2 2 2 2 2 2 2 2 2 2 2 2 2 2 2 2 2 2 2 2 2 2 2
left_child=1 25 19 -4 10 15 7 8 -7 -9 11 12 13 -2 -15 -5 -6 18 -13 -3 -20 22 -18 -24 -19 -1 -23
right_child=4 2 3 5 16 6 -8 9 -10 -11 -12 17 -14 14 -16 -17 21 24 20 -21 -22 26 23 -25 -26 -27 -28
leaf_value=-0.00045346149646609545 -5.3995427825488002e-05 -0.02753117153045135 -0.017046856848980791 0.00023546025488973052 0.00046193595528602689 0.00032502293502586967 0.00032276818410835185 0.00046193595189972236 0.00046193595528602689 0.00046281262652364823 9.9953530066529146e-05 -3.6495761230084246e-05 0.00035051832768645519 9.5852519415176373e-05 0.00027204953710788433 0.00046193595528602689 -4.3786200689306384e-05 -5.186082891269198e-05 7.5734584135133388e-05 0.0002724533572558263 0.00016793374975124453 -0.00064291802951853662 0.00010327185982899389 -0.0001052604733384399 7.2889033157695973e-06 -1.3693698618816723e-05 -0.00083275279573275516
leaf_weight=38 35 35 33 28 28 32 36 21 35 35 20 24 24 36 20 20 24 94 20 20 20 1905 20 186 20 20 252
leaf_count=38 35 35 33 28 28 32 36 21 35 35 20 24 24 36 20 20 24 94 20 20 20 1905 20 186 20 20 252
internal_value=-0.000146544 0.00682861 0.00836441 0.01025 -0.00104912 0.0121232 0.0139717 0.0158171 0.0119328 0.0204643 0.00166294 0.0012645 0.00345652 0.00212637 0.00439286 0.006 -0.00140062 -0.000151686 0.00178125 0.000136363 0.00375 -0.00144973 -0.000978261 -0.00120874 -0.00123684 -0.000982759 -0.0015
internal_weight=3081 353 295 240 2728 207 159 123 67 56 313 293 115 91 56 48 2415 178 64 55 40 2387 230 206 114 58 2157
internal_count=3081 353 295 240 2728 207 159 123 67 56 313 293 115 91 56 48 2415 178 64 55 40 2387 230 206 114 58 2157
is_linear=0
shrinkage=0.03


Tree=2
num_leaves=27
num_cat=0
split_feature=2 30 28 3 2 39 8 25 22 22 0 14 8 13 5 5 3 23 23 25 2 5 25 0 26 0
split_gain=20.1795 4.71866 5.95974 6.30691 2.6889 2.22042 2.0372 1.91473 1.75095 1.64432 1.16667 0.711803 0.823561 1.2524 0.671586 0.548362 0.498113 0.480175 0.337716 0.319565 0.0982223 0.187928 0.209091 0.0410714 0.0397403 8.88178e-16
threshold=0.19002272188663485 12.500000000000002 1.0000000180025095e-35 -0.82682824134826649 0.35758139193058019 0.13474988937377932 50.355108261108406 46.396596908569343 1.1019476652145388 1.256074130535126 59.855894088745124 1.5000000000000002 48.549556732177741 1.5000000000000002 -0.17640205472707746 -1.8887383937835691 -5.5816135406494132 1.0236586928367617 1.3894543051719668 46.518405914306648 0.48176591098308569 -0.10744397714734076 49.379131317138679 59.476512908935554 97.500000000000014 60.996046066284187
decision_type=2 2 2 2 2 2 2 2 2 2 2 2 2 2 2 2 2 2 2 2 2 2 2 2 2 2
left_child=1 -1 3 16 11 6 8 -7 -5 -9 -8 17 13 -13 19 -6 -3 -2 23 -14 21 24 -23 -19 -17 -22
right_child=4 2 -4 5 15 7 10 9 -10 -11 -12 12 14 -15 -16 20 -18 18 -20 -21 25 22 -24 -25 -26 -27
leaf_value=-0.016611791394272234 0.00014583716244897201 -0.026826258007011706 -0.028060210349723197 0.00044807656161400682 0.00044807787662744735 0.00035385790679239151 0.00045156953233622065 0.00035079895701907096 0.00030868184935237863 0.00044168643590143311 0.00044807787672276563 0.00013126796062489036 5.3374133117998118e-05 0.00044557540855542596 0.00019919807536250477 -1.5927471317316818e-05 0.00029897640282010367 -1.0041236925142481e-06 0.00036044445831079347 -3.378813607408008e-05 -0.00062363048863298023 8.0922365660929062e-05 -0.00019093476569115786 -7.8483108112922248e-05 -0.00010943634678392655 -0.00080777021186077098
leaf_weight=55 29 33 49 22 28 35 21 35 32 30 21 31 20 20 32 22 20 20 20 49 1905 32 23 92 153 252
leaf_count=55 29 33 49 22 28 35 21 35 32 30 21 31 20 20 32 22 20 20 20 49 1905 32 23 92 153 252
internal_value=-0.000175755 0.00657365 0.00806376 0.00994578 -0.00104912 0.0124286 0.0156875 0.0093 0.0118333 0.0123462 0.0206429 0.00156709 0.00303947 0.00614706 0.0014703 -0.0013882 0.000764151 0.000177018 -0.000590909 -0.000195653 -0.00143716 -0.000847826 0.000681818 -0.00123214 -0.00132857 -0.0015
internal_weight=3081 353 298 249 2728 196 96 100 54 65 42 313 152 51 101 2415 53 161 132 69 2387 230 55 112 175 2157
internal_count=3081 353 298 249 2728 196 96 100 54 65 42 313 152 51 101 2415 53 161 132 69 2387 230 55 112 175 2157
is_linear=0
shrinkage=0.03


Tree=3
num_leaves=19
num_cat=0
split_feature=0 30 24 3 31 39 7 22 32 0 0 5 3 0 10 17 7 3
split_gain=1.15989 1.3237 1.24318 1.64969 1.14599 1.13612 1.25165 1.06666 0.86287 0.763191 1.76222 0.710526 0.148009 0.0756421 0.17013 0.447938 0.0451923 2.22045e-16
threshold=59.247341156005866 12.500000000000002 -15.258406162261961 -5.5207836627960196 12.500000000000002 0.12391608953475954 -0.41326698660850519 1.2522544264793398 40.000000000000007 60.734981536865241 60.652769088745124 -0.77042928338050831 -0.0074328922200947991 58.838159561157234 20.500000000000004 1.0000000180025095e-35 -0.042202966287732117 -0.020177443511784073
decision_type=2 2 2 2 2 2 2 2 2 2 2 2 2 2 2 2 2 2
left_child=12 -2 -3 -4 -5 6 7 -6 -8 10 -7 -11 13 17 16 -16 -15 -1
right_child=1 2 3 4 5 9 8 -9 -10 11 -12 -13 -14 14 15 -17 -18 -19
leaf_value=-0.0012430929156594394 -0.01647017853051164 -0.027233996669297201 -0.026399141002054902 -0.017705959192523123 0.00043463556794388328 0.00017619939818633843 0.00036315839513714716 0.00017079113201947743 -2.7430499012091482e-05 0.0001847709466168665 0.00018467228033274897 -0.0001595075516030777 0.00040193473207767361 -0.00022664789284550219 0.0002350516476805868 -0.00011238133084041224 -6.1083225821360429e-05 -0.0018491504771432053
leaf_weight=461 375 255 249 133 47 821 31 32 56 48 39 197 22 188 34 53 20 20
leaf_count=461 375 255 249 133 47 821 31 32 56 48 39 197 22 188 34 53 20 20
internal_value=-0.000214703 0.000129435 0.000449685 0.000750453 0.00114957 0.00142683 0.00374096 0.00647468 0.00125862 0.00107919 0.0015 -0.00039796 -0.00119925 -0.00126804 -0.000889831 0.000224138 -0.00135577 -0.0015
internal_weight=3081 2283 1908 1653 1404 1271 166 79 87 1105 860 245 798 776 295 87 208 481
internal_count=3081 2283 1908 1653 1404 1271 166 79 87 1105 860 245 798 776 295 87 208 481
is_linear=0
shrinkage=0.03


Tree=4
num_leaves=28
num_cat=0
split_feature=2 30 28 7 25 6 2 2 4 9 3 8 22 17 5 0 8 3 38 0 2 2 7 5 3 3 6
split_gain=18.1599 4.30323 5.25062 6.06428 2.63508 2.33694 1.83216 1.0084 0.926282 1.53793 1.39227 0.789667 1.08637 0.568965 0.545102 0.527473 0.38801 0.283333 0.191678 0.147289 0.0413793 0.0335305 0.139016 0.0450739 0.00275874 0.0338112 8.88178e-16
threshold=0.19720355421304706 12.500000000000002 1.0000000180025095e-35 -1.2787092328071592 48.64135932922364 -0.3449427038431167 0.35758139193058019 0.082808285951614394 -0.42654602229595179 52.567184448242195 -0.42274905741214747 49.004098892211921 1.3452285528182986 1.0000000180025095e-35 -1.8887383937835691 59.945177078247077 53.378410339355476 -5.7102348804473868 0.5674630105495454 60.424362182617195 0.221580944955349 0.48176591098308569 -1.6140407919883726 -0.035365639254450791 -0.051437720656394952 -0.045854810625314706 -1.0478146672248838
decision_type=2 2 2 2 2 2 2 2 2 2 2 2 2 2 2 2 2 2 2 2 2 2 2 2 2 2 2
left_child=1 -1 3 17 8 -6 11 -7 -5 10 -10 12 13 -2 -8 -15 19 -3 -16 20 -13 22 -20 -24 26 -26 -23
right_child=6 2 -4 4 5 7 14 -9 9 -11 -12 16 -14 15 18 -17 -18 -19 21 -21 -22 24 23 -25 25 -27 -28
leaf_value=-0.015620000166732656 -8.7873816179446514e-05 -0.025419983749005289 -0.026403982890177192 0.00022797970879768039 0.00042763550083781246 0.00042954128086796238 0.00042681219008585509 0.0004167649364747547 0.00038645728153577418 0.00028506324043010454 0.00043332037209534011 -0.00010096873142782595 0.00032976055545573356 0.00019657095057127721 0.00011035627130500671 0.00014907639678663463 9.9577580851834444e-05 0.00024953381313592309 -2.6718328403684398e-05 4.6291546011662934e-05 -6.0271510092447088e-05 -0.0010943407891992162 -8.1912947952260672e-05 -1.9798558983519144e-06 -0.00055697480291652223 -0.00060986096006401108 -0.00057392355215361011
leaf_weight=58 33 34 50 24 27 21 28 30 27 21 56 20 23 26 20 28 35 20 23 37 96 337 183 20 27 283 1494
leaf_count=58 33 34 50 24 27 21 28 30 27 21 56 20 23 26 20 28 35 20 23 37 96 337 183 20 27 283 1494
internal_value=-0.000253652 0.006 0.00740323 0.00911538 0.0114612 0.0158077 -0.00110192 0.0120294 0.0088125 0.0100385 0.0118735 0.00111745 0.00313636 0.00160345 -0.00137578 0.0035 -6.38301e-05 0.000166666 -0.00142459 -0.000715687 -0.00124138 -0.0014493 -0.00110177 -0.00135222 -0.00148599 -0.00140323 -0.0015
internal_weight=3081 368 310 260 206 78 2713 51 128 104 83 298 110 87 2415 54 188 54 2387 153 116 2367 226 203 2141 310 1831
internal_count=3081 368 310 260 206 78 2713 51 128 104 83 298 110 87 2415 54 188 54 2387 153 116 2367 226 203 2141 310 1831
is_linear=0
shrinkage=0.03


Tree=5
num_leaves=32
num_cat=0
split_feature=2 30 29 6 2 39 25 6 26 13 24 39 39 23 9 24 23 8 26 6 2 3 3 4 8 23 0 39 24 0 0
split_gain=20.0806 4.73005 5.72376 6.74439 3.04922 2.82823 2.21867 2.08525 1.16281 1.37639 1.1059 1.05472 1.1283 0.860643 0.582335 0.625 0.445899 0.292733 0.596814 0.148031 0.133029 0.169285 0.424617 0.0486205 0.0423664 0.0409524 0.0321429 0.00652746 0.043007 8.88178e-16 5.55112e-17
threshold=0.17388156056404117 12.500000000000002 1.0000000180025095e-35 -1.4655022621154783 0.35758139193058019 0.13060400635004046 44.92485427856446 -0.12346893921494483 114.50000000000001 1.5000000000000002 -0.82208511233329762 0.14498645067214969 0.14818429946899417 1.3894543051719668 56.357717514038093 -1.7846804261207578 1.0032476186752322 48.695707321166999 136.50000000000003 -0.053637715056538575 0.48176591098308569 -0.12840141355991361 -0.076496496796607957 -0.0019842546898871656 53.970581054687507 1.4104960560798647 60.204608917236335 0.11909313499927522 -7.5349028110504142 61.272148132324226 60.817935943603523
decision_type=2 2 2 2 2 2 2 2 2 2 2 2 2 2 2 2 2 2 2 2 2 2 2 2 2 2 2 2 2 2 2
left_child=1 -1 3 -3 11 8 -7 10 -5 -10 -8 13 -13 16 20 -16 -2 18 -18 24 21 25 -23 27 -19 -6 -24 28 -22 -29 -30
right_child=4 2 -4 5 14 6 7 -9 9 -11 -12 12 -14 -15 15 -17 17 19 -20 -21 23 22 26 -25 -26 -27 -28 29 30 -31 -32
leaf_value=-0.014981926952714953 0.00013754477780400956 -0.012203821409661664 -0.025576290308511711 0.00042162177870848561 -8.5106961781452597e-05 0.00037385994090097133 0.00041659837674278829 0.0003088475078114447 0.00045818915612860864 0.0004205306957519939 0.00033402049564729125 0.00036864826632727052 0.00010633245162012954 0.00020503200335484904 0.00042108179222784215 -0.000649716753436611 -5.6857216721921992e-05 -4.1947555584497974e-05 0.00016501626798374954 0.00025407445227646662 -0.00094194014839913678 8.0007769221418314e-05 -0.00018226522620478394 1.6850688233954469e-05 1.5953098200382485e-05 -3.7668713396533293e-05 4.2369050446896916e-06 -0.00054003036168019268 -0.0006510889126554012 -0.00084528660608065972 -0.00093623998215246131
leaf_weight=49 37 35 42 20 129 28 51 24 20 23 20 26 30 35 20 20 37 111 21 20 20 22 36 20 20 21 20 1868 102 137 21
leaf_count=49 37 35 42 20 129 28 51 24 20 23 20 26 30 35 20 20 37 111 21 20 20 22 36 20 20 21 20 1868 102 137 21
internal_value=-0.000158023 0.00705769 0.00865209 0.0105814 -0.000969889 0.0128548 0.0102073 0.0123947 0.0180238 0.0152442 0.0149789 0.00170475 0.00546429 0.000955516 -0.0013399 0.00225 0.000329268 -0.000208134 0.00160345 -0.000903974 -0.00139983 -0.000710527 0.000423077 -0.00147233 -0.00127099 -0.0013 -0.000964286 -0.00148603 -0.00129021 -0.0015 -0.0015
internal_weight=3085 312 263 221 2773 186 123 95 63 43 71 337 56 281 2436 40 246 209 58 151 2396 228 78 2168 131 150 56 2148 143 2005 123
internal_count=3085 312 263 221 2773 186 123 95 63 43 71 337 56 281 2436 40 246 209 58 151 2396 228 78 2168 131 150 56 2148 143 2005 123
is_linear=0
shrinkage=0.03


Tree=6
num_leaves=33
num_cat=0
split_feature=2 30 28 3 39 2 25 6 26 39 39 23 6 23 9 24 23 38 6 25 2 2 3 3 5 23 23 3 3 2 39 2
split_gain=20.0265 4.73005 5.72376 6.29135 3.53902 2.82583 2.14014 1.83681 1.31153 1.10526 1.1283 1.07806 1.01185 0.902899 0.574372 0.625 0.482445 0.270514 0.372024 0.139752 0.254348 0.123539 0.169285 0.424617 0.0468099 0.0409524 0.0376942 0.0321429 0.0190062 0.0295918 0.00681711 5.55112e-17
threshold=0.17388156056404117 12.500000000000002 1.0000000180025095e-35 -1.6789107918739317 0.13060400635004046 0.35758139193058019 44.92485427856446 -0.12346893921494483 117.50000000000001 0.14498645067214969 0.14818429946899417 1.0809435248374941 -0.22313688695430753 1.3894543051719668 56.357717514038093 -1.7846804261207578 1.0032476186752322 0.57656267285346996 -0.28909642994403834 49.788888931274421 0.2766494899988175 0.48176591098308569 -0.12840141355991361 -0.076496496796607957 -2.2060506343841548 1.4104960560798647 0.76958563923835765 -0.041610039770603173 -0.0074328922200947991 1.1029075384140017 0.11909313499927522 0.3297013938426972
decision_type=2 2 2 2 2 2 2 2 2 2 2 2 2 2 2 2 2 2 2 2 2 2 2 2 2 2 2 2 2 2 2 2
left_child=1 -1 3 -3 8 9 -6 11 -5 13 -11 -8 -10 16 21 -16 -2 19 -19 31 -21 22 25 -24 -23 -7 -26 -25 30 -30 -28 -18
right_child=5 2 -4 4 6 14 7 -9 12 10 -12 -13 -14 -15 15 -17 17 18 -20 20 -22 24 23 27 26 -27 28 -29 29 -31 -32 -33
leaf_value=-0.014532469144133506 0.00013341843446988856 -0.024171499976944077 -0.024809001599256357 0.00039807891220615085 0.00035575664069654713 -8.2553752928009593e-05 0.00033275881727253258 0.00029958208257710087 0.00040800295081841231 0.00035758881833745091 0.00010314247807152437 0.00040412309999327488 0.00044444348144475037 0.00019888104325420307 0.00040844933846100561 -0.00063022525083351259 -1.7945091177089799e-05 -7.8858433612397205e-05 0.00020789664017347494 0.00038555087511241035 -5.1297350490284799e-05 -0.00013834595301705831 7.7607536144774591e-05 -0.00016972661391962296 -0.00079924818052337827 -3.653865199463832e-05 -0.00066642709423118365 -8.559662183530643e-05 -0.00015830595919592865 -0.0010536021320390987 -0.00053143178134995573 -0.00010995862016730498
leaf_weight=49 37 33 42 22 29 129 25 24 21 26 30 47 20 35 20 20 91 20 28 20 26 20 22 20 25 21 137 36 20 29 1937 24
leaf_count=49 37 33 42 22 29 129 25 24 21 26 30 47 20 35 20 20 91 20 28 20 26 20 22 20 25 21 137 36 20 29 1937 24
internal_value=-0.000148299 0.00705769 0.00865209 0.0105814 0.0127021 -0.00095907 0.00978 0.0119375 0.0185 0.00161573 0.00546429 0.0143333 0.0153293 0.000848754 -0.00131527 0.00225 0.000207317 -0.000351675 0.001625 -0.000940994 0.000456521 -0.00137479 -0.000710527 0.000423077 -0.00144465 -0.0013 -0.0014581 -0.000964286 -0.00147174 -0.000887755 -0.00148554 -0.0015
internal_weight=3085 312 263 221 188 2773 125 96 63 337 56 72 41 281 2436 40 246 209 48 161 46 2396 228 78 2168 150 2148 56 2123 49 2074 115
internal_count=3085 312 263 221 188 2773 125 96 63 337 56 72 41 281 2436 40 246 209 48 161 46 2396 228 78 2168 150 2148 56 2123 49 2074 115
is_linear=0
shrinkage=0.03


Tree=7
num_leaves=34
num_cat=0
split_feature=2 30 6 24 39 2 25 6 7 38 39 39 8 8 9 24 8 25 38 22 4 1 4 2 9 4 23 0 0 24 39 0 0
split_gain=19.6024 4.62435 4.07894 5.50007 3.13522 2.4707 1.86214 1.7431 1.39775 1.07786 0.90937 1.08482 0.871634 0.867857 0.570411 0.625 0.509597 0.23074 0.355072 0.225 0.196188 0.230488 0.102439 0.0891528 0.175249 0.321903 0.037677 0.0333333 0.0282609 0.0119424 0.0441302 8.88178e-16 5.55112e-17
threshold=0.17388156056404117 12.500000000000002 -6.0303101539611808 -15.738289833068846 0.13060400635004046 0.35758139193058019 44.92485427856446 -0.12346893921494483 -0.44858264923095698 0.57505407929420482 0.14498645067214969 0.14795920252799991 47.790222167968757 46.583763122558601 56.357717514038093 -1.7846804261207578 55.10081863403321 46.173349380493171 0.57607188820838939 1.159288823604584 -0.0060245941858738652 59.844566345214851 -0.19534753262996671 0.48176591098308569 49.235300064086921 -0.30489043891429896 0.76958563923835765 60.258544921875007 59.988733291625984 -9.334016799926756 0.12861168384552005 60.758701324462898 60.520978927612312
decision_type=2 2 2 2 2 2 2 2 2 2 2 2 2 2 2 2 2 2 2 2 2 2 2 2 2 2 2 2 2 2 2 2 2
left_child=1 -1 -3 22 9 10 -6 8 -8 -5 12 -12 13 19 20 -16 17 18 28 -2 23 -22 -4 24 25 -7 -25 -27 -14 30 -28 -31 -19
right_child=5 2 3 4 6 14 7 -9 -10 -11 11 -13 16 -15 15 -17 -18 32 -20 -21 21 -23 -24 26 -26 27 29 -29 -30 31 -32 -33 -34
leaf_value=-0.014096495069809499 5.9539165595105628e-05 -0.023554698731963614 -0.024352990891349135 0.00043615963491655475 0.00034508394147565106 6.9913434821363885e-05 0.00035901602814505679 0.00028949049583344304 0.00039199373835528413 0.00032925993000224425 0.00036328591196351049 9.2416660004052473e-05 -5.8957668669355995e-05 0.00034763092367487723 0.00039619585830717686 -0.00061131849330850582 0.00012285590198698429 -4.2124210158080024e-05 0.00021431466365037769 -0.00012188759790386682 0.00012903464945849364 -0.00018006656888006539 0.00035757584709330138 -0.00077527073510767774 -8.6536247190693573e-05 -0.00010699992720219329 -0.0015451492629855392 -0.00016463481550203275 -1.1696239351955524e-05 -0.00050916664656648039 -0.0010861411167374158 -0.00050991509374436069 -4.5500505335130018e-05
leaf_weight=49 20 32 21 33 29 27 23 25 48 32 24 32 26 30 20 20 21 101 23 20 20 21 20 25 136 40 69 20 20 1497 220 321 20
leaf_count=49 20 32 21 33 29 27 23 25 48 32 24 32 26 30 20 20 21 101 23 20 20 21 20 25 136 40 69 20 20 1497 220 321 20
internal_value=-0.000167748 0.00696154 0.00853802 0.00992857 0.0120789 -0.000969889 0.0093 0.0113125 0.0137113 0.0174231 0.00143769 0.00492857 0.000741993 0.00364286 -0.00130296 0.00225 -0.00022038 -0.000710527 0.000673913 0.00075 -0.00136227 0.000695122 -3.65857e-05 -0.00139809 -0.000827355 0.000224138 -0.00145779 -0.001 -0.000847826 -0.00147152 -0.00129239 -0.0015 -0.0015
internal_weight=3085 312 263 231 190 2773 125 96 71 65 337 56 281 70 2436 40 211 190 69 40 2396 41 41 2355 223 87 2132 60 46 2107 289 1818 121
internal_count=3085 312 263 231 190 2773 125 96 71 65 337 56 281 70 2436 40 211 190 69 40 2396 41 41 2355 223 87 2132 60 46 2107 289 1818 121
is_linear=0
shrinkage=0.03


Tree=8
num_leaves=18
num_cat=0
split_feature=30 1 3 28 24 1 31 25 5 6 39 3 1 39 8 5 1
split_gain=1.05063 1.07107 1.26883 1.60083 1.38267 1.13141 1.00977 0.806771 0.696953 0.254757 0.300514 0.146242 0.0630717 0.137478 0.123278 0.286364 2.22045e-16
threshold=12.500000000000002 60.782590866088874 -1.6789107918739317 1.0000000180025095e-35 -12.885096073150633 59.50328445434571 12.500000000000002 48.605659484863288 -1.2715508937835691 -1.4001773595809934 0.12046081945300104 -0.008094009477645157 61.359357833862312 0.11943422630429269 52.347740173339851 -0.18788515031337735 61.359357833862312
decision_type=2 2 2 2 2 2 2 2 2 2 2 2 2 2 2 2 2
left_child=16 2 -2 4 -4 9 -7 -8 -3 -6 -11 12 13 -10 -15 -16 -1
right_child=1 8 3 -5 5 6 7 -9 11 10 -12 -13 -14 14 15 -17 -18
leaf_value=-0.014443241572374465 -0.022990159865948556 0.00037255986137049317 0.0006018698208376975 -0.024105720713980046 0.00020506893743752521 -0.017058406543580852 0.00012609977629171137 0.0002210369953840808 8.5510983463670188e-05 0.00025002749172884801 -6.9554760695847071e-05 -2.6847917472025959e-07 -0.0016061242626988872 -0.00026272100883225583 -0.00045620252932161281 0.00032403168113906021 -0.017766635486921475
leaf_weight=440 269 30 25 249 20 89 486 400 20 31 376 22 385 168 35 20 20
leaf_count=440 269 30 25 249 20 89 486 400 20 31 376 22 385 168 35 20 20
internal_value=-0.000177472 5.42854e-05 0.000412596 0.00071957 0.00110687 0.000982168 0.00154615 0.00185214 -0.000970589 -0.000305621 -0.000468059 -0.00117692 -0.00126115 -0.000882716 -0.00109641 0.000136363 -0.0015
internal_weight=3085 2625 1945 1676 1427 1402 975 886 680 427 407 650 628 243 223 55 460
internal_count=3085 2625 1945 1676 1427 1402 975 886 680 427 407 650 628 243 223 55 460
is_linear=0
shrinkage=0.03


Tree=9
num_leaves=35
num_cat=0
split_feature=2 30 28 6 39 2 25 6 7 8 24 24 1 1 22 9 8 32 38 38 5 2 39 8 9 8 1 8 26 8 22 39 24 1
split_gain=18.4552 4.41654 5.34439 5.66621 2.79572 2.24364 1.99872 1.68056 1.17361 1.06667 0.872841 1.17834 0.750086 1.24343 0.625 0.48623 0.257972 0.410745 0.205128 0.159226 0.145946 0.126102 0.222388 0.410967 0.544282 0.114502 0.102439 0.0473451 0.0440729 0.0397959 0.0286886 0.00778207 0.0416667 8.88178e-16
threshold=0.17388156056404117 12.500000000000002 1.0000000180025095e-35 -6.0303101539611808 0.13060400635004046 0.41125728189945226 44.92485427856446 -0.12346893921494483 -0.44858264923095698 48.972890853881843 -1.852831184864044 -1.3664963245391843 60.047498703002937 60.396930694580085 1.2009789347648623 56.630784988403327 50.028135299682624 62.500000000000007 0.57411426305770885 0.57696670293807995 -0.48003447055816645 0.66537758708000194 0.13161070644855502 49.167022705078132 49.346937179565437 47.630023956298835 59.992729187011726 56.94975662231446 95.500000000000014 53.378410339355476 0.78324812650680553 0.11909313499927522 -6.7579298019409171 61.26726150512696
decision_type=2 2 2 2 2 2 2 2 2 2 2 2 2 2 2 2 2 2 2 2 2 2 2 2 2 2 2 2 2 2 2 2 2 2
left_child=1 -1 3 -3 9 10 -6 8 -8 -5 16 -12 20 -14 -11 21 17 18 25 -18 -13 22 23 24 -7 -2 -26 30 -24 -25 -23 32 -32 -33
right_child=5 2 -4 4 6 15 7 -9 -10 14 11 12 13 -15 -16 -17 19 -19 -20 -21 -22 27 28 29 26 -27 -28 -29 -30 -31 31 33 -34 -35
leaf_value=-0.013240302970543983 0.00030563734444582965 -0.022158352974026251 -0.022932348877887636 0.00035783499094628333 0.00033094842994262774 0.0004715749191345038 0.00035145036186669872 0.00027527879536326039 0.00037609834606862466 0.0004730014174440584 0.0002495840882459036 3.8874452089027414e-06 0.00023597736388599472 -7.1486560572089952e-06 0.00026988618215081369 0.00036540772736057134 -6.3312589572098871e-05 0.000141575162541493 -2.5462006406424607e-05 8.6200943986281052e-05 -5.9340844400195054e-05 -0.00034725506464937194 -2.7160041832080444e-06 -0.0002904644765172523 9.2704126466400732e-05 -4.2624823362838267e-05 -0.00012325893498717146 -0.00012600861001052806 -0.00017589793147284604 -0.00013152106962414253 -0.00061228393065377706 -0.00073998872081633567 -0.00079562974679054808 -0.0016912598723627431
leaf_weight=49 20 32 42 24 29 20 24 24 48 20 37 20 37 33 20 30 107 35 49 21 54 33 21 78 20 22 21 20 261 20 20 1301 100 393
leaf_count=49 20 32 42 24 29 20 24 24 48 20 37 20 37 33 20 30 107 35 49 21 54 33 21 78 20 22 21 20 261 20 20 1301 100 393
internal_value=-0.000148299 0.00676923 0.00830989 0.0101742 0.0121508 -0.000926614 0.00954 0.011625 0.0139167 0.01725 0.00105172 0.00264365 0.00141667 0.00364286 0.02025 -0.0012947 -8.26775e-05 0.000880952 -0.000181319 -0.00103125 -0.00068919 -0.00134402 -0.000887755 9.4336e-06 0.00194262 0.00135714 -3.65857e-05 -0.00145179 -0.00139362 -0.00119388 -0.00146752 -0.00148346 -0.00125 -0.0015
internal_weight=3085 312 263 221 189 2773 125 96 72 64 435 181 144 70 40 2338 254 126 91 128 74 2308 441 159 61 42 41 1867 282 98 1847 1814 120 1694
internal_count=3085 312 263 221 189 2773 125 96 72 64 435 181 144 70 40 2338 254 126 91 128 74 2308 441 159 61 42 41 1867 282 98 1847 1814 120 1694
is_linear=0
shrinkage=0.03


Tree=10
num_leaves=34
num_cat=0
split_feature=2 28 30 6 2 25 8 6 22 24 9 26 7 9 4 24 9 9 12 5 8 6 7 2 38 4 23 8 9 1 24 24 1
split_gain=15.4346 3.68835 4.54757 5.00615 2.61403 1.94661 2.22181 1.86719 1.38301 1.225 1.14681 0.9 0.634921 0.594571 0.587632 0.513991 0.811804 1.24668 1.35001 0.465432 0.15245 0.195236 0.70028 0.0805926 0.313438 0.4 0.0383594 0.0401104 0.0407828 0.0346154 0.0051928 0.0418719 8.88178e-16
threshold=0.1612723842263222 1.0000000180025095e-35 12.500000000000002 -6.0303101539611808 0.44116334617137914 49.136671066284187 48.492584228515632 -0.34881794452667231 1.2344015240669253 -1.8149430751800535 53.574405670166023 126.50000000000001 -0.32236468791961664 44.573118209838874 -0.10174639150500296 -2.1864520311355586 50.598463058471687 47.771457672119148 1.5000000000000002 -1.8887383937835691 49.71685981750489 -0.37439419329166407 -0.41779473423957819 0.70640859007835399 0.57029464840888988 -0.15661039948463437 0.88596084713935863 44.646268844604499 45.757213592529304 59.686553955078132 -16.364787101745602 -17.981455802917477 61.982753753662116
decision_type=2 2 2 2 2 2 2 2 2 2 2 2 2 2 2 2 2 2 2 2 2 2 2 2 2 2 2 2 2 2 2 2 2
left_child=1 2 -1 -4 10 6 -5 -7 12 -9 13 -10 -8 -2 -12 20 17 -17 -19 -6 21 22 -15 24 25 -21 -26 -28 -29 -23 31 -25 -32
right_child=4 -3 3 5 19 7 8 9 11 -11 14 -13 -14 15 -16 16 -18 18 -20 23 -22 29 -24 30 26 -27 27 28 -30 -31 32 -33 -34
leaf_value=-0.013009005116022364 0.00019275015367581461 -0.022221711348416124 -0.021615736249277699 0.00027151844053447267 0.00038271796877131661 0.00039435838034243044 0.00036552706581404078 0.00035124792871311857 0.00059137152390633329 0.00028223279671627519 0.00025591445771512052 0.00021563125976291388 0.00031950901674318967 -0.00019339235383932394 5.2502756229864658e-05 -5.2470383237421009e-05 -3.6925673313051679e-05 0.00018710975594048599 0.0002224838191598198 7.5827178878588812e-05 -0.00010532515846092078 -8.9092690403226837e-05 0.00010605833351715747 -0.026725436859919953 -8.3069830611544429e-05 -8.5044003705274105e-05 -0.00026147993946591165 -2.9035445327481223e-05 -0.00017015047686502836 -7.1120978947062516e-05 -0.00073536451198712226 -0.0165511894140929 -0.014853421361131441
leaf_weight=42 22 48 33 36 32 26 21 20 20 20 38 20 24 30 23 44 61 47 46 20 112 20 21 153 20 20 21 23 348 45 1301 21 329
leaf_count=42 22 48 33 36 32 26 21 20 20 20 38 20 24 30 23 44 61 47 46 20 112 20 21 153 20 20 21 23 348 45 1301 21 329
internal_value=-0.000206148 0.00614516 0.0075458 0.00927273 -0.000910083 0.0111738 0.00891322 0.0153182 0.0115588 0.01125 0.00103438 0.0075 0.0151667 0.000508928 0.00489344 0.000260563 0.00137879 0.00266058 0.00462903 -0.00134266 -0.000710527 5.17238e-05 0.00144118 -0.00139362 -0.0010354 0.0015 -0.00128155 -0.00134694 -0.00141914 -0.00103846 -0.00148337 -0.00132759 -0.0015
internal_weight=3107 310 262 220 2797 187 121 66 85 40 509 40 45 448 61 426 198 137 93 2288 228 116 51 2256 452 40 412 392 371 65 1804 174 1630
internal_count=3107 310 262 220 2797 187 121 66 85 40 509 40 45 448 61 426 198 137 93 2288 228 116 51 2256 452 40 412 392 371 65 1804 174 1630
is_linear=0
shrinkage=0.03


Tree=11
num_leaves=33
num_cat=0
split_feature=2 28 12 7 31 39 22 2 25 13 2 22 9 3 5 6 9 12 3 9 6 23 2 38 23 5 9 2 39 39 2 2
split_gain=14.7052 2.92597 3.55431 4.1608 3.00073 2.87503 2.55783 2.42865 2.16984 1.69661 1.07799 0.915826 0.648022 0.577778 0.535283 0.668605 0.442179 0.921585 1.02052 0.444444 0.156955 0.155556 0.0631882 0.147526 0.151473 0.043865 0.0378189 0.0391891 0.00773525 0.0416667 4.44089e-16 5.55112e-17
threshold=0.2538865357637406 1.0000000180025095e-35 1.0000000180025095e-35 -1.2787092328071592 12.500000000000002 0.13206934928894046 1.0983629226684573 0.1834213584661484 47.566188812255866 1.5000000000000002 0.46011397242546087 1.1081929802894595 53.681270599365241 -0.92398011684417714 -1.7517865300178526 -0.42181259393692011 49.235300064086921 1.5000000000000002 -0.12840141355991361 47.907251358032234 -0.038413180038332932 1.0146550536155703 0.80362129211425792 0.56908872723579418 0.86587119102478038 -0.052628640085458749 45.023126602172859 0.77908673882484447 0.11909313499927522 0.11800325661897661 12.152311801910402 13.271358013153078
decision_type=2 2 2 2 2 2 2 2 2 2 2 2 2 2 2 2 2 2 2 2 2 2 2 2 2 2 2 2 2 2 2 2
left_child=1 2 -1 13 -5 6 -6 -8 11 -10 12 -7 16 -4 15 -12 17 21 19 -19 25 -2 23 -16 -25 -18 -26 -28 29 -24 -30 -32
right_child=10 -3 3 4 5 8 7 -9 9 -11 14 -13 -14 -15 22 -17 20 18 -20 -21 -22 -23 28 24 26 -27 27 -29 30 -31 31 -33
leaf_value=-0.012621851690160085 4.9370178751263698e-06 -0.021574471370221351 -0.018991420976241315 -0.016210861863791184 0.00028994454358168947 0.000230156609103781 0.00036283244960741738 0.00036126335751971507 0.00032520519675780342 0.00036315112496932615 0.00043700120139646571 0.00015119534780788473 0.00011545008627942016 0.00035331241807131454 2.7281865541140918e-05 -0.0008020502863806977 -8.516434428844362e-05 -9.8452545840833225e-05 0.00014661730112520814 0.00016896413231321344 0.00011581761699646276 -5.3859429649704277e-05 -0.0010673708490139197 2.1600846257819079e-05 -3.7954365459617445e-06 -2.90216690531767e-05 -0.0002173858894927223 -0.00020874781289719935 -0.00091588562700150439 -0.00080990270015819535 -0.016841912323472642 -0.018564357274768434
leaf_weight=56 20 61 52 26 30 22 53 25 44 37 20 53 37 20 21 23 143 25 23 20 20 70 100 22 21 20 449 22 1429 20 98 25
leaf_count=56 20 61 52 26 30 22 53 25 44 37 20 53 37 20 21 23 143 25 23 20 20 70 100 22 21 20 449 22 1429 20 98 25
internal_value=-0.000196492 0.00463779 0.00553349 0.00662155 0.00822414 0.00918182 0.0129444 0.0158077 0.00657692 0.00998148 -0.00107763 0.0029 0.000404762 0.000166666 -0.00132667 0.00198837 -4.39918e-06 0.00115823 0.00379412 0.00116667 -0.0010082 -0.000833334 -0.00139126 -0.00110748 -0.00120817 -0.00131595 -0.00131707 -0.00137261 -0.00148206 -0.00125 -0.0015 -0.0015
internal_weight=3107 479 418 362 290 264 108 78 156 81 2628 75 378 72 2250 43 341 158 68 45 183 90 2207 535 514 163 492 471 1672 120 1552 123
internal_count=3107 479 418 362 290 264 108 78 156 81 2628 75 378 72 2250 43 341 158 68 45 183 90 2207 535 514 163 492 471 1672 120 1552 123
is_linear=0
shrinkage=0.03


Tree=12
num_leaves=20
num_cat=0
split_feature=0 30 1 29 7 31 1 0 0 1 1 5 0 1 0 10 0 0 0
split_gain=1.26718 1.34116 1.44839 1.60078 1.67788 1.23251 1.29909 2.79402 2.02978 0.542208 0.312891 0.528189 0.288736 0.436364 0.18939 0.135682 0.0444134 1.11022e-16 1.11022e-16
threshold=59.338897705078132 12.500000000000002 59.419040679931648 1.0000000180025095e-35 -6.5655164718627921 12.500000000000002 60.445562362670906 60.603143692016609 60.612468719482429 59.442474365234382 59.099523544311531 -0.27503581345081324 59.559570312500007 58.956113815307624 61.373212814331062 20.500000000000004 61.220842361450202 61.330776214599616 61.122920989990241
decision_type=2 2 2 2 2 2 2 2 2 2 2 2 2 2 2 2 2 2 2
left_child=9 17 12 4 16 -6 7 -7 -8 10 15 -12 13 -3 18 -1 -4 -2 -14
right_child=1 2 3 -5 5 6 8 -9 -10 -11 11 -13 14 -15 -16 -17 -18 -19 -20
leaf_value=-1.7570564601544082e-05 -0.012598870927586743 -0.00050028664659521472 -0.020477999379150975 -0.021180377754905534 -0.015987180712439684 0.00024105718451902439 -7.893023014287144e-05 -6.6491895536149276e-05 0.00023760867511995573 -0.00075178669961691383 0.00027021643872026865 -0.00010216205402652697 -0.00047961911640062837 0.0001184311211041337 0.00042389116535457229 9.9029909762432398e-05 -0.00023721395851340697 -0.017153121016128033 -0.0022365612365054799
leaf_weight=52 351 24 159 208 92 426 239 160 115 766 26 29 337 20 20 21 20 22 20
leaf_count=52 351 24 159 208 92 426 239 160 115 766 26 29 337 20 20 21 20 22 20
internal_value=-0.00024477 0.000140307 0.000472826 0.000931289 0.00134888 0.00181395 0.0021383 0.00300512 0.000703389 -0.00119799 0.000609375 0.00231818 -0.00107245 0.00122727 -0.00134085 -0.000678083 -0.0013324 -0.0015 -0.0015
internal_weight=3107 2213 1840 1419 1211 1032 940 586 354 894 128 55 421 44 377 73 179 373 357
internal_count=3107 2213 1840 1419 1211 1032 940 586 354 894 128 55 421 44 377 73 179 373 357
is_linear=0
shrinkage=0.03


Tree=13
num_leaves=30
num_cat=0
split_feature=2 28 13 3 31 2 9 4 9 3 2 9 5 17 8 35 38 0 3 2 8 0 23 2 38 39 9 2 38
split_gain=13.5006 2.69199 3.27008 3.82119 2.77348 2.76611 2.45174 2.03832 1.33657 2.08797 0.981431 0.990083 0.535283 0.554968 0.39731 0.574231 0.675 0.340136 0.142029 0.101285 0.0765415 0.111111 0.0544635 0.136508 0.0467063 0.0349806 0.044186 0.0298822 0.00663114
threshold=0.2538865357637406 1.0000000180025095e-35 1.0000000180025095e-35 -5.5207836627960196 12.500000000000002 0.15407405048608783 52.845880508422859 -0.17447834461927411 49.377109527587898 -0.14289107918739316 0.46011397242546087 53.681270599365241 -1.7517865300178526 1.0000000180025095e-35 49.108648300170906 1.5000000000000002 0.57455778121948253 60.072944641113288 -0.15291243046522138 0.2766494899988175 43.814815521240241 59.738534927368171 0.84932911396026622 0.92028057575225841 0.5674630105495454 0.14931179583072665 45.909292221069343 0.48176591098308569 0.57810604572296154
decision_type=2 2 2 2 2 2 2 2 2 2 2 2 2 2 2 2 2 2 2 2 2 2 2 2 2 2 2 2 2
left_child=1 2 -1 -4 -5 6 7 -6 17 -10 11 14 13 -12 15 16 -2 -7 -17 -16 21 -14 23 -22 -24 26 -21 -26 -29
right_child=10 -3 3 4 5 8 -8 -9 9 -11 12 -13 20 -15 19 18 -18 -19 -20 25 22 -23 24 -25 27 -27 -28 28 -30
leaf_value=-0.011865230011627682 0.0001528325196963649 -0.020291825896467542 -0.019789311088420355 -0.015227008896141668 0.00032294316079377875 -7.3322740610035729e-05 0.00015561246274230063 0.00035054529927266916 0.00036620158686120815 0.00027961216999896672 0.00037455775105385699 0.00010660015867622428 -0.00064877993668965221 -0.0011800927796646711 3.2953071308661817e-05 -0.00012784774312253044 1.9658463257424681e-06 0.00020318022111535377 9.872423410291934e-05 2.2873638810490564e-06 3.7075539724191832e-05 5.1101216432260268e-05 -0.00037639617311903032 -0.0014108418953988117 -8.2099957909801788e-05 -0.00016989620421000858 -4.6160545798350653e-05 -0.00051255791602849185 -0.00036520820018431607
leaf_weight=56 24 61 49 28 77 25 32 68 31 28 22 37 25 21 26 49 30 24 20 20 20 20 20 43 31 20 152 1924 124
leaf_count=56 24 61 49 28 77 25 32 68 31 28 22 37 25 21 26 49 30 24 20 20 20 20 20 43 31 20 152 1924 124
internal_value=-0.00024477 0.00438726 0.00524641 0.00629005 0.00750958 0.00839474 0.0107034 0.0123621 0.00461111 0.00765254 -0.00108904 0.000325396 -0.00132667 0.00198837 -0.000180352 0.00118293 0.0035 0.000948979 -0.000630435 -0.000949542 -0.00139126 -0.000166667 -0.00141674 -0.000547619 -0.00144283 -0.0011875 -0.00132558 -0.00145671 -0.0014707
internal_weight=3107 479 418 362 313 285 177 145 108 59 2628 378 2250 43 341 123 54 49 69 218 2207 45 2162 63 2099 192 172 2079 2048
internal_count=3107 479 418 362 313 285 177 145 108 59 2628 378 2250 43 341 123 54 49 69 218 2207 45 2162 63 2099 192 172 2079 2048
is_linear=0
shrinkage=0.03


Tree=14
num_leaves=36
num_cat=0
split_feature=2 30 28 39 8 4 2 9 39 9 0 24 39 22 24 1 33 9 9 5 4 38 38 39 2 8 5 22 0 2 38 9 39 24 0
split_gain=13.1583 3.05218 4.14673 2.60497 2.91811 2.06273 1.7296 1.34554 1.55769 1.16406 0.942857 0.817931 1.07299 0.74681 0.712124 0.8659 1.18006 1.49393 1.56535 0.437885 0.416843 0.148058 0.143835 0.138495 0.106525 0.204519 0.207255 0.208333 0.034375 0.0327817 0.00742356 0.040991 0.00775895 0.0416667 8.88178e-16
threshold=0.1834213584661484 12.500000000000002 1.0000000180025095e-35 0.13191988319158557 50.389844894409187 -0.16835180670022962 0.41125728189945226 52.174617767333991 0.14077791571617129 53.574405670166023 59.840616226196296 -2.2124073505401607 0.13931541144847873 1.1395514607429507 -2.1864520311355586 59.918457031250007 2.2500000000000004 50.598463058471687 48.158575057983406 -1.8887383937835691 -0.16835180670022962 0.5674630105495454 0.5714266598224641 0.14563283324241641 0.66537758708000194 45.013511657714851 -0.073035057634115205 1.285184442996979 59.289907455444343 0.64371195435523998 0.57810604572296154 52.781248092651374 0.11909313499927522 -7.8423933982849112 58.412866592407234
decision_type=2 2 2 2 2 2 2 2 2 2 2 2 2 2 2 2 2 2 2 2 2 2 2 2 2 2 2 2 2 2 2 2 2 2 2
left_child=1 -1 3 4 13 11 9 8 -7 14 -6 12 -5 -3 22 28 17 18 -17 -8 -11 -21 -2 -24 25 -23 29 -28 -16 -27 32 -32 33 -26 -34
right_child=6 2 -4 5 10 7 19 -9 -10 20 -12 -13 -14 -15 15 16 -18 -19 -20 21 -22 24 23 -25 30 26 27 -29 -30 -31 31 -33 34 -35 -36
leaf_value=-0.011508382617673599 0.000107834795853922 1.4199226476113117e-05 -0.019666646118585367 0.00030768985826158706 0.00035798765922990297 0.00023880514681353651 0.00034325718299966243 0.00025419474489014139 0.00053034084711333501 0.00021931192705935385 0.00032705320599128832 -6.6502529958536197e-05 -3.4824244533753852e-05 0.00018972078781677546 -8.3872642622467283e-06 6.1005235780427778e-05 -4.9913962387623967e-05 -4.0778792495993181e-05 0.00033468208500832909 7.8405527835908583e-06 8.9991485403158395e-05 3.2566557751619656e-05 -5.4783772791281102e-05 4.1437347807132314e-05 -0.00074527798561839194 -0.00013643597789448459 -0.00011445030767130448 3.6366520484663456e-05 -6.4281569129859116e-05 -0.00027349904163398388 -0.00079935035626210315 -6.3280154330446274e-06 -0.0023504167577339937 -0.00080369077858533826 -0.00064429792719020358
leaf_weight=52 20 21 50 22 20 26 33 25 26 22 22 33 21 31 20 20 31 20 33 24 21 31 161 25 20 313 40 20 44 28 91 20 337 100 1284
leaf_count=52 20 21 50 22 20 26 33 25 26 22 22 33 21 31 20 20 31 20 33 24 21 31 161 25 20 313 40 20 44 28 91 20 337 100 1284
internal_value=-0.000283393 0.00520487 0.00637879 0.00797368 0.0119043 0.00555882 -0.000977883 0.00901948 0.0117692 0.000802158 0.0177857 0.00205263 0.00477907 0.00715385 0.000264706 0.00171429 0.00340385 0.0054863 0.00812264 -0.00129496 0.00547674 -0.00134402 -0.000917476 -0.00117742 -0.00136865 -0.000944445 -0.00112594 0.0005 -0.00103125 -0.00141202 -0.0014676 -0.00122973 -0.00148277 -0.00125 -0.0015
internal_weight=3107 349 297 247 94 153 2758 77 52 417 42 76 43 52 374 168 104 73 53 2341 43 2308 206 186 2284 432 401 60 64 341 1852 111 1741 120 1621
internal_count=3107 349 297 247 94 153 2758 77 52 417 42 76 43 52 374 168 104 73 53 2341 43 2308 206 186 2284 432 401 60 64 341 1852 111 1741 120 1621
is_linear=0
shrinkage=0.03


Tree=15
num_leaves=36
num_cat=0
split_feature=2 30 28 39 26 2 25 33 2 22 1 9 25 0 23 9 5 2 26 26 9 22 4 4 0 2 13 4 14 0 4 1 39 2 0
split_gain=13.1539 3.20981 4.02356 2.34244 2.18066 1.72038 1.02243 1.23873 1.39518 1.31325 1.84437 0.895912 1.08624 0.679838 0.498188 0.431128 0.348853 0.348457 0.641298 0.364435 0.179397 0.321095 0.170868 0.152941 0.107375 0.102837 0.191907 0.327924 0.731511 0.782609 0.0436709 0.0429577 0.00825538 0.0387695 4.44089e-16
threshold=0.1834213584661484 12.500000000000002 1.0000000180025095e-35 0.13036213815212253 133.50000000000003 0.46011397242546087 44.33092117309571 2.2500000000000004 0.094428859651088728 1.2280321121215823 59.763536453247077 53.574405670166023 48.397146224975593 59.920877456665046 1.1569558978080752 44.707939147949226 -1.7517865300178526 0.2766494899988175 99.500000000000014 150.50000000000003 49.215833663940437 1.1176967024803164 -0.17255256325006482 -0.40859469771385187 60.156152725219734 0.80362129211425792 1.5000000000000002 -0.27805815637111658 1.5000000000000002 60.133007049560554 -0.045568611472845071 59.278549194335945 0.11909313499927522 0.97658354043960582 61.032054901123054
decision_type=2 2 2 2 2 2 2 2 2 2 2 2 2 2 2 2 2 2 2 2 2 2 2 2 2 2 2 2 2 2 2 2 2 2 2
left_child=1 -1 3 4 13 11 -5 9 -9 10 -8 15 -13 -3 -11 -2 24 18 -17 22 21 -19 -20 -23 -7 26 -18 28 -28 -30 -22 -29 33 -27 -34
right_child=5 2 -4 6 -6 16 7 8 -10 14 -12 12 -14 -15 -16 17 25 20 19 -21 30 23 -24 -25 -26 32 27 31 29 -31 -32 -33 34 -35 -36
leaf_value=-0.01107830585119254 0.00016940707741155923 0.00059989730056177681 -0.01907067401248869 9.2232575325197172e-05 0.00031791457032333688 -0.00020279332367372502 0.00024020246937361668 0.00034766904260320617 0.00031678092272423601 0.00024308268035048199 0.00031466404180401455 -3.5841529490019272e-06 0.0002465444474300268 0.00042268641443313925 -9.8777275409141734e-05 0.00017503389582473804 -0.00018975540060700626 0.00014461029689177119 -2.3779627026571185e-05 0.00032288498388724778 -8.7939716677560992e-05 3.396380969355214e-06 5.7913117540173564e-05 -6.1306285277704954e-05 0.00038963998237232888 -0.00021110650569128403 -0.0001110234646099418 -0.00035911943211004493 -0.00023217753942567066 0.0004692592774435914 -3.6102354269003877e-05 -0.00033915404775740658 -0.00088297681697493816 -0.0011787445322925816 -0.00078736498116441787
leaf_weight=52 20 29 46 26 20 21 20 21 20 24 33 29 22 20 22 26 312 37 61 23 138 20 51 65 20 21 51 20 23 23 20 122 1372 92 198
leaf_count=52 20 29 46 26 20 21 20 21 20 24 33 29 22 20 22 26 312 37 61 23 138 20 51 65 20 21 51 20 23 23 20 122 1372 92 198
internal_value=-0.000288462 0.00534685 0.00661388 0.00820213 0.0128478 -0.000961787 0.00627108 0.00728571 0.0116707 0.0054697 0.00868868 0.000609375 0.00438235 0.0162551 0.00176087 0.000191974 -0.00131538 -3.40172e-06 0.0011087 0.000277777 -0.000642858 0.000221311 -0.000428572 -0.000794118 0.00142683 -0.00136571 -0.00100998 -0.000370293 0.000974226 0.00371739 -0.00131013 -0.00128873 -0.00148218 -0.00123451 -0.0015
internal_weight=3120 333 281 235 69 2787 166 140 41 99 53 512 51 49 46 461 2275 441 161 135 280 122 112 85 41 2234 551 239 97 46 158 142 1683 113 1570
internal_count=3120 333 281 235 69 2787 166 140 41 99 53 512 51 49 46 461 2275 441 161 135 280 122 112 85 41 2234 551 239 97 46 158 142 1683 113 1570
is_linear=0
shrinkage=0.03


Tree=16
num_leaves=32
num_cat=0
split_feature=2 30 28 3 39 8 2 3 7 38 3 4 4 2 3 4 8 8 26 2 22 38 2 9 2 8 23 0 39 3 3
split_gain=13.0031 3.1259 3.91838 4.47292 2.52352 1.89 1.41611 1.32287 1.23009 1.16855 1.38757 0.542706 0.741434 1.2758 0.427907 0.363334 0.338634 0.396992 0.302459 0.229817 0.301701 0.523108 0.100663 0.0957064 0.0599194 0.158584 0.170853 0.0404762 0.00833227 0.0410714 8.88178e-16
threshold=0.1834213584661484 12.500000000000002 1.0000000180025095e-35 -5.5207836627960196 0.13036213815212253 50.875963211059577 0.34313091635704046 -0.17760258913040158 -0.32236468791961664 0.57300877571105968 -0.39554564654827112 -0.17255256325006482 -0.073891680687665925 0.24818471819162372 -0.20736693590879438 -0.0019842546898871656 49.073711395263679 46.583763122558601 114.50000000000001 0.45321702957153326 1.1064375638961794 0.57379898428916942 0.42618338763713842 56.630784988403327 0.80362129211425792 43.814815521240241 0.86587119102478038 59.476512908935554 0.11909313499927522 -0.051437720656394952 -0.18686036765575406
decision_type=2 2 2 2 2 2 2 2 2 2 2 2 2 2 2 2 2 2 2 2 2 2 2 2 2 2 2 2 2 2 2
left_child=1 -1 3 -3 5 -5 11 9 -9 -6 -11 16 13 -13 -15 19 17 -2 -14 20 21 -8 -22 24 25 -21 -27 -18 29 -26 -30
right_child=6 2 -4 4 7 -7 15 8 -10 10 -12 12 18 14 -16 -17 27 -19 -20 23 22 -23 -24 -25 28 26 -28 -29 30 -31 -32
leaf_value=-0.010745956675656766 -2.7102495219713719e-05 -0.019178821150484311 -0.018498553792114028 0.00030013679302603059 0.00030670553575955564 0.00059624288985140358 0.00013485995832724032 -7.1924907573843603e-06 0.00031692366540507039 0.00011403044184983449 0.00032775933364477972 0.0003327126455742466 0.00019689495215889137 -0.00014659376791087406 0.00036241686356180768 0.00032732158471416759 -2.9742964476425219e-05 0.00019482012348290018 -6.2997087095005816e-05 3.4513404883436436e-05 -0.00011006799947891215 -0.000108309343510869 2.3337702424798305e-06 -0.00014193928126658443 -0.00090409935681133114 2.1259295832281944e-05 -0.0001732548318939943 -7.753346710727459e-05 -0.00083919425279396049 -0.00013987304429403366 -0.00083095492900383259
leaf_weight=52 22 37 46 35 32 25 23 28 23 32 23 27 20 23 20 22 20 35 41 20 110 38 31 36 92 20 517 85 923 20 642
leaf_count=52 22 37 46 35 32 25 23 28 23 32 23 27 20 23 20 22 20 35 41 20 110 38 31 36 92 20 517 85 923 20 642
internal_value=-0.000346154 0.00525676 0.00650712 0.00807447 0.00986364 0.015 -0.00101561 0.00763043 0.00379412 0.00987931 0.00722727 0.000957338 0.00239313 0.0045 0.0012907 -0.00124739 -0.000203704 0.00165789 -2.45905e-05 -0.00128155 -0.000311882 0.00145082 -0.00107447 -0.00136784 -0.00139257 -0.00112298 -0.00122067 -0.00121429 -0.00148211 -0.00123214 -0.0015
internal_weight=3120 333 281 235 198 60 2787 138 51 87 55 293 131 70 43 2494 162 57 61 2472 202 61 141 2270 2234 557 537 105 1677 112 1565
internal_count=3120 333 281 235 198 60 2787 138 51 87 55 293 131 70 43 2494 162 57 61 2472 202 61 141 2270 2234 557 537 105 1677 112 1565
is_linear=0
shrinkage=0.03


Tree=17
num_leaves=13
num_cat=0
split_feature=0 30 3 28 24 3 1 0 1 1 6 1
split_gain=0.887231 1.07244 1.01343 1.28064 1.97045 1.17385 0.85053 0.944483 0.884068 0.308452 0.392828 2.22045e-16
threshold=59.146263122558601 12.500000000000002 -5.5207836627960196 1.0000000180025095e-35 -12.885096073150633 -1.3252547979354856 59.430789947509773 59.367221832275398 60.244728088378913 59.335086822509773 -0.35240606963634485 61.359357833862312
decision_type=2 2 2 2 2 2 2 2 2 2 2 2
left_child=9 -2 -3 4 -4 -6 7 -7 -8 10 -1 -11
right_child=1 2 3 -5 5 6 8 -9 -10 11 -12 -13
leaf_value=6.4340135144004017e-05 -0.010949061716255919 -0.018742200505121667 0.00092621500404758278 -0.018424960382615232 0.00057336459618657595 0.00023735077136393035 0.00013481460275467479 -0.00036855464902974737 6.231413140031502e-06 -0.00059164333364103612 -0.00016447131256054341 -0.014273366148826846
leaf_weight=34 410 276 21 255 24 32 530 298 539 335 39 327
leaf_count=34 410 276 21 255 24 32 530 298 539 335 39 327
internal_value=-0.000384616 -0.000103774 0.000186076 0.000459976 0.000806094 0.000671468 0.000558613 -0.000772728 0.000969597 -0.00129592 0.000554794 -0.0015
internal_weight=3120 2385 1975 1699 1444 1423 1399 330 1069 735 73 662
internal_count=3120 2385 1975 1699 1444 1423 1399 330 1069 735 73 662
is_linear=0
shrinkage=0.03


Tree=18
num_leaves=33
num_cat=0
split_feature=2 30 28 6 39 8 9 4 2 7 17 24 30 24 4 4 22 2 7 9 8 39 25 24 1 8 5 4 9 39 24 6
split_gain=11.7208 2.80136 3.51156 4.00853 2.15127 1.94304 1.42056 1.65081 1.06235 0.930769 0.676162 0.493534 0.510646 0.523268 0.785562 0.365615 0.310673 0.177649 0.226347 0.204374 0.300377 0.32959 0.111451 0.0686259 0.109091 0.0438152 0.0436996 0.0429078 0.0412949 0.00810041 0.0389234 8.88178e-16
threshold=0.1834213584661484 12.500000000000002 1.0000000180025095e-35 -6.0303101539611808 0.13036213815212253 51.499692916870124 52.174617767333991 -0.16835180670022962 0.34313091635704046 -0.32608206570148462 1.0000000180025095e-35 -3.6116993427276607 12.500000000000002 -1.0893615484237669 -0.17255256325006482 -0.0019842546898871656 1.183955252170563 0.80362129211425792 -0.22986672073602674 53.574405670166023 49.108648300170906 0.13216146826744082 46.173349380493171 -0.26862564682960505 59.96717834472657 43.929542541503913 -1.8887383937835691 -0.62539929151535023 55.495243072509773 0.11909313499927522 -6.6690747737884513 -0.42531481385231013
decision_type=2 2 2 2 2 2 2 2 2 2 2 2 2 2 2 2 2 2 2 2 2 2 2 2 2 2 2 2 2 2 2 2
left_child=1 -1 3 -3 5 -5 7 9 11 -6 -9 22 -13 14 -14 17 -15 18 23 20 21 -20 -2 25 -25 -10 -19 -22 -27 30 -28 -31
right_child=8 2 -4 4 6 -7 -8 10 15 -11 -12 12 13 16 -16 -17 -18 26 19 -21 27 -23 -24 24 -26 28 29 -29 -30 31 -32 -33
leaf_value=-0.010095106123899385 6.4007080163253083e-05 -0.018041190500816134 -0.017390848366872148 0.00032062219207849981 0.00011163711760347373 0.00049319911814437747 0.00020712985178647603 0.00030925987398085778 -0.00033082882290568112 0.00032491044689973703 0.00031282287718720155 -0.015214532979864208 0.00018644378080630148 8.9823251679199749e-05 0.00035343004510108981 0.00032790923121625446 -1.3220675646798074e-05 -0.00016420972191397449 9.8908601850379113e-05 7.3575384653035036e-05 -2.7997959494742776e-05 -5.7683953429943384e-05 -4.0195987814765651e-05 -0.0001668636358306096 7.1167965166618168e-05 -0.00017763695269072113 -0.00073977197775421479 -0.00013975009285193332 -0.00013591093156082248 -0.00085671361982525194 -0.00077641379133922765 -0.00080081204788255613
leaf_weight=52 27 37 46 39 32 21 39 20 20 20 27 38 36 38 38 22 34 22 30 22 20 55 82 24 20 435 21 121 23 642 94 923
leaf_count=52 27 37 46 39 32 21 39 20 20 20 27 38 36 38 38 22 34 22 30 22 20 55 82 24 20 435 21 121 23 642 94 923
internal_value=-0.000423077 0.0048964 0.00608007 0.00756383 0.00925758 0.014 0.00719565 0.00910606 -0.00105867 0.00542308 0.0131809 0.00065017 0.00159783 0.00240411 0.00417568 -0.00125942 0.000583333 -0.00129369 -0.000915585 -0.000169355 -0.000438053 0.000970588 -0.000949542 -0.00127012 -0.000136364 -0.00137448 -0.00146475 -0.00128723 -0.0014345 -0.00148214 -0.00123913 -0.0015
internal_weight=3120 333 281 235 198 60 138 99 2787 52 47 293 184 146 74 2494 72 2472 770 248 226 85 109 522 44 478 1702 141 458 1680 115 1565
internal_count=3120 333 281 235 198 60 138 99 2787 52 47 293 184 146 74 2494 72 2472 770 248 226 85 109 522 44 478 1702 141 458 1680 115 1565
is_linear=0
shrinkage=0.03


Tree=19
num_leaves=20
num_cat=0
split_feature=0 30 1 28 7 24 1 0 0 5 1 24 4 5 0 1 0 0 0
split_gain=0.81762 0.945251 1.05889 0.999939 1.34731 1.34782 0.930233 2.36358 0.897731 0.671841 0.520595 0.277034 1.01739 0.116064 0.047561 0.0281069 2.22045e-16 1.11022e-16 1.11022e-16
threshold=59.338897705078132 12.500000000000002 59.430789947509773 1.0000000180025095e-35 -6.5655164718627921 -12.015719890594481 60.445562362670906 60.140569686889656 60.612468719482429 -1.2715508937835691 59.455410003662116 -1.5841153860092161 -0.19534753262996671 -0.27105881273746485 59.468374252319343 59.088582992553718 59.177751541137702 61.165914535522468 61.373212814331062
decision_type=2 2 2 2 2 2 2 2 2 2 2 2 2 2 2 2 2 2 2
left_child=10 17 9 4 -4 -6 7 -7 -8 -3 11 13 -13 15 -11 -1 -12 -2 -16
right_child=1 2 3 -5 5 6 8 -9 -10 14 16 12 -14 -15 18 -17 -18 -19 -20
leaf_value=-0.00016156553354628359 -0.010231956578811338 0.00040418131995028457 -0.01762544627639339 -0.017234203604222769 0.00089896142072042127 0.00020086273460705276 -0.00011689001917454535 -9.3889115767279008e-06 0.00014671497028850822 -1.0644737297100629e-05 -0.00081473327372290924 -0.00029426200655880401 0.00018631848631529398 -0.00012196126854608325 -0.00044368940417206337 7.8569475049257634e-05 -0.00021343375131747903 -0.016552993953482666 -0.0027908581827397927
leaf_weight=21 343 22 184 186 20 312 258 317 115 20 671 26 20 46 369 20 112 37 21
leaf_count=21 343 22 184 186 20 312 258 317 115 20 671 26 20 46 369 20 112 37 21
internal_value=-0.000451923 -0.000138839 0.000144736 0.000547413 0.000863184 0.00128865 0.00113473 0.00183863 -5.22792e-05 -0.00115278 -0.00120524 0.000530075 0.00241304 -0.000465518 -0.00142683 0.000695122 -0.0015 -0.0015 -0.0015
internal_weight=3120 2204 1824 1392 1206 1022 1002 629 373 432 916 133 46 87 410 41 783 380 390
internal_count=3120 2204 1824 1392 1206 1022 1002 629 373 432 916 133 46 87 410 41 783 380 390
is_linear=0
shrinkage=0.03


Tree=20
num_leaves=31
num_cat=0
split_feature=2 30 29 3 24 13 7 9 3 5 7 2 8 24 38 1 4 24 5 7 38 8 0 0 0 3 1 23 2 38
split_gain=9.38147 2.30248 2.68868 3.63511 1.70423 1.43938 1.93421 2.46326 1.48815 0.688952 0.981818 0.656256 0.538792 0.81905 1.19017 0.981712 0.52026 0.316394 0.130771 0.312376 0.0450291 0.0393652 0.0382353 0.0336066 0.03 0.0176342 0.0291667 0.0135237 0.034127 0.00647866
threshold=0.24818471819162372 12.500000000000002 1.0000000180025095e-35 -1.0629708170890806 -7.2204575538635245 1.5000000000000002 -0.49279010295867914 52.13402175903321 -0.32472890615463251 -1.7517865300178526 -0.64633142948150624 0.50802403688430797 49.139156341552741 -3.6116993427276607 0.57460901141166698 60.214069366455085 -0.082799900323152528 -1.2436711788177488 -0.2122697979211807 -0.21028188616037366 0.5674630105495454 43.209039688110359 59.569450378417976 60.334810256958015 59.920877456665046 -0.0074328922200947991 59.790666580200202 0.84932911396026622 0.92028057575225841 0.57810604572296154
decision_type=2 2 2 2 2 2 2 2 2 2 2 2 2 2 2 2 2 2 2 2 2 2 2 2 2 2 2 2 2 2
left_child=1 -1 3 23 -5 8 -7 -8 -6 10 -2 12 13 -11 15 17 -10 -15 -14 22 -13 -22 -20 -3 -16 27 -27 28 -23 -29
right_child=9 2 -4 4 5 6 7 -9 16 11 -12 20 18 14 24 -17 -18 -19 19 -21 21 25 -24 -25 -26 26 -28 29 -30 -31
leaf_value=-0.0095761668130427205 0.00085171890498997858 -0.00012555190507227063 -0.016368521794721876 0.00051160958981160169 0.00034386008642120697 0.00030283086102993569 0.00028949454623790176 0.00015113536725585303 2.103074948120208e-05 -4.2729084856821823e-05 -0.0006227054540884129 -0.00025509862304848795 -6.602220159563519e-05 0.00030805834703822541 -5.1601883969500899e-05 0.0001687584686972537 0.00028316615066318593 -0.00011478444796302598 -3.0321877559188426e-05 7.3594121992051986e-05 -0.0003928840720384056 -2.732769111724289e-05 -0.0001484321920418729 -1.8476371428020974e-06 -4.7007609384409184e-05 -0.00048385778984902345 -0.00091993272759526002 -0.00046596714131431097 -0.0011715761492588771 -0.00052485864878449445
leaf_weight=68 20 41 57 24 37 38 55 21 62 70 24 20 179 23 20 23 20 21 20 31 23 20 65 20 30 20 28 1886 43 126
leaf_count=68 20 41 57 24 37 38 55 21 62 70 24 20 179 23 20 23 20 21 20 31 23 20 65 20 30 20 28 1886 43 126
internal_value=-0.000466508 0.00357901 0.0045 0.00557547 0.00713813 0.00635408 0.00876316 0.0115263 0.00404622 -0.00113224 0.00259091 -0.00119411 -0.000192946 0.00106684 0.00260256 0.00521642 0.00179268 0.00259091 -0.000991526 -0.000206897 -0.0014169 -0.0014301 -0.00114706 -0.0010082 -0.0009 -0.00144348 -0.000875 -0.00145663 -0.00102381 -0.00147018
internal_weight=3135 443 375 318 257 233 114 76 119 2692 44 2648 482 187 117 67 82 44 295 116 2166 2146 85 61 50 2123 48 2075 63 2012
internal_count=3135 443 375 318 257 233 114 76 119 2692 44 2648 482 187 117 67 82 44 295 116 2166 2146 85 61 50 2123 48 2075 63 2012
is_linear=0
shrinkage=0.03


Tree=21
num_leaves=14
num_cat=0
split_feature=0 30 3 3 7 26 28 24 1 1 25 1 0
split_gain=0.695212 0.82749 0.806938 1.60899 1.29471 1.06778 0.79796 1.08778 0.677028 0.411728 0.0461823 2.22045e-16 1.11022e-16
threshold=59.146263122558601 12.500000000000002 -5.5207836627960196 -1.485522389411926 -2.0941988229751582 120.50000000000001 1.0000000180025095e-35 -12.885096073150633 59.430789947509773 59.00366401672364 40.371955871582038 59.376766204833991 61.192783355712898
decision_type=2 2 2 2 2 2 2 2 2 2 2 2 2
left_child=9 12 -3 -4 5 -5 7 -6 -9 -1 -11 -12 -2
right_child=1 2 3 4 6 -7 -8 8 -10 10 11 -13 -14
leaf_value=6.4506374893030121e-05 -0.0096398215408789994 -0.017106588786753335 0.00048237047131173869 0.00071764021410295755 0.00084649275661347479 -0.0001336323430317717 -0.016304581062782989 -0.00014416061075049269 7.8566064344229875e-05 -0.00015049444529372953 -0.00012722446395637823 -0.00086498698290148046 -0.015188040388640115
leaf_weight=36 353 276 21 25 21 20 265 340 1043 21 34 641 39
leaf_count=36 353 276 21 25 21 20 265 340 1043 21 34 641 39
internal_value=-0.000485646 -0.000239077 6.71272e-06 0.000246397 0.000145274 0.00516667 9.8858e-06 0.000294871 0.000191974 -0.00129508 -0.0014569 -0.0015 -0.0015
internal_weight=3135 2403 2011 1735 1714 45 1669 1404 1383 732 696 675 392
internal_count=3135 2403 2011 1735 1714 45 1669 1404 1383 732 696 675 392
is_linear=0
shrinkage=0.03


Tree=22
num_leaves=29
num_cat=0
split_feature=2 30 28 3 24 2 8 3 22 5 7 2 8 24 3 9 3 5 7 2 23 4 7 1 0 0 24 3
split_gain=7.83305 1.94882 2.2757 3.03691 2.03228 1.56294 1.13122 1.12984 0.806747 0.688952 0.981818 0.577196 0.458079 0.719868 1.16035 1.47659 0.134426 0.130771 0.312376 0.0579604 0.147772 0.059457 0.170956 0.046997 0.0382353 0.0336066 0.00574636 0.0353376
threshold=0.24818471819162372 12.500000000000002 1.0000000180025095e-35 -1.0629708170890806 -7.2204575538635245 0.07646526396274568 50.150619506835945 -0.052798097953200333 1.3723693490028384 -1.7517865300178526 -0.64633142948150624 0.50802403688430797 49.139156341552741 -3.6116993427276607 -0.25257305800914759 49.397209167480476 -0.72072044014930714 -0.2122697979211807 -0.21028188616037366 0.80362129211425792 1.5091185569763186 -0.47479164600372309 -0.22986672073602674 58.980358123779304 59.569450378417976 60.334810256958015 -16.364787101745602 -0.051437720656394952
decision_type=2 2 2 2 2 2 2 2 2 2 2 2 2 2 2 2 2 2 2 2 2 2 2 2 2 2 2 2
left_child=1 -1 3 25 -5 6 -6 8 -7 10 -2 12 13 -11 16 -16 -15 -14 24 20 21 22 -13 -23 -19 -3 27 -21
right_child=9 2 -4 4 5 7 -8 -9 -10 11 -12 19 17 14 15 -17 -18 18 -20 26 -22 23 -24 -25 -26 -27 -28 -29
leaf_value=-0.0089927493876075567 0.00080499103443273554 -0.00013625646205945506 -0.015388328708996729 0.00049044864375518131 0.00027273452252018739 0.00027070578488331458 0.00039897215491358976 -2.3262997987274796e-05 0.00035368087923501394 -5.490697147603611e-05 -0.00060537900052613617 -0.00017833263289726705 -6.6398517478090648e-05 0.00011057293090216378 0.00017293387402013261 0.00010802635965938081 -2.5733150767527836e-05 -3.1435114663510294e-05 7.2465226504085919e-05 -0.017066833943011603 0.00036258082589535405 -0.00038311662322867881 4.8511857672894989e-05 -0.00018504200672976763 -0.00014633620821094309 -4.7548938254717355e-06 -0.00073893825146682367 -0.023667627964830407
leaf_weight=68 20 41 57 24 37 113 32 28 23 70 24 62 179 20 20 36 41 20 31 134 21 20 34 313 65 20 1558 24
leaf_count=68 20 41 57 24 37 113 32 28 23 70 24 62 179 20 20 36 41 20 31 134 21 20 34 313 65 20 1558 24
internal_value=-0.000523924 0.00317269 0.00402 0.00500943 0.00643774 0.00558154 0.00936956 0.0039878 0.00511765 -0.00113224 0.00259091 -0.00119411 -0.000255187 0.000906417 0.00234615 0.00546429 -0.000516394 -0.000991526 -0.000206897 -0.00140305 -0.0011 -0.00122028 -0.0005625 -0.00140991 -0.00114706 -0.0010082 -0.00148252 -0.00131013
internal_weight=3135 443 375 318 257 233 69 164 136 2692 44 2648 482 187 117 56 61 295 116 2166 450 429 96 333 85 61 1716 158
internal_count=3135 443 375 318 257 233 69 164 136 2692 44 2648 482 187 117 56 61 295 116 2166 450 429 96 333 85 61 1716 158
is_linear=0
shrinkage=0.03


Tree=23
num_leaves=31
num_cat=0
split_feature=2 28 3 12 24 2 25 3 32 5 2 3 9 33 9 4 38 22 2 23 25 0 38 22 24 33 3 24 3 0
split_gain=7.58855 1.54135 1.89179 2.52827 2.32245 1.23342 1.18259 1.13636 0.877135 0.625721 0.642498 0.459767 0.529506 0.639279 0.34774 0.292799 0.300481 0.122405 0.0573575 0.13956 0.073167 0.1 0.0599714 0.129825 0.0428948 0.106965 0.033871 0.00574839 0.0353376 4.44089e-16
threshold=0.24818471819162372 1.0000000180025095e-35 -1.0629708170890806 1.0000000180025095e-35 -7.2204575538635245 0.07646526396274568 47.772848129272468 -0.052798097953200333 62.500000000000007 -1.8887383937835691 0.50802403688430797 -0.21418347954750058 49.18059158325196 1.7500000000000002 47.088823318481452 -0.16835180670022962 0.57487374544143688 0.93797850608825695 0.80362129211425792 1.5091185569763186 53.313043594360359 60.099716186523445 0.57688042521476757 1.1358988881111147 -1.1714147329330442 1.7500000000000002 -5.8865568637847892 -16.364787101745602 -0.051437720656394952 59.937555313110359
decision_type=2 2 2 2 2 2 2 2 2 2 2 2 2 2 2 2 2 2 2 2 2 2 2 2 2 2 2 2 2 2
left_child=1 2 26 -4 -5 6 -6 8 -7 -2 11 17 13 -13 -15 -14 -17 -11 19 20 22 -22 -12 -24 -19 -26 -1 28 -20 -29
right_child=9 -3 3 4 5 7 -8 -9 -10 10 18 12 15 14 -16 16 -18 24 27 -21 21 -23 23 -25 25 -27 -28 29 -30 -31
leaf_value=-0.016386551279519851 0.00043538532161740013 -0.014926678847726825 -0.008638666204391264 0.00047573518444252719 0.00023900681908464868 0.00026762588789465327 0.00030555657842574628 -2.476726945159293e-05 0.00026428454294472823 5.6850783211600778e-05 -0.00019004009410286747 0.00013453384707898673 -7.8354427424606588e-05 -0.00011505781640892193 8.0769454374883136e-05 0.00011321996673332761 -3.753845708867889e-05 -0.00014449196432763707 -0.016554828924721255 0.00032190281288742994 -0.00010555257641223063 4.2983560709177539e-05 2.4545729773035726e-05 -0.00019404140004172625 9.0596160308963747e-05 -4.9330832043745606e-05 -9.8781107779516694e-07 -0.00076443059239489092 -0.022957599125885492 -0.00065073340740529994
leaf_weight=42 34 57 50 24 36 93 38 32 51 24 335 26 81 28 33 32 20 171 134 22 20 20 20 37 24 43 20 923 24 641
leaf_count=42 34 57 50 24 36 93 38 32 51 24 335 26 81 28 33 32 20 171 134 22 20 20 20 37 24 43 20 923 24 641
internal_value=-0.000533493 0.00310497 0.00378497 0.0047037 0.00583577 0.00498 0.00822973 0.00361364 0.00475 -0.00113224 -0.00118397 -0.000192946 0.000818181 0.00263793 0.000959016 -0.000372181 0.00138462 -0.00104199 -0.00140349 -0.00110352 -0.00122222 -3.57628e-10 -0.00134694 -0.000447369 -0.0012479 -0.000604478 -0.00101613 -0.00148258 -0.00131013 -0.0015
internal_weight=3135 443 386 324 274 250 74 176 144 2692 2658 482 220 87 61 133 52 262 2176 454 432 40 392 57 238 67 62 1722 158 1564
internal_count=3135 443 386 324 274 250 74 176 144 2692 2658 482 220 87 61 133 52 262 2176 454 432 40 392 57 238 67 62 1722 158 1564
is_linear=0
shrinkage=0.03


Tree=24
num_leaves=13
num_cat=0
split_feature=5 1 30 6 28 24 0 3 0 3 0 0
split_gain=0.679985 0.555551 0.619805 0.636953 0.849483 0.825803 0.597008 0.598028 0.0452378 0.0483416 2.22045e-16 1.11022e-16
threshold=-2.2060506343841548 60.996606826782234 12.500000000000002 -2.7838636636734004 1.0000000180025095e-35 -12.885096073150633 60.966203689575202 -1.3252547979354856 61.220842361450202 -0.0074328922200947991 60.163822174072273 61.165914535522468
decision_type=2 2 2 2 2 2 2 2 2 2 2 2
left_child=-1 2 11 -4 5 -5 7 -7 9 10 -3 -2
right_child=1 8 3 4 -6 6 -8 -9 -10 -11 -12 -13
leaf_value=0.00062964536413539249 -0.0088212626941280119 -0.001419421934545776 -0.016097644133045923 0.00071003107863568528 -0.01495223228905021 0.00039814233411044763 -0.00039387719367712116 5.8062876857256808e-05 2.3466773837256884e-06 4.7425075083479955e-06 -0.00032578511909171011 -0.015777457752903495
leaf_weight=26 351 477 291 25 282 22 165 1311 20 20 106 39
leaf_count=26 351 477 291 25 282 22 165 1311 20 20 106 39
internal_value=-0.000562201 -0.000602606 -0.000401851 -0.000197519 1.2465e-05 0.000292514 0.000202269 0.000412978 -0.00140369 -0.00145025 -0.0015 -0.0015
internal_weight=3135 3109 2486 2096 1805 1523 1498 1333 623 603 583 390
internal_count=3135 3109 2486 2096 1805 1523 1498 1333 623 603 583 390
is_linear=0
shrinkage=0.03


Tree=25
num_leaves=35
num_cat=0
split_feature=2 30 3 24 22 2 9 24 38 0 5 17 2 5 8 3 7 7 6 25 8 2 7 13 14 1 23 0 1 4 22 24 24 0
split_gain=6.0979 1.86058 1.58403 2.12694 1.40041 1.59898 1.84554 1.12667 0.974029 1.43027 0.906803 1.06522 0.613553 0.593939 0.551633 1.13709 1.6394 0.367855 0.292105 0.132415 0.258511 0.0867108 0.156197 0.329281 0.654762 0.0454751 0.0450739 0.0385057 0.0348485 0.034127 0.0296257 0.0054337 0.0394665 8.88178e-16
threshold=0.2766494899988175 12.500000000000002 -1.0629708170890806 -15.258406162261961 1.4717646241188052 0.17388156056404117 51.998451232910163 -0.57775920629501332 0.57429757714271557 60.009220123291023 -1.7517865300178526 1.0000000180025095e-35 0.50802403688430797 -0.23895613849163053 49.139156341552741 -0.25257305800914759 -0.58269652724266041 -0.21261828392744062 -0.13776110112667081 44.422769546508796 52.074470520019538 0.70640859007835399 -0.22986672073602674 1.5000000000000002 1.5000000000000002 59.099523544311531 1.4810328483581545 60.531164169311531 59.779287338256843 -0.15019789338111875 0.78324812650680553 -16.364787101745602 -17.981455802917477 60.696380615234382
decision_type=2 2 2 2 2 2 2 2 2 2 2 2 2 2 2 2 2 2 2 2 2 2 2 2 2 2 2 2 2 2 2 2 2 2
left_child=1 -1 28 29 5 6 7 -5 9 -7 11 -2 14 -8 15 27 -17 -18 -10 20 -16 22 25 -24 -25 -14 -21 -12 -3 -4 -23 32 -32 -33
right_child=10 2 3 4 -6 8 13 -9 18 -11 12 -13 21 -15 19 16 17 -19 -20 26 -22 30 23 24 -26 -27 -28 -29 -30 -31 31 33 -34 -35
leaf_value=-0.0081996142868879327 0.00069115965914774572 -3.2526144977290704e-05 -0.01404122872122918 0.00026981824519009789 -2.1893708658307344e-05 -3.1617879825673267e-05 3.4666243692093966e-05 0.00010388395950110207 -2.0473356684713631e-05 0.00033449655121359706 -0.00011660146627979432 -0.0007381669667664559 -0.00050418354566428086 0.00025030251572908719 -0.00019468509258759818 0.00030430015691220965 -0.00013147026892023275 7.1491062009477492e-05 7.5833610234645236e-05 -3.4260018055289937e-05 6.4154834089299401e-05 -0.00057363062966115329 -0.00013883040025724564 -0.00020204208210389978 0.00032478612168319008 -0.00016720169952152563 -0.00011082560544496349 1.8141107000609041e-05 -6.6758428255775081e-05 -0.013963319782815892 -0.022044083208095602 -0.00058832341331063731 -0.014493924646012214 -0.00065371145041005991
leaf_weight=90 23 20 43 100 27 21 33 20 37 28 67 23 20 22 27 22 26 31 20 183 20 32 52 22 20 201 20 20 46 20 145 1316 22 321
leaf_count=90 23 20 43 100 27 21 33 20 37 28 67 23 20 22 27 22 26 31 20 183 20 32 52 22 20 201 20 20 46 20 145 1316 22 321
internal_value=-0.000515924 0.00242789 0.00323684 0.00399865 0.00502597 0.00565302 0.00741429 0.0095 0.00274528 0.00584694 -0.00110964 0.00306522 -0.00118446 0.00286364 -0.000129808 0.00121084 0.00381646 0.00113158 7.8947e-05 -0.00102 0.000414893 -0.00138842 -0.000928572 9.57443e-05 0.00207143 -0.00136425 -0.00135222 -0.00115517 -0.00104545 -0.00102381 -0.00146732 -0.00148337 -0.00132036 -0.0015
internal_weight=3140 527 437 371 308 281 175 120 106 49 2613 46 2567 55 416 166 79 57 57 250 47 2151 315 94 42 221 203 87 66 63 1836 1804 167 1637
internal_count=3140 527 437 371 308 281 175 120 106 49 2613 46 2567 55 416 166 79 57 57 250 47 2151 315 94 42 221 203 87 66 63 1836 1804 167 1637
is_linear=0
shrinkage=0.03


Tree=26
num_leaves=34
num_cat=0
split_feature=2 30 28 3 9 26 6 2 8 8 38 9 14 3 25 39 15 25 9 9 24 2 0 0 38 1 1 25 22 39 24 0 0
split_gain=6.01271 1.65792 2.14494 2.27011 2.16888 1.95105 1.21771 1.20052 0.923521 0.710911 0.545071 0.75348 0.563233 0.908985 0.666667 0.459786 0.360128 0.33592 0.22784 0.128477 0.28289 0.0777041 0.139781 0.235714 0.0808709 0.33 0.0357143 0.032403 0.0295894 0.0288063 0.168992 0.0267442 8.88178e-16
threshold=0.17388156056404117 12.500000000000002 1.0000000180025095e-35 -0.8088988959789275 51.998451232910163 142.50000000000003 -0.49027287960052485 0.44116334617137914 49.139156341552741 57.397666931152351 0.57463201880455028 53.574405670166023 1.5000000000000002 -0.38165158033370966 49.629020690917976 0.13706942647695544 1.5000000000000002 43.94606018066407 56.630784988403327 49.419420242309577 -1.1714147329330442 0.69235333800315868 60.758701324462898 60.996046066284187 0.57582885026931774 59.621007919311531 60.36341857910157 53.313043594360359 0.78324812650680553 0.11909313499927522 -7.8423933982849112 59.973762512207038 60.675685882568366
decision_type=2 2 2 2 2 2 2 2 2 2 2 2 2 2 2 2 2 2 2 2 2 2 2 2 2 2 2 2 2 2 2 2 2
left_child=1 -1 3 31 5 6 -5 10 -8 18 11 12 17 -14 16 -6 -15 -2 21 20 26 22 24 -24 27 -26 -12 -9 -23 30 -30 -3 -31
right_child=7 2 -4 4 15 -7 8 9 -10 -11 19 -13 13 14 -16 -17 -18 -19 -20 -21 -22 28 23 -25 25 -27 -28 -29 29 32 -32 -33 -34
leaf_value=-0.0078902265015485841 2.5691000468752355e-05 -4.3987952804344406e-05 -0.013634825308140908 0.00040314273878917431 0.00016865671796622854 0.00025686306214554606 0.00024962451377791788 -0.0001202720729972568 0.00014889805156661676 0.00045711033509257315 -0.00011760914077450637 0.00031153800557414437 -2.4864424429436378e-05 0.0003184642464272726 0.00024982747253808922 -2.0834320914522729e-05 -4.3965594990256374e-05 -0.00011421109070001927 0.00024697998271338547 -3.295025188222136e-05 6.3792464969034888e-05 -0.00054315978575038726 0.00039469227887244248 -0.00019813111475096133 4.3802562242045068e-05 -0.00017115649214302807 5.2578328327076206e-07 -3.3014639677312509e-05 0.00075061116978363007 -0.00058823917883552696 -0.00055223971012145193 -6.3423297415794201e-06 -0.00063480126862054188
leaf_weight=55 22 23 49 34 34 27 30 274 33 21 50 35 40 24 25 29 26 101 35 109 31 31 20 22 20 55 20 28 20 1343 109 20 345
leaf_count=55 22 23 49 34 34 27 30 274 33 21 50 35 40 24 25 29 26 101 35 109 31 31 20 22 20 55 20 28 20 1343 109 20 345
internal_value=-0.000544586 0.00326048 0.00419892 0.00541304 0.00684225 0.00914516 0.00715979 -0.000997506 0.00469048 -0.00128046 0.000363354 0.00124725 0.000642857 0.00215217 0.0041 0.00230952 0.0021 -0.000768293 -0.00133058 -0.000785715 -1.48518e-05 -0.00136767 -0.000998807 0.000642857 -0.0011817 -0.0003 -0.00107143 -0.00140066 -0.0014513 -0.00146698 -0.00103488 -0.000802326 -0.0015
internal_weight=3140 334 279 230 187 124 97 2806 63 2323 483 273 238 115 75 63 50 123 2302 210 101 2267 419 42 377 75 70 302 1848 1817 129 43 1688
internal_count=3140 334 279 230 187 124 97 2806 63 2323 483 273 238 115 75 63 50 123 2302 210 101 2267 419 42 377 75 70 302 1848 1817 129 43 1688
is_linear=0
shrinkage=0.03


Tree=27
num_leaves=31
num_cat=0
split_feature=2 30 28 3 2 9 22 38 26 26 8 2 3 8 3 38 38 35 9 4 39 2 0 13 3 1 0 4 22 39
split_gain=5.67346 1.75428 1.79489 2.09128 1.40306 1.96732 1.73153 1.44906 1.23392 0.964286 0.629362 0.545763 0.514898 0.474667 1.23059 0.963911 0.465385 0.228571 0.222572 0.180785 0.140514 0.0852481 0.149961 0.202153 0.0659004 0.111111 0.034375 0.0324561 0.0295664 0.0287868
threshold=0.2766494899988175 12.500000000000002 1.0000000180025095e-35 -1.0629708170890806 0.17388156056404117 51.998451232910163 1.2344015240669253 0.57314413785934459 142.50000000000003 109.50000000000001 57.397666931152351 0.45321702957153326 -0.19777174293994901 49.108648300170906 -0.25257305800914759 0.57463201880455028 0.57567945122718822 1.5000000000000002 56.630784988403327 -0.0019842546898871656 0.14818429946899417 0.69235333800315868 60.054784774780281 1.5000000000000002 -0.073845528066158281 60.17406082153321 59.840616226196296 -0.34377031028270716 0.78324812650680553 0.11909313499927522
decision_type=2 2 2 2 2 2 2 2 2 2 2 2 2 2 2 2 2 2 2 2 2 2 2 2 2 2 2 2 2 2
left_child=1 -1 3 26 5 6 8 -8 -5 -6 11 13 -11 14 -2 -16 17 -7 19 21 24 22 -13 -24 -15 -26 -3 -14 -23 -30
right_child=10 2 -4 4 9 16 7 -9 -10 12 -12 18 27 20 15 -17 -18 -19 -20 -21 -22 28 23 -25 25 -27 -28 -29 29 -31
leaf_value=-0.0077169190632348358 -7.5167274616096282e-05 -3.1078583116916911e-05 -0.013258581276912849 0.00024532441194538107 0.00019705434685238083 -2.9642920005791261e-05 0.00025474490386968266 1.6374273155614714e-05 0.00025408155022439309 0.00024829026569817963 0.00043046731000718656 -0.00011984865007644939 2.8907545099889249e-06 -3.1961744423737857e-05 0.00019306162789989865 -6.5726386507584009e-05 0.00015283158056207603 0.0001885510856634511 0.00023957058323198374 8.6923444644213838e-06 5.3125944416687619e-05 -0.00052686499217787625 -0.00010257189798976526 2.3670381285575526e-05 -0.00011751259881086706 4.3869093866651671e-05 -5.938740962337317e-05 -5.6793780621958048e-05 -0.00047704632241410058 -0.00059501376323329387
leaf_weight=90 60 20 65 53 28 24 22 36 20 27 22 213 20 129 36 23 20 21 35 20 20 31 101 77 25 20 44 37 129 1672
leaf_count=90 60 20 65 53 28 24 22 36 20 27 22 213 20 129 36 23 20 21 35 20 20 31 101 77 25 20 44 37 129 1672
internal_value=-0.000525478 0.00231404 0.00309954 0.00390323 0.00492857 0.00645918 0.00857634 0.0047069 0.0116507 0.00225 -0.00109816 -0.00114107 0.000642857 3.3546e-05 0.00152521 0.00460169 0.00219231 0.0005 -0.00130246 -0.0013395 -0.000881444 -0.00136505 -0.000962916 -0.000320225 -0.00115517 -0.000166667 -0.00103125 -0.000973685 -0.00145087 -0.00146669
internal_weight=3140 527 437 372 308 196 131 58 73 112 2613 2591 84 313 119 59 65 45 2278 2243 194 2223 391 178 174 45 64 57 1832 1801
internal_count=3140 527 437 372 308 196 131 58 73 112 2613 2591 84 313 119 59 65 45 2278 2243 194 2223 391 178 174 45 64 57 1832 1801
is_linear=0
shrinkage=0.03


Tree=28
num_leaves=36
num_cat=0
split_feature=2 30 28 3 2 9 22 25 38 26 5 5 17 3 2 39 24 9 9 5 5 2 7 0 7 24 39 5 0 0 0 0 4 0 0
split_gain=5.48574 1.70231 1.74171 2.02348 1.30288 1.82871 1.9991 1.26852 1.07288 0.964286 0.904274 0.901822 1.06522 0.514898 0.491192 0.419911 0.316639 0.337234 0.253773 0.506904 0.111111 0.0830557 0.126883 0.332369 0.531952 0.0505971 0.151192 0.0429078 0.0412343 0.0468254 0.0395833 0.034375 0.0324561 4.44089e-16 5.55112e-17
threshold=0.2766494899988175 12.500000000000002 1.0000000180025095e-35 -1.0629708170890806 0.17388156056404117 51.998451232910163 1.2344015240669253 45.33165359497071 0.57314413785934459 109.50000000000001 -0.23299352079629895 -1.7517865300178526 1.0000000180025095e-35 -0.19777174293994901 0.4929425865411759 0.12109092995524408 -3.1493619680404659 53.574405670166023 49.235300064086921 -0.15686551481485364 -0.58859682083129872 0.80362129211425792 -0.22986672073602674 60.054784774780281 -0.14601287245750424 -16.364787101745602 0.12109092995524408 -0.74976679682731617 60.984382629394538 59.038181304931648 60.462200164794929 59.840616226196296 -0.34377031028270716 61.557687759399421 61.092784881591804
decision_type=2 2 2 2 2 2 2 2 2 2 2 2 2 2 2 2 2 2 2 2 2 2 2 2 2 2 2 2 2 2 2 2 2 2 2
left_child=1 -1 3 31 5 6 7 -5 -8 -6 20 12 -2 -11 15 -13 -17 18 19 -18 -7 22 28 -24 -25 26 -23 -28 29 -16 -20 -3 -15 -27 -29
right_child=11 2 -4 4 9 10 8 -9 -10 13 -12 14 -14 32 21 16 17 -19 30 -21 -22 25 23 24 -26 33 27 34 -30 -31 -32 -33 -34 -35 -36
leaf_value=-0.0074854114913377916 0.00065582835239495079 -3.0146225623409738e-05 -0.012860823838605462 0.00022082128316173224 0.00019114271644681018 0.0001148400822419162 0.00024710255675359241 0.00024987909795266762 1.5883044960946865e-05 0.00024084155772723456 0.00024206364529489168 6.5264429890508259e-05 -0.00068098627144137932 2.804031874689295e-06 -4.8353566833174361e-05 -0.00010493161843758862 -1.3785043627992535e-05 0.00014942695281216402 -7.3270258973241799e-05 6.3399692511997095e-05 -4.2418932578456142e-05 0.00074240422436254471 -0.0001854644165081516 0.00027083743040998121 -0.00024491986235481187 -0.00064207184445709423 -0.020301572249421505 -0.021444932953807193 -0.00023048538116734861 -0.00015150284806961491 -7.732472248160218e-05 -5.7605787334670796e-05 -5.5089967203299385e-05 -0.00080606602482566326 -0.021470125287421021
leaf_weight=90 23 20 65 24 28 20 22 49 36 27 20 33 23 20 20 157 57 23 76 24 25 20 83 23 39 1487 20 101 20 295 20 44 37 49 20
leaf_count=90 23 20 65 24 28 20 22 49 36 27 20 33 23 20 20 157 57 23 76 24 25 20 83 23 39 1487 20 101 20 295 20 44 37 49 20
internal_value=-0.000535032 0.00225712 0.00303089 0.00382258 0.00483117 0.00630612 0.00834733 0.0116507 0.00418965 0.00225 0.00219231 -0.00109816 0.00306522 0.000642857 -0.00117277 -0.000192308 -0.000491597 0.0003 -0.000144068 0.00109259 -0.000166667 -0.00134842 -0.001 -0.000258621 0.00140323 -0.00144697 -0.000940994 -0.00128723 -0.0013209 -0.00140476 -0.0011875 -0.00103125 -0.000973685 -0.0015 -0.0015
internal_weight=3140 527 437 372 308 196 131 73 58 112 65 2613 46 84 2567 390 357 200 177 81 45 2177 480 145 62 1697 161 141 335 315 96 64 57 1536 121
internal_count=3140 527 437 372 308 196 131 73 58 112 65 2613 46 84 2567 390 357 200 177 81 45 2177 480 145 62 1697 161 141 335 315 96 64 57 1536 121
is_linear=0
shrinkage=0.03


Tree=29
num_leaves=35
num_cat=0
split_feature=2 30 28 3 9 2 22 6 26 38 5 5 2 3 3 24 8 39 24 2 23 38 1 8 3 23 24 39 1 2 22 1 1 0
split_gain=5.27193 1.61431 1.74841 2.01862 1.42848 1.77408 1.97625 1.63875 1.01186 0.867968 0.773945 0.632351 0.634157 0.474067 0.515143 0.565279 0.304067 0.303982 0.302459 0.106362 0.247156 0.0948828 0.304839 0.0870013 0.227484 0.045671 0.0442512 0.144773 0.0433775 0.0383721 0.0364393 0.0336066 0.0327586 8.88178e-16
threshold=0.25963243842124945 12.500000000000002 1.0000000180025095e-35 -1.0629708170890806 51.94806098937989 0.16784590482711795 1.2344015240669253 -0.35240606963634485 125.50000000000001 0.57529050111770641 -0.20385738462209699 -1.8887383937835691 0.50802403688430797 -0.12840141355991361 -0.043762618675827973 -1.1714147329330442 50.051385879516609 0.14957718551158908 -1.1839940547943113 0.70640859007835399 1.4660716056823733 0.57582885026931774 59.66345405578614 49.004098892211921 -0.25257305800914759 0.94100102782249462 -16.364787101745602 0.12046081945300104 59.040971755981452 0.46011397242546087 0.78324812650680553 59.907360076904304 59.844566345214851 60.641136169433601
decision_type=2 2 2 2 2 2 2 2 2 2 2 2 2 2 2 2 2 2 2 2 2 2 2 2 2 2 2 2 2 2 2 2 2 2
left_child=1 -1 3 31 5 6 8 -8 -5 -7 18 -2 13 17 15 16 -15 23 -6 20 21 25 -23 24 29 -14 27 -21 -29 -13 -28 -3 -16 -32
right_child=11 2 -4 4 10 9 7 -9 -10 -11 -12 12 19 14 32 -17 -18 -19 -20 26 -22 22 -24 -25 -26 -27 30 28 -30 -31 33 -33 -34 -35
leaf_value=-0.0072592907827884641 0.00038566291543785415 -0.00010621442060724743 -0.012473432195908744 0.00022049317768854537 -3.7735215713835504e-05 0.00026006903025260249 0.00033722948502786182 1.3006273952622166e-05 0.00024220594726558943 -0.0001046436659527812 0.00021554864078222327 -3.3093214821036275e-05 -6.5356635415541366e-05 8.3516799530565673e-05 -9.260695736638372e-05 5.6535399296594582e-05 -1.6164301387138279e-05 4.4525296742471732e-05 0.00014966926372665142 0.00060880693998393339 0.00021730790387692337 3.7003339809330046e-05 -0.00028019914849408348 -5.2676908455621196e-05 0.00014214767872010951 -0.00014590980050976744 -0.00043874918699510673 -0.020595077862967659 -0.02079263282394489 -0.00015328460936231352 -0.00052270144814897614 -5.022216277056239e-05 -8.2485461198598958e-05 -0.00055815160259074196
leaf_weight=83 33 20 63 36 41 39 22 34 33 28 28 66 20 31 20 27 37 22 20 21 26 20 42 169 25 211 27 20 131 20 1301 41 38 345
leaf_count=83 33 20 63 36 41 39 22 34 33 28 28 66 20 31 20 27 37 22 20 21 26 20 42 169 25 211 27 20 131 20 1301 41 38 345
internal_value=-0.00055414 0.00231148 0.00309259 0.0039386 0.00501246 0.00646875 0.00858 0.00439286 0.0119783 0.00252985 0.00187079 -0.00108145 -0.00113345 -0.000115385 0.0012451 0.00260526 0.00114706 -0.000804636 -2.45905e-05 -0.0013475 -0.000841693 -0.00109044 -4.83875e-05 -0.00107143 -0.000418919 -0.00137013 -0.00143496 -0.000976745 -0.00130132 -0.00115116 -0.00148207 -0.0010082 -0.000982759 -0.0015
internal_weight=3140 488 405 342 281 192 125 56 69 67 89 2652 2619 455 153 95 68 302 61 2164 319 293 62 280 111 231 1845 172 151 86 1673 61 58 1646
internal_count=3140 488 405 342 281 192 125 56 69 67 89 2652 2619 455 153 95 68 302 61 2164 319 293 62 280 111 231 1845 172 151 86 1673 61 58 1646
is_linear=0
shrinkage=0.03


Tree=30
num_leaves=32
num_cat=0
split_feature=2 30 28 6 31 4 39 10 2 26 5 2 39 22 6 4 22 22 1 4 25 0 2 23 4 39 38 39 24 0 0
split_gain=5.71404 1.88794 1.85986 2.45494 1.7959 1.68771 1.35262 1.26289 1.59865 0.853333 0.731273 0.688282 0.630208 0.411401 0.641901 0.546104 0.208787 0.380952 0.174859 0.240698 0.153984 0.245455 0.109619 0.143585 0.225 0.124523 0.142577 0.0332842 0.164286 0.0282609 4.44089e-16
threshold=0.25963243842124945 12.500000000000002 1.0000000180025095e-35 -2.7838636636734004 12.500000000000002 -0.18903132528066632 0.12721021473407748 19.500000000000004 0.16784590482711795 137.50000000000003 -1.8887383937835691 0.44116334617137914 0.13841276615858081 1.1064375638961794 -0.24230628460645673 -0.25133301317691797 1.4033609032630923 1.468219041824341 58.325212478637702 -0.1377962380647659 51.256174087524421 60.017450332641609 0.80362129211425792 1.5091185569763186 -0.22679648548364637 0.15211395174264911 0.57576128840446483 0.11909313499927522 -7.8423933982849112 59.998929977416999 61.403760910034187
decision_type=2 2 2 2 2 2 2 2 2 2 2 2 2 2 2 2 2 2 2 2 2 2 2 2 2 2 2 2 2 2 2
left_child=1 -1 3 -3 -5 6 -6 9 -9 -7 -2 13 -8 14 15 -12 20 -18 19 -13 -15 -22 23 25 -25 26 -20 28 -24 -16 -29
right_child=10 2 -4 4 5 7 12 8 -10 -11 11 18 -14 16 29 -17 17 -19 22 -21 21 -23 27 24 -26 -27 -28 30 -30 -31 -32
leaf_value=-0.0070522544985348124 0.00016047810376176906 -0.015406015413314007 -0.012048217509944292 -0.014848815635504784 0.00041649117461283651 0.0003793332753068828 0.00022127197531810643 0.00037080681290511887 -1.7480962674345139e-05 0.00026567785994773468 -7.4428493833176384e-06 -0.00078609691021531308 -8.348760281606762e-05 -3.0572488352946526e-05 -5.1988350771219875e-05 8.8566194448385811e-05 7.4036198203936046e-05 -0.00019912128012047298 -0.00014181437803466329 0.00011536158962250235 5.7888160713120457e-05 -0.00011717123258087475 0.00070186788943215142 0.00036847985706786791 -0.00056963514857034893 -1.6950649356987776e-05 -3.2383119641920616e-05 -0.00060159318961753325 -0.00056417901304872296 -0.00014402122827187534 -0.00099052486903647929
leaf_weight=89 29 57 61 31 31 30 64 54 24 20 20 23 32 134 20 35 21 21 387 20 20 24 20 20 20 24 131 1450 92 26 84
leaf_count=89 29 57 61 31 31 30 64 54 24 20 20 23 32 134 20 35 21 21 387 20 20 24 20 20 20 24 131 1450 92 26 84
internal_value=-0.000507707 0.00245537 0.00332673 0.00418513 0.00531818 0.00614706 0.00369685 0.00857812 0.00619231 0.0123 -0.00106505 -0.00111806 0.0019375 0.000182243 0.00176733 0.00395455 -0.000545455 0.00135714 -0.00130185 0.000593023 -0.000994382 0.000545454 -0.00133842 -0.000984536 0.00075 -0.00111255 -0.00121043 -0.00146355 -0.000964286 -0.000847826 -0.0015
internal_weight=3114 493 404 343 286 255 127 128 78 50 2621 2592 96 321 101 55 220 42 2271 43 178 44 2228 582 40 542 518 1646 112 46 1534
internal_count=3114 493 404 343 286 255 127 128 78 50 2621 2592 96 321 101 55 220 42 2271 43 178 44 2228 582 40 542 518 1646 112 46 1534
is_linear=0
shrinkage=0.03


Tree=31
num_leaves=33
num_cat=0
split_feature=2 30 28 3 31 38 39 15 38 38 5 2 3 7 8 13 32 26 6 38 2 9 2 32 38 23 5 23 8 39 39 2
split_gain=5.06657 1.71769 1.69215 2.23356 1.63395 1.30886 1.85328 1.10979 0.898505 1.04051 0.724223 0.762484 0.578526 0.771911 1.4619 0.306878 0.286524 0.262083 0.245455 0.227927 0.117217 0.254014 0.427907 0.125442 0.224796 0.163636 0.109687 0.0427881 0.038737 0.0336307 0.106821 4.44089e-16
threshold=0.25963243842124945 12.500000000000002 1.0000000180025095e-35 -5.5207836627960196 12.500000000000002 0.57502475380897533 0.12642393261194232 1.5000000000000002 0.5766444504261018 0.57833787798881542 -1.8887383937835691 0.50802403688430797 -0.21418347954750058 -0.59086647629737843 49.224601745605476 1.5000000000000002 40.000000000000007 129.50000000000003 -0.36720775067806238 0.571331948041916 0.80362129211425792 53.574405670166023 0.67532297968864452 40.000000000000007 0.57582885026931774 1.401614844799042 -0.13211826235055921 1.4628745913505556 56.486537933349616 0.11909313499927522 0.11741223558783533 12.523135185241701
decision_type=2 2 2 2 2 2 2 2 2 2 2 2 2 2 2 2 2 2 2 2 2 2 2 2 2 2 2 2 2 2 2 2
left_child=1 -1 3 -3 -5 6 -6 -8 15 -10 -2 12 19 14 -14 -7 17 -15 -16 -12 21 23 -23 24 25 -13 -18 -21 29 30 -22 -31
right_child=10 2 -4 4 5 8 7 -9 9 -11 11 20 13 16 18 -17 26 -19 -20 27 28 22 -24 -25 -26 -27 -28 -29 -30 31 -32 -33
leaf_value=-0.0068406868635787661 0.00015566376064891682 -0.014943834950914586 -0.011686770984645963 -0.014403351166439642 0.00064652318734089451 -4.8324493973027094e-05 0.00029632207305627621 0.0002049992871415218 0.00052131617783043752 0.0001927078987558788 4.8265820109685409e-05 -0.00015450467671462731 0.00026187183387964025 3.4417529033945021e-05 1.2042746363741318e-05 0.00014596671234691006 -0.00010602697725494951 -1.2862153062012229e-05 -2.0885262683392227e-05 -7.7740605682230401e-05 -0.00080423549186189229 -0.00011048573228145014 0.00013778478505941608 -0.00017245237925606711 2.8717257230278825e-05 1.9698076669008388e-05 3.971795873644705e-05 -0.00021348922117926184 -0.00071492711309122537 -0.00056878666330302324 0.00020997631504726755 -0.015901652486443846
leaf_weight=89 29 57 61 31 28 29 65 55 29 22 31 90 24 20 20 27 77 23 24 186 83 23 20 275 24 20 27 21 24 1476 28 76
leaf_count=89 29 57 61 31 28 29 65 55 29 22 31 90 24 20 20 27 77 23 24 186 83 23 20 275 24 20 27 21 24 1476 28 76
internal_value=-0.000517341 0.00227282 0.00310396 0.00392274 0.0050035 0.00579412 0.00762162 0.006 0.00326635 0.00614706 -0.00104216 -0.00109491 2.31785e-05 0.00115116 0.00379412 0.000642857 -7.14289e-05 0.00198837 0.000545454 -0.000995799 -0.0013317 -0.000902655 0.0012907 -0.00113325 -0.000380597 -0.000954546 -0.000923077 -0.00135507 -0.00144665 -0.00146392 -0.00095946 -0.0015
internal_weight=3114 493 404 343 286 255 148 120 107 51 2621 2592 453 215 68 56 147 43 44 238 2139 452 43 409 134 110 104 207 1687 1663 111 1552
internal_count=3114 493 404 343 286 255 148 120 107 51 2621 2592 453 215 68 56 147 43 44 238 2139 452 43 409 134 110 104 207 1687 1663 111 1552
is_linear=0
shrinkage=0.03


Tree=32
num_leaves=33
num_cat=0
split_feature=2 30 29 3 4 7 2 25 39 38 10 5 2 6 5 3 7 8 8 38 2 2 1 38 7 38 24 39 5 1 0 0
split_gain=4.88227 1.66273 1.638 2.16209 1.48002 1.25361 1.7112 1.37785 1.06659 1.70465 1.06177 0.978469 0.792632 0.678788 0.6375 0.54627 0.586627 0.81 0.443402 0.345053 0.147368 0.127217 0.173301 0.151225 0.111461 0.331869 0.0530812 0.149021 0.0436306 0.0425373 0.0251804 8.88178e-16
threshold=0.25963243842124945 12.500000000000002 1.0000000180025095e-35 -5.5207836627960196 -0.18903132528066632 -0.43199734389781946 0.16784590482711795 48.229824066162116 0.13841276615858081 0.5745401680469514 19.500000000000004 -1.7517865300178526 0.44116334617137914 -0.47964897751808161 -0.23299352079629895 -0.19412703812122342 -0.58269652724266041 49.384012222290046 51.920925140380866 0.571331948041916 0.40573598444461828 0.80362129211425792 58.980358123779304 0.56897333264350902 -0.20006652921438214 0.57582885026931774 -16.364787101745602 0.12014163285493852 -0.81257051229476918 59.040971755981452 60.846120834350593 61.673852920532234
decision_type=2 2 2 2 2 2 2 2 2 2 2 2 2 2 2 2 2 2 2 2 2 2 2 2 2 2 2 2 2 2 2 2
left_child=1 -1 3 -3 8 10 7 -7 9 -5 -6 13 15 -2 -11 19 17 -17 20 -13 -18 22 -14 -24 30 -26 27 -23 -21 -29 -25 -28
right_child=11 2 -4 4 5 6 -8 -9 -10 14 -12 12 21 -15 -16 16 18 -19 -20 28 -22 26 23 24 25 -27 31 29 -30 -31 -32 -33
leaf_value=-0.0066354662576714038 0.00018926548101591708 -0.014495519902387149 -0.011336167855106582 0.00028741455769053383 0.00028797367897585483 0.00027002505327666614 8.5252732782696043e-05 0.00030318110605944467 -9.1181612954820045e-05 -3.0147392134005434e-05 0.00020088234126051848 5.2438261977589919e-05 1.9613301243460686e-06 -0.00050914407500518512 0.00018653219293722243 0.00027814543425171042 -5.9782049386207957e-05 8.7289660867616383e-06 5.0513499845341498e-05 -2.8878700582869597e-05 3.3939508244315823e-05 0.00067451256329776861 1.4787128503248123e-05 -0.0001349557636340345 -0.00018267809702415301 4.6234119248087816e-05 -0.00053227367583790017 -0.019942970349106547 -8.5485314186498066e-05 -0.020128626847387966 -1.5027067839955599e-05 -0.0010821361210847276
leaf_weight=89 20 57 61 39 23 33 26 23 39 34 39 21 34 22 30 20 56 25 21 20 20 20 20 349 109 32 1500 20 137 114 36 25
leaf_count=89 20 57 61 39 23 33 26 23 39 34 39 21 34 22 30 20 56 25 21 20 20 20 20 349 109 32 1500 20 137 114 36 25
internal_value=-0.000526975 0.00221197 0.0030297 0.00383528 0.0048986 0.00704167 0.00947561 0.0124286 0.00272535 0.00432524 0.00382258 -0.00104216 -0.00111613 0.0035 0.0013125 0.00028125 0.00166901 0.0045 0.00035567 -0.000825843 -0.000710527 -0.00131408 -0.000931035 -0.00106044 -0.0011578 -0.000436171 -0.0014464 -0.000915585 -0.00130892 -0.00127612 -0.00142208 -0.0015
internal_weight=3114 493 404 343 286 144 82 56 142 103 62 2621 2579 42 64 320 142 45 97 178 76 2259 580 546 526 141 1679 154 157 134 385 1525
internal_count=3114 493 404 343 286 144 82 56 142 103 62 2621 2579 42 64 320 142 45 97 178 76 2259 580 546 526 141 1679 154 157 134 385 1525
is_linear=0
shrinkage=0.03


Tree=33
num_leaves=29
num_cat=0
split_feature=2 30 28 6 31 39 22 39 5 17 2 2 22 6 12 24 22 2 5 2 1 23 6 10 24 39 1 0
split_gain=4.49091 1.55548 1.53235 2.02264 1.47965 1.04598 0.995508 1.62323 0.973544 1.28333 0.838995 0.677589 0.420227 0.663591 0.448148 0.226814 0.323008 0.147217 0.133278 0.124887 0.116378 0.127725 0.254348 0.0859625 0.0560047 0.146293 0.0420635 0.0282609
threshold=0.25963243842124945 12.500000000000002 1.0000000180025095e-35 -2.7838636636734004 12.500000000000002 0.12014163285493852 1.1609318256378176 0.14450517296791079 -1.7517865300178526 1.0000000180025095e-35 0.19002272188663485 0.44116334617137914 1.1064375638961794 -0.24230628460645673 1.5000000000000002 -2.8239586353301998 1.4033609032630923 0.85091039538383495 -1.2309873104095457 0.34313091635704046 58.815925598144538 1.5091185569763186 -0.24788189679384229 20.500000000000004 -16.364787101745602 0.12014163285493852 59.040971755981452 59.998929977416999
decision_type=2 2 2 2 2 2 2 2 2 2 2 2 2 2 2 2 2 2 2 2 2 2 2 2 2 2 2 2
left_child=1 -1 3 -3 -5 -6 10 -8 9 -2 -7 12 13 14 -10 -14 19 18 -13 -17 -20 23 -23 -22 25 -19 -27 -15
right_child=8 2 -4 4 5 6 7 -9 11 -11 -12 17 15 27 -16 16 -18 24 20 -21 21 22 -24 -25 -26 26 -28 -29
leaf_value=-0.0064364022699412611 0.00018358751658543879 -0.014060654305315536 -0.010996082819453384 -0.013974202516504662 0.00069912710471540455 0.00021284143835049798 0.00021600542959455729 0.00030308138391319043 1.1139939353917836e-05 -0.00091827554855723834 -3.3373181187264493e-05 1.1726800279279507e-06 -8.60628853174927e-05 -5.0892267945293706e-05 7.0151898810050543e-05 7.2695990059353864e-06 5.4902174932711163e-05 0.0006542771863988358 -1.0022366777384814e-05 -4.3865235230093658e-05 -0.00013565513739634104 -0.00044484832265495177 0.00036241316592416554 -7.1991869848862409e-05 -0.00059940159754702678 -0.019344681238633352 -0.019508690628055478 -0.0001347263206244873
leaf_weight=89 20 57 61 31 23 71 109 21 24 22 31 20 111 20 30 39 24 20 23 46 403 26 20 171 1450 20 106 26
leaf_count=89 20 57 61 31 23 71 109 21 24 22 31 20 111 20 30 39 24 20 23 46 403 26 20 171 1450 20 106 26
internal_value=-0.000536609 0.00209026 0.00288119 0.00366035 0.00468881 0.00544118 0.00483621 0.00657692 -0.00103071 0.0035 0.00261765 -0.0011045 0.0001875 0.0018 0.00405556 -0.000545455 0.000426605 -0.00128752 -0.000911765 -0.000441177 -0.000986781 -0.00106452 0.000456521 -0.00118641 -0.00144361 -0.000883562 -0.00126191 -0.000847826
internal_weight=3114 493 404 343 286 255 232 130 2621 42 102 2579 320 100 54 220 109 2259 663 85 643 620 46 574 1596 146 126 46
internal_count=3114 493 404 343 286 255 232 130 2621 42 102 2579 320 100 54 220 109 2259 663 85 643 620 46 574 1596 146 126 46
is_linear=0
shrinkage=0.03


Tree=34
num_leaves=30
num_cat=0
split_feature=2 30 28 3 4 2 7 39 25 39 5 24 38 2 38 5 1 12 2 13 0 5 1 24 39 1 8 2 38
split_gain=4.24193 1.45593 1.493 1.87545 1.29936 2.02521 1.8032 1.22834 1.21212 1.11863 1.09211 0.905757 1.08833 0.410917 0.450172 0.341451 0.281691 0.160998 0.341936 0.225 0.182964 0.074177 0.113043 0.0428292 0.142875 0.0430556 0.0363014 0.0256565 0.153649
threshold=0.35758139193058019 12.500000000000002 1.0000000180025095e-35 -5.5207836627960196 -0.17447834461927411 0.16784590482711795 -0.43199734389781946 0.13563291728496554 48.229824066162116 0.14280156791210177 -1.7517865300178526 -0.60767987370491017 0.5745401680469514 0.73470181226730358 0.56908872723579418 -0.20751517266035077 58.980358123779304 1.5000000000000002 0.41125728189945226 1.5000000000000002 60.734981536865241 -0.073035057634115205 59.959995269775398 -16.364787101745602 0.12014163285493852 59.00366401672364 48.02710151672364 0.85091039538383495 0.57675927877426159
decision_type=2 2 2 2 2 2 2 2 2 2 2 2 2 2 2 2 2 2 2 2 2 2 2 2 2 2 2 2 2
left_child=1 -1 3 -3 7 6 -6 11 -8 15 -2 12 -5 14 -12 -7 -16 21 19 -19 -20 -18 -23 24 -15 -26 -9 28 -25
right_child=10 2 -4 4 5 9 8 26 -10 -11 13 -13 -14 23 16 -17 17 18 20 -21 -22 22 -24 27 25 -27 -28 -29 -30
leaf_value=-0.0062737715408221328 0.00012327990026415821 -0.01369230610428372 -0.010716428594923539 0.00023976024358548663 0.00026028448297544664 -2.0254778128867529e-05 0.00025123098550490329 2.795349750136615e-06 0.0002894957036614077 0.00024686918814153982 3.2464184604426736e-05 -1.5113384467387872e-05 5.4339404753483682e-05 0.00052332373463006621 6.1472299030070142e-06 0.00023438419423303411 -0.00013708859837881714 7.6033644519106226e-05 -0.00011495703866588622 -0.00012163295723649644 0.0001823677824827913 4.5585708707531879e-06 -1.7486372341782869e-05 -0.00019127515399286599 -0.019037741475334158 -0.018958287394462869 -5.3732630287076606e-05 -0.00058141954962061639 1.0841171093661904e-05
leaf_weight=113 39 74 82 45 36 46 33 20 22 25 24 24 62 21 35 32 267 20 208 20 31 20 26 120 20 124 53 1450 22
leaf_count=113 39 74 82 45 36 46 33 20 22 25 24 24 62 21 35 32 267 20 208 20 31 20 26 120 20 124 53 1450 22
internal_value=-0.000517341 0.00160345 0.00223646 0.00288559 0.003701 0.00545876 0.00871978 0.00202941 0.0121364 0.00257767 -0.00109542 0.00376718 0.0049486 -0.00117608 -0.000532258 0.000807692 -0.000686603 -0.000841217 -0.000317205 0.00225 -0.000746862 -0.00130831 -0.000195653 -0.00141463 -0.000954546 -0.00129167 -0.00108904 -0.00146231 -0.00107747
internal_weight=3114 667 554 472 398 194 91 204 55 103 2447 131 107 2408 651 78 627 592 279 40 239 313 46 1757 165 144 73 1592 142
internal_count=3114 667 554 472 398 194 91 204 55 103 2447 131 107 2408 651 78 627 592 279 40 239 313 46 1757 165 144 73 1592 142
is_linear=0
shrinkage=0.03


Tree=35
num_leaves=15
num_cat=0
split_feature=0 30 28 24 3 3 7 0 1 4 24 25 0 0
split_gain=0.715913 0.757159 0.745488 1.97729 0.823148 2.31648 1.75904 0.598819 0.180575 0.0627205 0.127273 0.0486431 2.22045e-16 1.11022e-16
threshold=59.247341156005866 12.500000000000002 1.0000000180025095e-35 -12.885096073150633 -5.5207836627960196 -1.485522389411926 -2.3979173898696895 60.817935943603523 58.762603759765632 -0.83190429210662831 -2.7304660081863399 39.903175354003913 52.185842514038093 61.303339004516609
decision_type=2 2 2 2 2 2 2 2 2 2 2 2 2 2
left_child=8 13 3 -3 -5 -6 -7 -8 -1 10 -10 -11 -13 -2
right_child=1 2 -4 4 5 6 7 -9 9 11 -12 12 -14 -15
leaf_value=3.2240618446770079e-06 -0.0064202301913469026 0.0025704192046400471 -0.010748412181525654 -0.013428411964582469 0.00055728296967262798 0.00054350590327839773 1.299112984534304e-05 -9.6963447922745607e-05 0.00028564070365558848 -4.7518950357218629e-05 -0.00027895487006526781 -0.015158101275212242 -0.00039476675856425867 -0.014791727106850616
leaf_weight=20 353 23 270 252 20 25 1090 249 20 20 35 27 690 29
leaf_count=20 353 23 270 252 20 25 1090 249 20 20 35 27 690 29
internal_value=-0.000548992 -0.000279749 -3.8103e-05 0.000199819 7.70168e-05 0.000364161 0.000215542 6.83342e-05 -0.00131527 -0.00138636 -0.000409091 -0.00145929 -0.0015 -0.0015
internal_weight=3123 2311 1929 1659 1636 1384 1364 1339 812 792 55 737 717 382
internal_count=3123 2311 1929 1659 1636 1384 1364 1339 812 792 55 737 717 382
is_linear=0
shrinkage=0.03


Tree=36
num_leaves=29
num_cat=0
split_feature=2 5 17 30 28 6 2 7 7 7 9 1 1 39 38 38 2 9 22 8 1 24 7 24 39 2 0 0
split_gain=3.90522 1.26218 1.3913 1.25503 1.33659 1.54593 1.3573 1.05609 1.19654 0.866667 1.08333 0.585076 1.05006 1.06209 0.777833 0.427861 0.152916 0.256951 0.67712 0.138028 0.129007 0.0668067 0.187013 0.050227 0.151487 0.0429577 4.44089e-16 1.11022e-16
